tree
version=v4
num_class=1
num_tree_per_iteration=1
label_index=0
max_feature_idx=2
objective=regression
feature_names=foir disposable_income liquidity_score
feature_infos=[0.0104:1] [-19993.900000000001:99926.630000000005] [0.11550000000000001:0.9889]
tree_sizes=1367 1432 1433 1437 1441 1444 1444 1445 1267 1451 1455 1454 1450 1454 1281 1376 1376 1291 1466 1465 1384 1473 1298 1208 1299 1210 1217 1038 1301 1210 1125 1033 864 947 1224 863 1046 771 1219 870 957 773 869 957 777 1047 782 861 963 777 1132 1048 1048 783 1139 867 870 1133 866 787

Tree=0
num_leaves=15
num_cat=0
split_feature=0 1 1 0 0 0 0 2 2 2 2 2 2 2
split_gain=8.91098 2.51831 1.65258 1.25632 0.689318 0.627284 0.546644 0.311776 0.208508 0.206397 0.183178 0.162842 0.145042 0.123066
threshold=0.54815000000000003 26867.775000000005 29735.890000000003 0.27400000000000008 0.37105000000000005 0.8922500000000001 0.8116000000000001 0.67565000000000008 0.67565000000000008 0.59450000000000014 0.70945000000000003 0.7773500000000001 0.70405000000000018 0.72045000000000015
decision_type=2 2 2 2 2 2 2 2 2 2 2 2 2 2
left_child=1 4 5 12 11 10 9 -5 -6 -4 -2 -1 -3 -8
right_child=2 3 6 7 8 -7 13 -9 -10 -11 -12 -13 -14 -15
leaf_value=0.58369794235166372 0.55979703590273855 0.60157880113149675 0.57222228679939036 0.58800258785389437 0.56760028626148895 0.54860211378477253 0.56409625165870991 0.59605939126777741 0.57888839782655443 0.58192530649492868 0.56832537442705977 0.5919713888988376 0.60988297558999782 0.57225512950480273
leaf_weight=61 40 33 28 83 30 29 29 114 36 101 68 39 58 51
leaf_count=61 40 33 28 83 30 29 29 114 36 101 68 39 58 51
internal_value=0.582286 0.591499 0.570196 0.597154 0.581689 0.56166 0.575792 0.592665 0.573757 0.579819 0.565167 0.586925 0.606872 0.569298
internal_weight=800 454 346 288 166 137 209 197 66 129 108 100 91 80
internal_count=800 454 346 288 166 137 209 197 66 129 108 100 91 80
is_linear=0
shrinkage=1


Tree=1
num_leaves=15
num_cat=0
split_feature=0 1 1 0 0 0 0 2 2 2 2 2 2 2
split_gain=7.2179 2.03983 1.33859 1.01762 0.578977 0.511609 0.443796 0.256292 0.241959 0.159542 0.150372 0.120274 0.107035 0.0987309
threshold=0.54815000000000003 26867.775000000005 29735.890000000003 0.27400000000000008 0.31535000000000007 0.86945000000000017 0.79935000000000012 0.63805000000000012 0.62575000000000014 0.59450000000000014 0.78660000000000008 0.65295000000000003 0.7480500000000001 0.73675000000000013
decision_type=2 2 2 2 2 2 2 2 2 2 2 2 2 2
left_child=1 4 5 11 13 10 9 -5 -6 -4 -2 -3 -8 -1
right_child=2 3 6 7 8 -7 12 -9 -10 -11 -12 -13 -14 -15
leaf_value=0.0022963822086560812 -0.018552400251584396 0.015876032606415128 -0.0089933823147125974 0.0043169053594595682 -0.012603319012983281 -0.029199210291399675 -0.015086481474885128 0.011930528884896867 -0.0019738125254125257 -0.00018191851523457743 -0.010881261051969326 0.024241469285505662 -0.0079849230548874901 0.0097139510669206324
leaf_weight=34 56 23 26 67 33 34 41 130 61 98 47 68 44 38
leaf_count=34 56 23 26 67 33 34 41 130 61 98 47 68 44 38
internal_value=-2.91984e-11 0.00829221 -0.0108805 0.0133811 -0.000536777 -0.018563 -0.00584468 0.00934112 -0.00570545 -0.00202948 -0.015052 0.0221271 -0.0114104 0.00621121
internal_weight=800 454 346 288 166 137 209 197 94 124 103 91 85 72
internal_count=800 454 346 288 166 137 209 197 94 124 103 91 85 72
is_linear=0
shrinkage=0.1


Tree=2
num_leaves=15
num_cat=0
split_feature=0 1 1 0 0 0 0 2 2 2 2 2 2 0
split_gain=5.85382 1.72762 1.11416 0.871725 0.399159 0.356384 0.341951 0.282948 0.184585 0.14442 0.118109 0.0888106 0.0844373 0.0669415
threshold=0.5515000000000001 15016.130000000003 29735.890000000003 0.28760000000000008 0.8922500000000001 0.8116000000000001 0.37105000000000005 0.8075500000000001 0.65295000000000003 0.65295000000000003 0.62835000000000008 0.67795000000000016 0.72045000000000015 0.23410000000000003
decision_type=2 2 2 2 2 2 2 2 2 2 2 2 2 2
left_child=1 6 4 8 10 9 13 -5 -3 -4 -2 -8 -7 -1
right_child=2 3 5 7 -6 12 11 -9 -10 -11 -12 -13 -14 -15
leaf_value=0.0057160902479342348 -0.019988130047344246 0.01169846954783707 -0.0070276093261782083 0.0050356351246020996 -0.027395462835657188 -0.014862011424426376 -0.01260187647960804 0.012998411432093394 0.020510441012242264 0.0002191958366893232 -0.012217862271008236 -0.0046321091053461464 -0.008103856084612655 -0.00062802097519847739
leaf_weight=29 26 33 40 153 29 29 27 63 85 88 79 29 51 39
leaf_count=29 26 33 40 153 29 29 27 63 85 88 79 29 51 39
internal_value=-1.04483e-11 0.00739188 -0.00989907 0.0111341 -0.0170102 -0.00531784 -0.00268797 0.00735811 0.0180461 -0.00204543 -0.0141419 -0.00847468 -0.0105537 0.00207756
internal_weight=800 458 342 334 134 208 124 216 118 128 105 56 80 68
internal_count=800 458 342 334 134 208 124 216 118 128 105 56 80 68
is_linear=0
shrinkage=0.1


Tree=3
num_leaves=15
num_cat=0
split_feature=0 1 1 0 0 0 0 2 2 0 2 2 2 2
split_gain=4.74159 1.43632 0.911922 0.659334 0.412409 0.347776 0.292431 0.18762 0.153185 0.11814 0.114673 0.101309 0.0978167 0.0891443
threshold=0.5515000000000001 30260.345000000005 32676.985000000004 0.27400000000000008 0.31535000000000007 0.79935000000000012 0.71305000000000007 0.53680000000000005 0.62575000000000014 0.93405000000000016 0.65295000000000003 0.61445000000000005 0.7480500000000001 0.75095000000000012
decision_type=2 2 2 2 2 2 2 2 2 2 2 2 2 2
left_child=1 4 5 13 -1 11 10 -5 -6 -8 -4 -2 -7 -3
right_child=2 3 6 7 8 12 9 -9 -10 -11 -12 -13 -14 -15
leaf_value=0.0052531180407804183 -0.017393236898857616 0.015166111984615064 -0.0051265405763968319 0.00016647641788478251 -0.009530516275884332 -0.026462951779365543 -0.0057951531126437823 0.0091703792752979765 -0.0015139811254717209 -0.012769809168051273 0.0026694821698280673 -0.0097567109896106209 -0.017205192858264561 0.021568556146865543
leaf_weight=78 23 43 29 27 37 25 85 162 67 34 54 71 21 44
leaf_count=78 23 43 29 27 37 25 85 162 67 34 54 71 21 44
internal_value=2.7464e-11 0.00665269 -0.00890916 0.0112002 -0.000243531 -0.0151118 -0.00461029 0.00788411 -0.00436602 -0.00778791 -5.44294e-05 -0.0116252 -0.0222366 0.0184041
internal_weight=800 458 342 276 182 140 202 189 104 119 83 94 46 87
internal_count=800 458 342 276 182 140 202 189 104 119 83 94 46 87
is_linear=0
shrinkage=0.1


Tree=4
num_leaves=15
num_cat=0
split_feature=0 1 1 0 0 0 0 2 1 2 2 2 2 0
split_gain=3.84803 1.23684 0.775011 0.590735 0.255084 0.252956 0.227766 0.20059 0.140259 0.109569 0.10383 0.0712276 0.0484953 0.0478071
threshold=0.56775000000000009 14804.785000000002 21056.725000000002 0.28760000000000008 0.71305000000000007 0.89540000000000008 0.37105000000000005 0.53680000000000005 39376.340000000004 0.58400000000000019 0.70305000000000006 0.79955000000000009 0.76335000000000008 0.19550000000000003
decision_type=2 2 2 2 2 2 2 2 2 2 2 2 2 2
left_child=1 6 4 8 -2 9 13 -5 -3 -4 -6 -8 -7 -1
right_child=2 3 5 7 10 12 11 -9 -10 -11 -12 -13 -14 -15
leaf_value=0.0049613233408890671 -0.009723894735604215 0.0095281880588044196 -0.007978989803564868 -0.0010372602467292123 -0.024591242770353954 -0.013587759050230186 -0.0092650154915948704 0.0072078043882279315 0.016945243422396301 -0.001695493186425258 -0.016145830641727192 -0.0020143083622679117 -0.007406460016500205 -0.00058693023236672877
leaf_weight=25 48 37 35 35 24 30 42 188 82 134 37 20 22 41
leaf_count=25 48 37 35 35 24 30 42 188 82 134 37 20 22 41
internal_value=3.96867e-11 0.00581142 -0.00827687 0.00894975 -0.0151774 -0.00487346 -0.00257381 0.00591374 0.0146391 -0.00299681 -0.0194686 -0.00692608 -0.0109726 0.00151468
internal_weight=800 470 330 342 109 221 128 223 119 169 61 62 52 66
internal_count=800 470 330 342 109 221 128 223 119 169 61 62 52 66
is_linear=0
shrinkage=0.1


Tree=5
num_leaves=15
num_cat=0
split_feature=0 1 1 0 0 0 0 2 2 2 2 2 2 2
split_gain=3.11691 1.02714 0.63543 0.477477 0.289308 0.261361 0.187888 0.152924 0.141117 0.0993538 0.0801222 0.0673451 0.0623434 0.0467039
threshold=0.56775000000000009 30260.345000000005 36334.525000000001 0.35795000000000005 0.40745000000000003 0.8922500000000001 0.8116000000000001 0.81340000000000012 0.65295000000000003 0.68425000000000014 0.55845000000000011 0.73865000000000014 0.65295000000000003 0.66585000000000016
decision_type=2 2 2 2 2 2 2 2 2 2 2 2 2 2
left_child=1 4 5 8 9 10 12 -5 -3 -1 -2 -6 -4 -8
right_child=2 3 6 7 11 -7 13 -9 -10 -11 -12 -13 -14 -15
leaf_value=-0.0011569506658301891 -0.015873675085604191 0.0086563175055198362 -0.0043536522811544794 0.003234721758788034 -0.0084338831831701107 -0.020338681992143393 -0.011533185765147211 0.010182740580704478 0.015819785083559426 0.004746085101738573 -0.008909840484051721 -0.0021532295985267529 0.00076857397137713199 -0.005876260602208614
leaf_weight=46 20 40 35 107 38 32 20 45 88 75 95 31 74 54
leaf_count=46 20 40 35 107 38 32 20 45 88 75 95 31 74 54
internal_value=1.96451e-13 0.00523028 -0.00744919 0.00908119 -0.000444742 -0.0123452 -0.00351631 0.0052917 0.0135812 0.00250196 -0.0101209 -0.00561214 -0.000876178 -0.00740516
internal_weight=800 470 330 280 190 147 183 152 128 121 115 69 109 74
internal_count=800 470 330 280 190 147 183 152 128 121 115 69 109 74
is_linear=0
shrinkage=0.1


Tree=6
num_leaves=15
num_cat=0
split_feature=0 1 1 0 0 0 0 2 1 2 2 2 2 2
split_gain=2.54468 0.770951 0.632899 0.279341 0.239453 0.221205 0.219356 0.131717 0.116956 0.0947931 0.085783 0.0682869 0.0623996 0.0611204
threshold=0.51765000000000005 38049.960000000014 36334.525000000001 0.27730000000000005 0.86945000000000017 0.69930000000000014 0.28495000000000009 0.8045000000000001 5391.4800000000005 0.80705000000000016 0.62255000000000005 0.75405000000000011 0.85335000000000016 0.60510000000000008
decision_type=2 2 2 2 2 2 2 2 2 2 2 2 2 2
left_child=1 6 4 12 9 13 10 -5 -8 -2 -1 -7 -3 -4
right_child=2 3 5 7 -6 11 8 -9 -10 -11 -12 -13 -14 -15
leaf_value=-0.00063239622402761603 -0.010547016344190273 0.01220063690604134 -0.0030226932947989556 0.0046945125729107532 -0.017654714531995155 -0.0077234557682746346 -0.0053686642417569942 0.011160262483779503 0.00092829426660990481 -0.0048876833957721202 0.007015374611047182 -0.0029094409289174392 0.018226020574569703 0.0027267974595175273
leaf_weight=20 83 55 25 100 37 57 54 46 65 46 55 61 25 71
leaf_count=20 83 55 25 100 37 57 54 46 65 46 55 61 25 71
internal_value=-6.89215e-12 0.00536461 -0.00592931 0.00933411 -0.010563 -0.00233494 0.000740355 0.00673167 -0.00192915 -0.00852896 0.00497597 -0.00523485 0.0140836 0.00122953
internal_weight=800 420 380 226 166 214 194 146 119 129 75 118 80 96
internal_count=800 420 380 226 166 214 194 146 119 129 75 118 80 96
is_linear=0
shrinkage=0.1


Tree=7
num_leaves=15
num_cat=0
split_feature=0 1 1 0 0 0 2 0 2 1 2 2 2 2
split_gain=2.06119 0.62447 0.512648 0.238198 0.214891 0.183256 0.180964 0.144246 0.124017 0.120657 0.0757552 0.0661185 0.0542007 0.0332111
threshold=0.51765000000000005 38049.960000000014 36334.525000000001 0.41400000000000009 0.71305000000000007 0.8116000000000001 0.49295000000000005 0.2808500000000001 0.69985000000000008 -5409.6649999999991 0.80180000000000007 0.78980000000000017 0.59450000000000014 0.66585000000000016
decision_type=2 2 2 2 2 2 2 2 2 2 2 2 2 2
left_child=1 6 4 8 11 12 -1 -8 -3 -6 -5 -2 -4 -7
right_child=2 3 5 10 9 13 7 -9 -10 -11 -12 -13 -14 -15
leaf_value=-0.0074622466321064467 -0.0081235902762273327 0.0072567549423853822 -0.0036634521378624825 0.0020416296590285909 -0.018827765613794328 -0.0096075213886797437 0.0055161277167140865 -0.00047798415219100815 0.013271556755657807 -0.010578980070889974 0.0084902901083869099 -0.0022553105511178731 0.0010753915456407747 -0.0048372233062292692
leaf_weight=24 48 57 31 56 25 20 65 105 86 61 27 32 109 54
leaf_count=24 48 57 31 56 25 20 65 105 86 61 27 32 109 54
internal_value=4.16221e-11 0.00482815 -0.00533638 0.0084007 -0.00950671 -0.00210145 0.00066632 0.00181388 0.010874 -0.0129769 0.00413939 -0.00577628 2.60762e-05 -0.00612649
internal_weight=800 420 380 226 166 214 194 170 143 86 83 80 140 74
internal_count=800 420 380 226 166 214 194 170 143 86 83 80 140 74
is_linear=0
shrinkage=0.1


Tree=8
num_leaves=13
num_cat=0
split_feature=0 1 1 0 2 0 0 2 2 1 2 2
split_gain=1.69178 0.650393 0.373652 0.357197 0.23397 0.109492 0.102076 0.0664265 0.0643919 0.0555447 0.0352068 0.029955
threshold=0.62965000000000015 12288.290000000003 11510.995000000001 0.17860000000000001 0.53680000000000005 0.89540000000000008 0.24025000000000002 0.69450000000000012 0.69860000000000011 43384.560000000005 0.75095000000000012 0.7480500000000001
decision_type=2 2 2 2 2 2 2 2 2 2 2 2
left_child=1 6 7 10 -5 9 -1 -2 -8 -4 -3 -7
right_child=2 3 5 4 -6 11 8 -9 -10 -11 -12 -13
leaf_value=0.0028699273691297727 -0.01694166800723626 0.010245663410951865 -0.0051601946638682138 -0.0021116778893651915 0.0052426389890752037 -0.010023120468990371 -0.007105520584209022 -0.010381994844953481 -0.0020859786523653875 -0.0013148957685393471 0.015216992436242955 -0.0053800037722491348
leaf_weight=26 26 29 65 51 285 33 43 38 63 89 28 24
leaf_count=26 26 29 65 51 285 33 43 38 63 89 28 24
internal_value=2.89751e-11 0.00332823 -0.00635389 0.00536808 0.00412636 -0.0043238 -0.00274497 -0.0130469 -0.00412221 -0.00293791 0.0126877 -0.00806812
internal_weight=800 525 275 393 336 211 132 64 106 154 57 57
internal_count=800 525 275 393 336 211 132 64 106 154 57 57
is_linear=0
shrinkage=0.1


Tree=9
num_leaves=15
num_cat=0
split_feature=0 1 1 0 2 2 0 0 2 0 0 2 2 2
split_gain=1.41745 0.447942 0.384706 0.230087 0.139989 0.134447 0.117428 0.0984914 0.0769515 0.0668506 0.0606467 0.0604106 0.0494986 0.0186283
threshold=0.49150000000000005 39376.340000000004 10050.035000000002 0.70835000000000015 0.70945000000000003 0.49295000000000005 0.68855000000000011 0.26015000000000005 0.75405000000000011 0.39350000000000002 0.3433500000000001 0.58400000000000019 0.76025000000000009 0.76025000000000009
decision_type=2 2 2 2 2 2 2 2 2 2 2 2 2 2
left_child=1 5 6 11 9 -1 13 -7 -5 -3 -6 -4 -8 -2
right_child=2 4 3 8 10 7 12 -9 -10 -11 -12 -13 -14 -15
leaf_value=-0.0062030357678357489 -0.007985867091244268 0.0068433643743526524 -0.0036997653295596442 -0.0072981187350210988 0.012126685567200184 0.0053060724784801203 -0.016652271443087122 8.3520292483885364e-05 -0.0028981604009459261 0.0013390225177216863 0.0074110591299831876 0.0012972066690912472 -0.009937221326288723 -0.0041284438815810494
leaf_weight=24 31 57 30 79 60 54 23 109 80 36 50 125 21 21
leaf_count=24 31 57 30 79 60 54 23 109 80 36 50 125 21 21
internal_value=8.77537e-12 0.00431587 -0.00410534 -0.00241161 0.00756862 0.000784806 -0.00964524 0.00181369 -0.0050843 0.00471265 0.00998322 0.000330051 -0.0134474 -0.00642806
internal_weight=800 390 410 314 203 187 96 163 159 93 110 155 44 52
internal_count=800 390 410 314 203 187 96 163 159 93 110 155 44 52
is_linear=0
shrinkage=0.1


Tree=10
num_leaves=15
num_cat=0
split_feature=0 1 1 0 0 0 2 2 1 2 0 1 0 0
split_gain=1.14813 0.368579 0.317629 0.148475 0.138394 0.133386 0.108749 0.0924064 0.0806387 0.0574079 0.0540684 0.0466648 0.0272617 0.0212564
threshold=0.49150000000000005 26867.775000000005 42337.375000000007 0.17860000000000001 0.71305000000000007 0.8116000000000001 0.76710000000000012 0.64205000000000012 -5409.6649999999991 0.81880000000000008 0.2808500000000001 6678.8550000000005 0.33950000000000008 0.9396000000000001
decision_type=2 2 2 2 2 2 2 2 2 2 2 2 2 2
left_child=1 7 4 -3 11 9 -5 12 -6 -4 -9 -2 -1 -7
right_child=2 3 5 6 8 13 -8 10 -10 -11 -12 -13 -14 -15
leaf_value=-0.0012257037899241997 -0.0063522964676326898 0.01114223623275757 -0.00048533406962714349 0.0031603681497831496 -0.014169061645865441 -0.0030418584121761319 0.0080629891090809487 0.0047069067778801061 -0.0075650446425178947 0.0039908168738475068 -0.0001296912132756453 -0.0020960653940084997 -0.005850628254935146 -0.0065824524623652311
leaf_weight=26 47 50 101 119 25 39 73 38 71 40 59 57 25 30
leaf_count=26 47 50 101 119 25 39 73 38 71 40 59 57 25 30
internal_value=9.07858e-12 0.00388428 -0.00369481 0.0062884 -0.00654689 -0.000978534 0.00502439 -4.67792e-05 -0.00928484 0.000784496 0.00176506 -0.00401955 -0.00349282 -0.00458125
internal_weight=800 390 410 242 200 210 192 148 96 141 97 104 51 69
internal_count=800 390 410 242 200 210 192 148 96 141 97 104 51 69
is_linear=0
shrinkage=0.1


Tree=11
num_leaves=15
num_cat=0
split_feature=0 1 1 2 0 0 0 0 2 2 2 2 2 0
split_gain=0.929988 0.305997 0.26132 0.154098 0.124814 0.124695 0.0725909 0.0617682 0.0527899 0.0455876 0.043831 0.0409526 0.0359509 0.0209161
threshold=0.49150000000000005 5391.4800000000005 20486.675000000003 0.75095000000000012 0.68390000000000006 0.76230000000000009 0.15015000000000003 0.19550000000000003 0.76615000000000011 0.59940000000000004 0.5868000000000001 0.60510000000000008 0.78585000000000016 0.28495000000000009
decision_type=2 2 2 2 2 2 2 2 2 2 2 2 2 2
left_child=1 9 5 6 11 10 -3 -5 -6 -1 -2 -4 -7 -11
right_child=2 3 4 7 8 12 -8 -9 -10 13 -12 -13 -14 -15
leaf_value=-0.0057424058084902564 -0.0089503475558012722 0.0085210835782899754 -0.0024008592179355524 0.011262691737801742 -0.0052176851290565585 -0.014030602412379307 0.0022584678201802984 0.0062670085245197767 -0.0014823834285546671 0.0018614245143354587 -0.0036504518063607775 0.0018481836628662649 -0.0083078159817627489 -0.0020205823944083284
leaf_weight=23 20 21 30 33 81 23 156 99 71 23 71 93 21 35
leaf_count=23 20 21 30 33 81 23 156 99 71 23 71 93 21 35
internal_value=2.19443e-11 0.00349586 -0.00332533 0.00492999 -0.00155646 -0.00692857 0.00300149 0.00751593 -0.00347291 -0.0019751 -0.00481526 0.000811832 -0.0112993 -0.000481166
internal_weight=800 390 410 309 275 135 177 132 152 81 91 123 44 58
internal_count=800 390 410 309 275 135 177 132 152 81 91 123 44 58
is_linear=0
shrinkage=0.1


Tree=12
num_leaves=15
num_cat=0
split_feature=0 1 1 0 0 2 2 2 2 2 0 0 0 0
split_gain=0.776759 0.319542 0.200738 0.140714 0.124 0.0721954 0.0587153 0.0509106 0.0506539 0.0443986 0.030302 0.0279509 0.0200719 0.0134399
threshold=0.39920000000000005 42337.375000000007 39376.340000000004 0.74435000000000018 0.71305000000000007 0.80180000000000007 0.7480500000000001 0.66820000000000013 0.78980000000000017 0.85335000000000016 0.21510000000000004 0.9396000000000001 0.14240000000000003 0.25590000000000007
decision_type=2 2 2 2 2 2 2 2 2 2 2 2 2 2
left_child=2 4 7 5 8 -3 -6 13 -2 12 -9 -5 -4 -1
right_child=1 3 9 11 6 -7 -8 10 -10 -11 -12 -13 -14 -15
leaf_value=0.0007519567562469646 -0.0044104134824875015 0.00036558085196321054 0.008790479078888894 -0.0018460779482284712 -0.010044237595925831 0.0046151373181215856 -0.0050969826293480094 0.0059228797115233297 -0.0006818904651721058 0.010020643966020766 0.0018458527344904962 -0.0055643017341693241 0.0052441179436260154 -0.0025975799311418087
leaf_weight=23 101 124 20 62 49 59 47 26 57 37 61 30 79 25
leaf_count=23 101 124 20 62 49 59 47 26 57 37 61 30 79 25
internal_value=2.60716e-11 -0.00223026 0.00435353 0.000131779 -0.00478758 0.00173566 -0.00762214 0.00162183 -0.00306531 0.00706514 0.00306427 -0.00305854 0.00596055 -0.000992594
internal_weight=800 529 271 275 254 183 96 135 158 136 87 92 99 48
internal_count=800 529 271 275 254 183 96 135 158 136 87 92 99 48
is_linear=0
shrinkage=0.1


Tree=13
num_leaves=15
num_cat=0
split_feature=0 1 1 0 0 2 2 2 2 2 0 2 0 1
split_gain=0.629175 0.260637 0.163098 0.13834 0.102659 0.0687962 0.0506993 0.046651 0.0392406 0.0319271 0.0262446 0.0237947 0.0215424 0.0121203
threshold=0.39920000000000005 20486.675000000003 30260.345000000005 0.68390000000000006 0.76230000000000009 0.73205000000000009 0.67565000000000008 0.53680000000000005 0.76615000000000011 0.69085000000000008 0.14240000000000003 0.78585000000000016 0.2808500000000001 63575.840000000004
decision_type=2 2 2 2 2 2 2 2 2 2 2 2 2 2
left_child=2 4 9 5 7 -3 13 -2 -5 -1 -8 -6 -11 -4
right_child=1 3 6 8 11 -7 10 -9 -10 12 -12 -13 -14 -15
leaf_value=-0.00098588113052149626 -0.0077476746363875767 -0.00052722363824035385 0.0019574664873895625 -0.0042838434979066619 -0.011623118574852528 0.0031161578987458989 0.010561664952408701 -0.0028428989827360886 -0.0010633842355340496 0.004188065376864481 0.006573456685457911 -0.0069673360369744758 0.00072724892485672864 0.00493029156727971
leaf_weight=45 24 110 24 81 23 98 21 101 71 35 77 21 37 32
leaf_count=45 24 110 24 81 23 98 21 101 71 35 77 21 37 32
internal_value=-6.78483e-13 -0.00200723 0.00391818 -0.000486396 -0.00524688 0.00118937 0.00605649 -0.00378462 -0.00277955 0.00110364 0.00742807 -0.00940104 0.00240959 0.00365622
internal_weight=800 529 271 360 169 208 154 125 152 117 98 44 72 56
internal_count=800 529 271 360 169 208 154 125 152 117 98 44 72 56
is_linear=0
shrinkage=0.1


Tree=14
num_leaves=13
num_cat=0
split_feature=0 1 1 2 0 0 0 2 2 1 2 0
split_gain=0.519327 0.230878 0.138145 0.12444 0.102189 0.0486622 0.033273 0.0315268 0.0266278 0.0244297 0.0238066 0.0129811
threshold=0.61225000000000007 10050.035000000002 6315.6100000000015 0.50075000000000014 0.36860000000000004 0.83945000000000014 0.23410000000000003 0.69450000000000012 0.87480000000000013 37679.92500000001 0.5960000000000002 0.41875000000000001
decision_type=2 2 2 2 2 2 2 2 2 2 2 2
left_child=1 6 7 11 -5 8 -1 -2 -4 -7 -8 -3
right_child=2 3 5 4 -6 9 10 -9 -10 -11 -12 -13
leaf_value=0.0013845370728522539 -0.010945708660239523 -0.00027969553854993799 -0.001834812624786618 0.0055491869459271528 0.0021107210254226435 -0.0069439821205984735 -0.0053659097533673046 -0.0059618009813129907 0.0018722289456965645 -0.0032106931167296495 -0.0017904644974743413 -0.0037556033781064413
leaf_weight=25 22 22 123 163 184 24 25 30 23 65 73 21
leaf_count=25 22 22 123 163 184 24 25 30 23 65 73 21
internal_value=1.52536e-11 0.00190571 -0.00340638 0.0030971 0.00372591 -0.00237435 -0.00187186 -0.00807038 -0.00125083 -0.00421742 -0.00270257 -0.00197723
internal_weight=800 513 287 390 347 235 123 52 146 89 98 43
internal_count=800 513 287 390 347 235 123 52 146 89 98 43
is_linear=0
shrinkage=0.1


Tree=15
num_leaves=14
num_cat=0
split_feature=0 1 1 0 2 0 2 2 2 1 0 0 0
split_gain=0.427865 0.161177 0.149675 0.0712688 0.063855 0.0632804 0.0524805 0.0455209 0.0402221 0.0349722 0.0177622 0.0133136 0.000458833
threshold=0.46700000000000003 44807.845000000008 42337.375000000007 0.94255000000000011 0.53680000000000005 0.90120000000000011 0.48925000000000002 0.69985000000000008 0.81880000000000008 5391.4800000000005 0.15775000000000003 0.35795000000000005 0.99655000000000016
decision_type=2 2 2 2 2 2 2 2 2 2 2 2 2
left_child=1 4 3 6 -1 8 -2 11 -4 -6 -9 -3 -7
right_child=2 7 5 -5 9 12 -8 10 -10 -11 -12 -13 -14
leaf_value=-0.0034248667242619299 -0.0079527752050621951 0.0041806630065871616 -0.00047190206777519996 -0.0092572247771465273 -0.00043967670214383804 -0.0035887371847638863 -0.002756880945482495 0.0088588028587400919 0.0027573331853124761 0.002607226902546245 0.0055227123749169047 0.0013998980704469212 -0.0042661094712093473
leaf_weight=33 22 36 135 23 62 20 167 20 54 96 79 33 20
leaf_count=33 22 36 135 23 62 20 167 20 54 96 79 33 20
internal_value=2.52805e-12 0.00256319 -0.00208659 -0.0040013 0.000575985 -0.000314008 -0.00336169 0.00482245 0.000450737 0.00141161 0.00619667 0.00285073 -0.00392742
internal_weight=800 359 441 212 191 229 189 168 189 158 99 69 40
internal_count=800 359 441 212 191 229 189 168 189 158 99 69 40
is_linear=0
shrinkage=0.1


Tree=16
num_leaves=14
num_cat=0
split_feature=0 1 1 0 0 0 2 2 2 2 2 2 2
split_gain=0.354492 0.163763 0.0991286 0.0692827 0.0664898 0.0342428 0.0326892 0.0319392 0.02891 0.0279843 0.0252976 0.0227401 0.0014593
threshold=0.61225000000000007 42696.290000000008 6315.6100000000015 0.35355000000000009 0.36860000000000004 0.9396000000000001 0.76335000000000008 0.57545000000000013 0.85335000000000016 0.84735000000000016 0.7109000000000002 0.68725000000000014 0.73390000000000011
decision_type=2 2 2 2 2 2 2 2 2 2 2 2 2
left_child=1 4 11 8 6 10 -1 -5 -3 -6 -4 -2 -7
right_child=2 3 5 7 9 12 -8 -9 -10 -11 -12 -13 -14
leaf_value=-1.6119338852149667e-05 -0.0093059648360524858 0.0043631769739550762 -0.002758995450094517 -0.0013254965386295227 -0.0026466088755481947 -0.0052093635726487269 0.0031846174718388777 0.002633526316171305 0.0081860271592934918 0.0012255746758613817 -0.00044339980397996011 -0.0050440203939234058 -0.0040013507218100135
leaf_weight=76 21 74 80 24 99 20 55 135 27 23 115 31 20
leaf_count=76 21 74 80 24 99 20 55 135 27 23 115 31 20
internal_value=2.58797e-12 0.00157449 -0.00281434 0.00333697 -0.000236748 -0.00194011 0.0013277 0.00203594 0.00538513 -0.00191661 -0.00139339 -0.00676519 -0.00460536
internal_weight=800 513 287 260 253 235 131 159 101 122 195 52 40
internal_count=800 513 287 260 253 235 131 159 101 122 195 52 40
is_linear=0
shrinkage=0.1


Tree=17
num_leaves=13
num_cat=0
split_feature=0 1 2 1 0 2 2 0 2 0 2 2
split_gain=0.288441 0.152392 0.0887857 0.0845788 0.0752954 0.0277083 0.0243502 0.0192925 0.0138076 0.00881646 0.00875452 0.00747412
threshold=0.67525000000000013 5391.4800000000005 0.50075000000000014 14804.785000000002 0.20195000000000005 0.80095000000000016 0.53880000000000006 0.26015000000000005 0.68725000000000014 0.76230000000000009 0.37050000000000005 0.89420000000000011
decision_type=2 2 2 2 2 2 2 2 2 2 2 2
left_child=1 6 10 8 -4 9 -1 -8 -2 -5 -3 -7
right_child=3 2 4 5 -6 11 7 -9 -10 -11 -12 -13
leaf_value=-0.0050303388802733807 -0.0083768394775688652 -0.00345981742721051 0.0056879999610380486 -0.0015480536588334613 0.0019643488099636945 -0.00097160599165363242 0.0014933217354700901 -0.0019791108190474918 -0.0051450881462257641 -0.0034828656988490064 -0.00079278851728759037 0.0013131302659444158
leaf_weight=21 20 20 65 35 330 45 20 80 39 72 32 21
leaf_count=21 20 20 65 35 330 45 20 80 39 72 32 21
internal_value=8.35985e-12 0.00121354 0.00206575 -0.00297108 0.0025771 -0.00185604 -0.00193471 -0.00128462 -0.0062406 -0.00284998 -0.00181857 -0.000244644
internal_weight=800 568 447 232 395 173 121 100 59 107 52 66
internal_count=800 568 447 232 395 173 121 100 59 107 52 66
is_linear=0
shrinkage=0.1


Tree=18
num_leaves=15
num_cat=0
split_feature=0 1 1 0 2 0 2 2 2 0 2 0 0 0
split_gain=0.24502 0.0961918 0.0902131 0.0442795 0.0412377 0.035773 0.0345851 0.0314415 0.0260714 0.0231233 0.0146364 0.0124658 0.00829065 0.00576601
threshold=0.46700000000000003 44807.845000000008 42337.375000000007 0.94255000000000011 0.66080000000000017 0.84175000000000011 0.48925000000000002 0.81650000000000011 0.81880000000000008 0.19550000000000003 0.46640000000000009 0.35795000000000005 0.3433500000000001 0.9396000000000001
decision_type=2 2 2 2 2 2 2 2 2 2 2 2 2 2
left_child=1 4 3 6 10 8 -2 11 -4 -6 -1 -3 -9 -7
right_child=2 7 5 -5 9 13 -8 12 -10 -11 -12 -13 -14 -15
leaf_value=-0.0037985252402722839 -0.0062883581542833291 0.0036307640516356579 -0.00025181845419865569 -0.0072083676525558672 0.0041110059073953716 -0.0013201718550408259 -0.0020703655512150222 0.0069280472284715096 0.002485574724518561 0.00078677081800897122 -0.00060665228155295495 0.0015312336889671335 0.0043339333803900943 -0.0032807855544767037
leaf_weight=20 22 71 120 23 27 30 167 28 49 93 51 47 22 30
leaf_count=20 22 71 120 23 27 30 167 28 49 93 51 47 22 30
internal_value=5.59919e-12 0.00193967 -0.001579 -0.00306551 0.000404487 -0.000202855 -0.00256135 0.00368502 0.000541864 0.00153472 -0.00150577 0.00279451 0.00578664 -0.00230048
internal_weight=800 359 441 212 191 229 189 168 169 120 71 118 50 60
internal_count=800 359 441 212 191 229 189 168 169 120 71 118 50 60
is_linear=0
shrinkage=0.1


Tree=19
num_leaves=15
num_cat=0
split_feature=0 1 1 2 0 0 2 0 2 2 0 1 2 1
split_gain=0.198933 0.097454 0.0616155 0.0452161 0.0430807 0.0393159 0.0259251 0.0253782 0.0207363 0.0180283 0.0142487 0.00748341 0.00455731 0.00300006
threshold=0.39920000000000005 44080.260000000002 27159.110000000004 0.8045000000000001 0.76230000000000009 0.84175000000000011 0.80270000000000008 0.14240000000000003 0.7773500000000001 0.87600000000000011 0.65785000000000016 5391.4800000000005 0.69085000000000008 1931.6550000000004
decision_type=2 2 2 2 2 2 2 2 2 2 2 2 2 2
left_child=2 3 8 4 -2 6 -3 -4 13 -9 -5 -10 -7 -1
right_child=1 5 7 10 -6 12 -8 9 11 -11 -12 -13 -14 -15
leaf_value=-0.0014930912538806424 -0.0024631510942353238 0.00010551827231908121 0.0059627582319080833 0.00061986473544190337 -0.0059922743578778304 -0.0032644463563337926 0.002505884355250329 0.0022875552271553142 0.00070702876037103128 0.005428254708055069 -0.00192572312235973 0.0033797152890739121 -0.0014077828546317343 -0.00014253734414906879
leaf_weight=29 131 137 32 45 47 20 67 108 20 22 43 22 39 38
leaf_count=29 131 137 32 45 47 20 67 108 20 22 43 22 39 38
internal_value=6.22299e-12 -0.00112867 0.00220319 -0.00247828 -0.003395 0.000236341 0.000893874 0.00344004 0.000364938 0.00281906 -0.000624002 0.00210701 -0.00203716 -0.000727105
internal_weight=800 529 271 266 178 263 204 162 109 130 88 42 59 67
internal_count=800 529 271 266 178 263 204 162 109 130 88 42 59 67
is_linear=0
shrinkage=0.1


Tree=20
num_leaves=14
num_cat=0
split_feature=0 1 1 2 2 0 2 0 2 0 2 2 2
split_gain=0.165631 0.0679254 0.0647376 0.0527313 0.0347985 0.0340289 0.020282 0.0189316 0.0162869 0.013555 0.0137267 0.00764315 0.00279021
threshold=0.48385000000000006 17224.320000000003 6678.8550000000005 0.90150000000000008 0.42530000000000007 0.74945000000000006 0.88280000000000014 0.65785000000000016 0.58525000000000016 0.15215000000000004 0.59940000000000004 0.70240000000000014 0.73040000000000005
decision_type=2 2 2 2 2 2 2 2 2 2 2 2 2
left_child=1 9 7 4 -3 6 -4 12 -7 -1 -11 -9 -2
right_child=2 3 5 -5 -6 8 -8 11 -10 10 -12 -13 -14
leaf_value=0.0017557129380293191 -0.0030843614423204037 -0.0019918903109750578 -0.00033309735900686414 0.0064822507057605049 0.0022686790848754092 -0.004578981420127093 0.0024507567406662051 -0.0067097282758913947 -0.0014948118439845706 -0.0031678630967993137 -0.00036353520190459678 -0.0040628018212980049 -0.0014339735987596216
leaf_weight=20 21 21 168 28 220 20 31 20 119 24 64 24 20
leaf_count=20 21 21 168 28 220 20 31 20 119 24 64 24 20
internal_value=8.42101e-12 0.00152414 -0.0013584 0.00237466 0.00189743 -0.000738015 0.000100568 -0.00382533 -0.00193858 -0.000594266 -0.00112835 -0.00526595 -0.00227929
internal_weight=800 377 423 269 241 338 199 85 139 108 88 44 41
internal_count=800 377 423 269 241 338 199 85 139 108 88 44 41
is_linear=0
shrinkage=0.1


Tree=21
num_leaves=15
num_cat=0
split_feature=0 1 1 2 2 0 0 2 2 0 1 0 2 2
split_gain=0.13536 0.0576616 0.0562796 0.0300262 0.0265768 0.0254826 0.0189819 0.0182629 0.0165018 0.0132344 0.00811885 0.00681115 0.00637062 0.00510734
threshold=0.44690000000000002 10050.035000000002 33874.67500000001 0.58220000000000016 0.85335000000000016 0.67105000000000015 0.74945000000000006 0.66080000000000017 0.50805000000000011 0.19550000000000003 67396.735000000015 0.25590000000000007 0.60075000000000012 0.90150000000000008
decision_type=2 2 2 2 2 2 2 2 2 2 2 2 2 2
left_child=2 6 7 10 8 -5 12 11 -4 -9 -3 -1 -2 -6
right_child=1 3 4 5 13 -7 -8 9 -10 -11 -12 -13 -14 -15
leaf_value=0.00019354880903847517 -0.0037563804286764937 -0.0034689111235719689 -0.00056376666872806494 0.00088794562058731701 0.0038769395375210375 -0.00097175481360433258 -0.005076493695378304 0.0031188013794069941 0.0024888271393009205 0.00032949196177166113 -0.0011231116737471893 -0.0020969596543550695 -0.0016722488478196533 0.0059853227064013484
leaf_weight=20 20 36 21 143 27 152 34 22 113 75 25 37 55 20
leaf_count=20 20 36 21 143 27 152 34 22 113 75 25 37 55 20
internal_value=4.65707e-12 -0.00110407 0.00153251 -0.000487891 0.00272808 -7.02729e-05 -0.00311653 0.000127331 0.00201044 0.000962119 -0.00250752 -0.00129327 -0.00222802 0.00477412
internal_weight=800 465 335 356 181 295 109 154 134 97 61 57 75 47
internal_count=800 465 335 356 181 295 109 154 134 97 61 57 75 47
is_linear=0
shrinkage=0.1


Tree=22
num_leaves=13
num_cat=0
split_feature=0 1 1 2 0 0 2 0 2 2 0 0
split_gain=0.111478 0.0590252 0.0368453 0.034062 0.0241986 0.0239178 0.0208288 0.0195414 0.0139195 0.0120394 0.0055975 0.00204104
threshold=0.39920000000000005 44080.260000000002 27159.110000000004 0.46640000000000009 0.90120000000000011 0.94255000000000011 0.80095000000000016 0.13265000000000002 0.77985000000000004 0.59830000000000017 0.27400000000000008 0.25590000000000007
decision_type=2 2 2 2 2 2 2 2 2 2 2 2
left_child=2 3 8 -2 6 -5 -3 -4 11 -9 -10 -1
right_child=1 4 7 5 -6 -7 -8 9 10 -11 -12 -13
leaf_value=-1.4376098386429508e-05 -0.0051302026523726771 -7.3351317085915667e-05 0.0050083921080970742 -0.0011780484672872687 -0.0020814291062355877 -0.0046398670560764991 0.0019633065257757586 0.00037589698275100565 0.0028803839581087233 0.0026236866201693417 0.00054281653068582753 -0.0011221440847013864
leaf_weight=29 29 148 28 215 39 22 76 31 20 103 21 39
leaf_count=29 29 148 28 215 39 22 76 31 20 103 21 39
internal_value=9.84073e-13 -0.000844903 0.00164928 -0.00189524 0.000217413 -0.0014994 0.000617658 0.00260573 0.000227764 0.00210368 0.00168309 -0.000649714
internal_weight=800 529 271 266 263 237 224 162 109 134 41 68
internal_count=800 529 271 266 263 237 224 162 109 134 41 68
is_linear=0
shrinkage=0.1


Tree=23
num_leaves=12
num_cat=0
split_feature=0 1 1 0 2 2 1 0 2 2 2
split_gain=0.0948544 0.0523857 0.0351308 0.0348436 0.0313125 0.0169055 0.0117433 0.00983883 0.00962322 0.00474606 0.00428574
threshold=0.61225000000000007 5391.4800000000005 14804.785000000002 0.14240000000000003 0.87415000000000009 0.89420000000000011 -11295.759999999998 0.74945000000000006 0.52275000000000016 0.78160000000000018 0.61220000000000019
decision_type=2 2 2 2 2 2 2 2 2 2 2
left_child=1 6 7 -3 -5 8 -1 -2 -4 -9 -8
right_child=2 3 5 4 -6 -7 10 9 -10 -11 -12
leaf_value=0.00030205615519269093 -0.002099931441464125 0.0042188253241444108 -0.002828609629900062 0.00062136380463389141 0.0030865276262756519 0.0016497168578207492 -0.0030175616235836693 -0.0054679576866328719 -0.00081715978871952873 -0.0032894114148803058 -0.0013573725477423674
leaf_weight=37 36 38 28 305 62 25 23 20 158 20 48
leaf_count=37 36 38 28 305 62 25 23 20 158 20 48
internal_value=6.16956e-12 0.000814453 -0.0014558 0.00133629 0.00103782 -0.000791798 -0.00114242 -0.00329928 -0.00111996 -0.00437868 -0.00189518
internal_weight=800 513 287 405 367 211 108 76 186 40 71
internal_count=800 513 287 405 367 211 108 76 186 40 71
is_linear=0
shrinkage=0.1


Tree=24
num_leaves=13
num_cat=0
split_feature=0 2 1 1 2 0 2 0 2 0 2 2
split_gain=0.0786904 0.0382667 0.035296 0.0329336 0.0245022 0.0212567 0.0145831 0.0126001 0.00995716 0.00560928 0.00481702 0.00253693
threshold=0.44690000000000002 0.37745000000000001 3956.9800000000009 17224.320000000003 0.90860000000000019 0.74945000000000006 0.52275000000000016 0.65785000000000016 0.61035000000000006 0.21510000000000004 0.72830000000000006 0.76025000000000009
decision_type=2 2 2 2 2 2 2 2 2 2 2 2
left_child=1 -1 7 9 -5 6 -4 11 -7 -3 -9 -2
right_child=2 3 5 4 -6 8 -8 10 -10 -11 -12 -13
leaf_value=-0.0030731121846474707 -0.0021939146392806262 0.0011046961326008806 -0.001756519696180155 0.0017253370502925841 0.0050486857974901796 -0.0032957571214469877 0.00048202829735727039 -0.0050532846653368324 -0.0010213287268031263 -0.00062580135022811316 -0.0028585134673630823 -0.00072842321048180274
leaf_weight=20 27 26 34 197 25 23 202 20 118 67 20 21
leaf_count=20 27 26 34 197 25 23 202 20 118 67 20 21
internal_value=8.29948e-12 0.00116848 -0.000841806 0.00143778 0.00209959 -0.000420878 0.000159526 -0.0026451 -0.00139233 -0.000142006 -0.0039559 -0.00155276
internal_weight=800 335 465 315 222 377 236 88 141 93 40 48
internal_count=800 335 465 315 222 377 236 88 141 93 40 48
is_linear=0
shrinkage=0.1


Tree=25
num_leaves=12
num_cat=0
split_feature=0 1 0 2 1 2 0 0 2 1 2
split_gain=0.0643473 0.0425536 0.0240571 0.0235338 0.0221432 0.0176937 0.0144912 0.013797 0.0133727 0.0081986 0.00580796
threshold=0.36860000000000004 44080.260000000002 0.088850000000000012 0.46640000000000009 15729.090000000002 0.57545000000000013 0.94255000000000011 0.8166500000000001 0.90150000000000008 76930.780000000013 0.75965000000000016
decision_type=2 2 2 2 2 2 2 2 2 2 2
left_child=2 3 -1 -2 10 9 -5 -7 -6 -3 -4
right_child=1 5 4 6 8 7 -8 -9 -10 -11 -12
leaf_value=0.0046905297040939339 -0.0041156095627229664 -0.0028840269711192536 -0.0013471842607638489 -0.00090838675690260327 0.0013409533679805464 0.0010364278176384287 -0.0035979665318419314 -0.00072327152257627354 0.0040522672723801367 -0.00011564993066713215 0.00059302690292329155
leaf_weight=20 30 23 36 224 136 182 22 59 21 20 27
leaf_count=20 30 23 36 224 136 182 22 59 21 20 27
internal_value=-2.8258e-12 -0.000587127 0.00136996 -0.00147138 0.00106809 0.000272223 -0.00114892 0.00060563 0.00170361 -0.00159641 -0.000515665
internal_weight=800 560 240 276 220 284 246 241 157 43 63
internal_count=800 560 240 276 220 284 246 241 157 43 63
is_linear=0
shrinkage=0.1


Tree=26
num_leaves=12
num_cat=0
split_feature=0 1 2 1 2 2 2 0 0 0 1
split_gain=0.0547373 0.0344755 0.0254761 0.0234712 0.0169544 0.0115331 0.00671808 0.0065804 0.0059564 0.00428201 0.00380192
threshold=0.67525000000000013 5391.4800000000005 0.85020000000000018 14804.785000000002 0.50075000000000014 0.89420000000000011 0.53880000000000006 0.19550000000000003 0.9396000000000001 0.26015000000000005 -5409.6649999999991
decision_type=2 2 2 2 2 2 2 2 2 2 2
left_child=1 6 4 10 -3 8 -1 -4 -5 -8 -2
right_child=3 2 7 5 -6 -7 9 -9 -10 -11 -12
leaf_value=-0.0025947670319250654 -0.0038612752042744046 -0.0011448910681512924 0.0039351810223888601 -0.00066798860922047344 0.0008154863747313045 0.0014897740253218218 0.00068143384298309691 0.0019168689352400611 -0.0021549051732290539 -0.00095449328538961715 -0.0022537134651605404
leaf_weight=21 28 52 20 117 291 21 20 84 35 80 31
leaf_count=21 28 52 20 117 291 21 20 84 35 80 31
internal_value=-1.00954e-13 0.000528648 0.000933988 -0.00129428 0.000518286 -0.000706885 -0.000968768 0.00230501 -0.00101037 -0.000627308 -0.00301662
internal_weight=800 568 447 232 343 173 121 104 152 100 59
internal_count=800 568 447 232 343 173 121 104 152 100 59
is_linear=0
shrinkage=0.1


Tree=27
num_leaves=10
num_cat=0
split_feature=0 2 2 1 0 1 0 2 1
split_gain=0.0467094 0.0252845 0.0219031 0.0213481 0.0179389 0.015058 0.00877031 0.00617867 0.00261975
threshold=0.44690000000000002 0.37745000000000001 0.46640000000000009 29735.890000000003 0.9396000000000001 55700.220000000008 0.11345000000000001 0.83645000000000003 38049.960000000014
decision_type=2 2 2 2 2 2 2 2 2
left_child=1 -1 -2 7 5 -4 -5 -3 -6
right_child=2 3 4 6 8 -7 -8 -9 -10
leaf_value=-0.0025475786355673336 -0.0032165346922533168 -0.00022576633554947847 -0.0007467395130626379 0.0037488921589794613 -0.0030700592446096598 0.00053186698522861872 0.0015753042721553358 0.0013503283988966636 -0.0016234829552441597
leaf_weight=20 31 101 227 21 21 155 160 33 31
leaf_count=20 31 101 227 21 21 155 160 33 31
internal_value=6.85145e-12 0.000900246 -0.000648564 0.00111916 -0.000465138 -0.000227933 0.00182749 0.000162376 -0.00220768
internal_weight=800 335 465 315 434 382 181 134 52
internal_count=800 335 465 315 434 382 181 134 52
is_linear=0
shrinkage=0.1


Tree=28
num_leaves=13
num_cat=0
split_feature=0 1 2 0 1 0 2 2 2 1 0 2
split_gain=0.0381411 0.0253228 0.017723 0.0171533 0.0142588 0.0114551 0.0113514 0.00899679 0.00821553 0.00659089 0.00602101 0.00398891
threshold=0.36860000000000004 44080.260000000002 0.84735000000000016 0.088850000000000012 15729.090000000002 0.76230000000000009 0.57545000000000013 0.90150000000000008 0.89170000000000005 75521.335000000006 0.65785000000000016 0.75965000000000016
decision_type=2 2 2 2 2 2 2 2 2 2 2 2
left_child=3 2 5 -1 11 -2 9 -6 -8 -3 -4 -5
right_child=1 6 10 4 7 -7 8 -9 -10 -11 -12 -13
leaf_value=0.0038586398074403408 -0.0011360479244620276 -0.0024954133180224085 0.0014219881413737312 -0.0011601776266211851 0.0010123386823311998 -0.0028178373778279856 0.00023727429237297454 0.0032362346858939247 0.0018944120121055414 -1.8645044682281362e-05 -0.00058262524365883077 0.00044774199508268523
leaf_weight=20 162 22 29 36 136 54 206 21 35 21 31 27
leaf_count=20 162 22 29 36 136 54 206 21 35 21 31 27
internal_value=2.19632e-12 -0.000452026 -0.00113415 0.00105473 0.000799826 -0.0015565 0.000210888 0.0013098 0.000477937 -0.00128583 0.000386271 -0.000471069
internal_weight=800 560 276 240 220 216 284 157 241 43 60 63
internal_count=800 560 276 240 220 216 284 157 241 43 60 63
is_linear=0
shrinkage=0.1


Tree=29
num_leaves=12
num_cat=0
split_feature=0 1 0 2 1 2 2 2 0 0 2
split_gain=0.0320018 0.0236397 0.0168465 0.0153943 0.0130238 0.0071475 0.00476149 0.00447579 0.00346031 0.00277246 0.00247984
threshold=0.71305000000000007 5391.4800000000005 0.14240000000000003 0.89750000000000008 15729.090000000002 0.66585000000000016 0.83645000000000003 0.76025000000000009 0.38435000000000002 0.87260000000000015 0.8519500000000001
decision_type=2 2 2 2 2 2 2 2 2 2 2
left_child=1 6 -3 -4 7 9 8 -2 -1 -6 -7
right_child=4 2 3 -5 5 10 -8 -9 -10 -11 -12
leaf_value=-0.0004777724186006265 -0.0034585950393229725 0.0027001697114189343 0.00028509307730904913 0.0020874754486915966 -0.00091821350091777273 -0.00053835935747580761 0.0002585610124916802 -0.001546729467130111 -0.0017001998533184332 -0.0025633422480452629 0.00049787702583296996
leaf_weight=39 25 38 387 54 20 72 29 24 57 21 34
leaf_count=39 25 38 387 54 20 72 29 24 57 21 34
internal_value=2.87264e-12 0.00036029 0.000679877 0.000505793 -0.00111028 -0.00063965 -0.00086437 -0.00252217 -0.00120359 -0.00176084 -0.000205982
internal_weight=800 604 479 441 196 147 125 49 96 41 106
internal_count=800 604 479 441 196 147 125 49 96 41 106
is_linear=0
shrinkage=0.1


Tree=30
num_leaves=11
num_cat=0
split_feature=2 0 1 1 2 2 0 2 1 0
split_gain=0.0283115 0.0285482 0.0146777 0.0105955 0.00649731 0.00641039 0.0063244 0.0049512 0.00470311 0.00331802
threshold=0.47290000000000004 0.44540000000000007 46643.020000000011 14804.785000000002 0.86315000000000008 0.84425000000000006 0.74945000000000006 0.7109000000000002 57109.885000000002 0.5515000000000001
decision_type=2 2 2 2 2 2 2 2 2 2
left_child=8 2 4 6 -2 -5 -3 -4 9 -1
right_child=1 3 7 5 -6 -7 -8 -9 -10 -11
leaf_value=-0.0017820627701719508 -3.8379189140332031e-05 -0.00064123174757341769 0.0010121336329846824 -0.00028604385192958963 0.0014520633189117928 0.00076885711539968109 -0.0022018675088857939 0.0022450596532220708 -0.00074925340304616845 -0.0034952961845556279
leaf_weight=26 127 82 57 238 38 76 38 76 22 20
leaf_count=26 127 82 57 238 38 76 38 76 22 20
internal_value=5.76586e-12 0.000181316 0.000934968 -0.000336169 0.000304874 -3.07175e-05 -0.00113543 0.00171666 -0.00195181 -0.00252695
internal_weight=800 732 298 434 165 314 120 133 68 46
internal_count=800 732 298 434 165 314 120 133 68 46
is_linear=0
shrinkage=0.1


Tree=31
num_leaves=10
num_cat=0
split_feature=2 0 1 0 1 2 1 2 2
split_gain=0.023085 0.0241492 0.0117874 0.0107134 0.0084382 0.00519153 0.00480427 0.00421026 0.00118126
threshold=0.44665000000000005 0.44540000000000007 46643.020000000011 0.94255000000000011 55700.220000000008 0.86315000000000008 39910.135000000002 0.7109000000000002 0.7480500000000001
decision_type=2 2 2 2 2 2 2 2 2
left_child=6 2 5 4 -3 -2 -1 -4 -5
right_child=1 3 7 8 -6 -7 -8 -9 -10
leaf_value=-0.0027897787700978021 -1.9600498401842111e-05 -0.00053353219105890185 0.00089468226148510131 -0.0021190292463870719 0.00041577305116803409 0.0013068569805718177 -0.00092659061402082456 0.002020553659990822 -0.001134227383660064
leaf_weight=31 132 232 59 29 157 38 25 76 21
leaf_count=31 132 232 59 29 157 38 25 76 21
internal_value=1.67711e-12 0.000147376 0.000830891 -0.000327503 -0.000150394 0.000276902 -0.001958 0.00152851 -0.00170541
internal_weight=800 744 305 439 389 170 56 135 50
internal_count=800 744 305 439 389 170 56 135 50
is_linear=0
shrinkage=0.1


Tree=32
num_leaves=8
num_cat=0
split_feature=0 1 0 2 2 2 2
split_gain=0.0205002 0.0220735 0.0148465 0.0106132 0.00799882 0.00424592 0.00341723
threshold=0.11345000000000001 3956.9800000000009 0.74945000000000006 0.89750000000000008 0.53680000000000005 0.61035000000000006 0.84195000000000009
decision_type=2 2 2 2 2 2 2
left_child=-1 4 3 -3 -2 -4 -6
right_child=1 2 5 -5 6 -7 -8
leaf_value=0.0025212533711906401 -0.002829758285544813 0.00025059453756766397 -0.0019851811635105509 0.0016932891576916206 -0.0012133870636611137 -0.00049996185453137052 -6.4070546068251138e-05
leaf_weight=31 25 422 23 58 86 118 37
leaf_count=31 25 422 23 58 86 118 37
internal_value=1.16415e-13 -0.000101637 0.000159915 0.00042492 -0.00119909 -0.000742232 -0.000867658
internal_weight=800 769 621 480 148 141 123
internal_count=800 769 621 480 148 141 123
is_linear=0
shrinkage=0.1


Tree=33
num_leaves=9
num_cat=0
split_feature=2 0 0 1 0 1 1 1
split_gain=0.0178379 0.0180396 0.008754 0.00842853 0.0076932 0.00675457 0.00340874 0.000992007
threshold=0.4360500000000001 0.44540000000000007 0.10720000000000002 57109.885000000002 0.94255000000000011 55700.220000000008 39910.135000000002 38049.960000000014
decision_type=2 2 2 2 2 2 2 2
left_child=6 2 -2 -4 5 -3 -1 -6
right_child=1 4 3 -5 7 -7 -8 -9
leaf_value=-0.0026773208811937364 0.0024313071216629061 -0.00047519219058645036 0.00013899174806687774 0.0012915130084551569 -0.0019997944764327258 0.00036660449607912805 -0.0009904422220247597 -0.0010905789307435044
leaf_weight=25 27 238 180 98 20 159 23 30
leaf_count=25 27 238 180 98 20 159 23 30
internal_value=5.86897e-12 0.000119299 0.000712236 0.000545276 -0.000285277 -0.000138049 -0.00186902 -0.00145427
internal_weight=800 752 305 278 447 397 48 50
internal_count=800 752 305 278 447 397 48 50
is_linear=0
shrinkage=0.1


Tree=34
num_leaves=12
num_cat=0
split_feature=1 0 2 2 2 2 1 0 1 0 1
split_gain=0.014901 0.0124949 0.00960522 0.00727221 0.0058013 0.00346249 0.00342654 0.00286681 0.00370476 0.00263463 0.00112757
threshold=3956.9800000000009 0.74945000000000006 0.65805000000000013 0.53680000000000005 0.91180000000000005 0.8448500000000001 67396.735000000015 0.65290000000000015 -11295.759999999998 0.97715000000000007 55180.720000000008
decision_type=2 2 2 2 2 2 2 2 2 2 2
left_child=3 2 6 -1 -4 9 -2 8 -5 -3 -7
right_child=1 5 4 7 -6 10 -8 -9 -10 -11 -12
leaf_value=-0.002442350597353652 -0.0004841921002675268 -0.00064727795414638693 0.00060165367345612589 0.00042437120885928956 0.0018480127516573533 -0.0003640635931515135 0.00042855096873469075 -0.0013388406903282481 -0.00084157140545529439 -0.0018472464830362396 0.00069780964993697129
leaf_weight=25 112 77 284 41 43 20 65 36 53 24 20
leaf_count=25 112 77 284 41 43 20 65 36 53 24 20
internal_value=-2.89674e-12 0.000211568 0.000444366 -0.000880394 0.000765548 -0.000620563 -0.000149004 -0.000580018 -0.000289405 -0.000932419 0.000166873
internal_weight=800 645 504 155 327 141 177 130 94 101 40
internal_count=800 645 504 155 327 141 177 130 94 101 40
is_linear=0
shrinkage=0.1


Tree=35
num_leaves=8
num_cat=0
split_feature=0 1 2 0 2 2 0
split_gain=0.0142532 0.013356 0.00981433 0.00823281 0.00493432 0.00250302 0.00150633
threshold=0.088850000000000012 3956.9800000000009 0.89420000000000011 0.74945000000000006 0.53680000000000005 0.84195000000000009 0.4552500000000001
decision_type=2 2 2 2 2 2 2
left_child=-1 4 3 -3 -2 -6 -4
right_child=1 2 6 -5 5 -7 -8
leaf_value=0.0026359890078310856 -0.0021981155062094334 0.00019209243977165815 0.0016922435793358917 -0.00073617971428006045 -0.00094929004183293077 3.0979124287999159e-05 0.00080684582302954213
leaf_weight=20 25 428 33 123 88 37 46
leaf_count=20 25 428 33 123 88 37 46
internal_value=2.20251e-12 -6.75895e-05 0.000134324 -1.51262e-05 -0.000915628 -0.00065913 0.0011767
internal_weight=800 780 630 551 150 125 79
internal_count=800 780 630 551 150 125 79
is_linear=0
shrinkage=0.1


Tree=36
num_leaves=10
num_cat=0
split_feature=2 0 1 2 1 0 2 2 0
split_gain=0.0129884 0.0117807 0.00580631 0.00563581 0.00470637 0.00348482 0.0025304 0.00226593 0.00154101
threshold=0.4360500000000001 0.44540000000000007 46643.020000000011 0.80705000000000016 44080.260000000002 0.23410000000000003 0.69985000000000008 0.35475000000000007 0.83200000000000007
decision_type=2 2 2 2 2 2 2 2 2
left_child=7 2 5 4 -3 -2 -4 -1 -5
right_child=1 3 6 8 -6 -7 -8 -9 -10
leaf_value=-0.0024078083026688548 0.0008381325907456423 -0.00090278272883941621 0.00050609301641816272 0.00043817557341723021 -9.7892108983946166e-05 -0.0001251825713680183 0.0014026274506742245 -0.0010141715374110002 -0.00029402764373930712
leaf_weight=20 56 140 50 118 151 114 85 28 38
leaf_count=20 56 140 50 118 151 114 85 28 38
internal_value=4.60022e-12 0.000101799 0.000580959 -0.000225145 -0.000485125 0.000192145 0.00107058 -0.00159485 0.000259818
internal_weight=800 752 305 447 291 170 135 48 156
internal_count=800 752 305 447 291 170 135 48 156
is_linear=0
shrinkage=0.1


Tree=37
num_leaves=7
num_cat=0
split_feature=0 2 1 2 0 1
split_gain=0.0107574 0.0100721 0.0083095 0.00646319 0.00418885 0.00244936
threshold=0.088850000000000012 0.4360500000000001 14804.785000000002 0.89420000000000011 0.74945000000000006 39910.135000000002
decision_type=2 2 2 2 2 2
left_child=-1 5 4 -4 -3 -2
right_child=1 2 3 -5 -6 -7
leaf_value=0.0022900298159220255 -0.0021845287274724497 -0.00029441706871538619 0.00010399121766250354 0.00113525865633814 -0.0014596411128111773 -0.00074040010298156869
leaf_weight=20 24 164 461 70 38 23
leaf_count=20 24 164 461 70 38 23
internal_value=2.75577e-13 -5.87187e-05 3.22746e-05 0.00023994 -0.000513618 -0.00147783
internal_weight=800 780 733 531 202 47
internal_count=800 780 733 531 202 47
is_linear=0
shrinkage=0.1


Tree=38
num_leaves=12
num_cat=0
split_feature=0 2 1 1 1 0 0 2 2 0 2
split_gain=0.00909497 0.00798409 0.00575264 0.00512994 0.0040994 0.0038085 0.00357043 0.00314582 0.00273865 0.00268514 0.00150196
threshold=0.22285000000000002 0.80095000000000016 1.0000000180025095e-35 74896.760000000009 30260.345000000005 0.76230000000000009 0.49150000000000005 0.5960000000000002 0.90150000000000008 0.10720000000000002 0.7773500000000001
decision_type=2 2 2 2 2 2 2 2 2 2 2
left_child=3 2 7 9 8 -4 -6 -2 -3 -1 -11
right_child=1 4 5 -5 6 -7 -8 -9 -10 10 -12
leaf_value=0.0014573860971722752 -0.0019547977643863609 -0.00058666065631162692 -4.5535569613618274e-05 0.0020527123076910223 0.0013024474486089525 -0.00082402476378774748 0.0002818970888556278 -0.00066428154663584549 0.00053669480086468598 -0.00027244644824767837 0.0007709331485040655
leaf_weight=20 30 60 293 27 55 80 91 51 34 37 22
leaf_count=20 30 60 293 27 55 80 91 51 34 37 22
internal_value=-1.58343e-12 -0.000131774 -0.000378384 0.000862745 0.00033473 -0.000212504 0.000666351 -0.00114225 -0.000180341 0.000456047 0.00011661
internal_weight=800 694 454 106 240 373 146 81 94 79 59
internal_count=800 694 454 106 240 373 146 81 94 79 59
is_linear=0
shrinkage=0.1


Tree=39
num_leaves=8
num_cat=0
split_feature=2 0 0 1 1 2 1
split_gain=0.00827079 0.00851871 0.00493394 0.00416652 0.00401279 0.00315429 0.00071919
threshold=0.35475000000000007 0.67525000000000013 0.11345000000000001 14804.785000000002 3956.9800000000009 0.89420000000000011 -5409.6649999999991
decision_type=2 2 2 2 2 2 2
left_child=-1 2 -2 6 -4 -5 -3
right_child=1 3 4 5 -6 -7 -8
leaf_value=-0.0020079861918929965 0.0015127613327058499 -0.0015687848406809347 -0.00034865731795434844 -0.00037079099927148876 0.00033631702178980568 0.00093671050022489264 -0.00086283614791388954
leaf_weight=20 30 27 108 152 411 21 31
leaf_count=20 30 27 108 152 411 21 31
internal_value=-1.1355e-12 5.14868e-05 0.000265855 -0.000457985 0.000193779 -0.000212077 -0.00119147
internal_weight=800 780 549 231 519 173 58
internal_count=800 780 549 231 519 173 58
is_linear=0
shrinkage=0.1


Tree=40
num_leaves=9
num_cat=0
split_feature=2 0 2 2 1 1 0 1
split_gain=0.00719302 0.00649568 0.00450912 0.00359604 0.0038692 0.00332865 0.00180811 0.00150003
threshold=0.4360500000000001 0.44540000000000007 0.91180000000000005 0.74675000000000014 86933.575000000026 57109.885000000002 0.74945000000000006 39910.135000000002
decision_type=2 2 2 2 2 2 2 2
left_child=7 2 5 4 -3 -2 -5 -1
right_child=1 3 -4 6 -6 -7 -8 -9
leaf_value=-0.0017230532425455752 4.0689155556802604e-05 -0.00061611493570054761 0.0015546163416729542 0.00033376236751792021 0.00066279543184295851 0.00077027006179199934 -0.00024269965607764496 -0.00060403763681002288
leaf_weight=25 176 191 32 140 27 97 89 23
leaf_count=25 176 191 32 140 27 97 89 23
internal_value=-5.02951e-13 7.57569e-05 0.000431558 -0.000167016 -0.000457718 0.000299918 0.000109723 -0.00118686
internal_weight=800 752 305 447 218 273 229 48
internal_count=800 752 305 447 218 273 229 48
is_linear=0
shrinkage=0.1


Tree=41
num_leaves=7
num_cat=0
split_feature=0 2 0 1 1 2
split_gain=0.00637401 0.00636295 0.00515058 0.00447102 0.0031091 0.00245441
threshold=0.94255000000000011 0.35475000000000007 0.22285000000000002 44080.260000000002 74896.760000000009 0.68725000000000014
decision_type=2 2 2 2 2 2
left_child=1 -1 4 -4 -3 -2
right_child=5 2 3 -5 -6 -7
leaf_value=-0.0016852379566989839 -0.001939583516214043 0.00045050933989075831 -0.00024300791432279418 0.00029228020616680575 0.001699752633565502 -0.00052741804283868994
leaf_weight=20 20 76 324 301 27 32
leaf_count=20 20 76 324 301 27 32
internal_value=2.40561e-12 7.44239e-05 0.000122766 1.47868e-05 0.000777981 -0.00107056
internal_weight=800 748 728 625 103 52
internal_count=800 748 728 625 103 52
is_linear=0
shrinkage=0.1


Tree=42
num_leaves=8
num_cat=0
split_feature=0 1 2 0 2 0 1
split_gain=0.00570165 0.00518128 0.00405401 0.00306751 0.00276951 0.00160144 0.00148352
threshold=0.088850000000000012 1.0000000180025095e-35 0.9104000000000001 0.67525000000000013 0.5960000000000002 0.4552500000000001 -11295.759999999998
decision_type=2 2 2 2 2 2 2
left_child=-1 4 3 -3 -2 -4 -6
right_child=1 2 5 -5 6 -7 -8
leaf_value=0.0016671993001364173 -0.0014087723166801768 0.00014793184743616366 0.0014745654398575425 -0.00034408571404988519 3.1616488937288528e-05 0.00041349975349889566 -0.00074669666746558512
leaf_weight=20 33 407 25 184 50 33 48
leaf_count=20 33 407 25 184 50 33 48
internal_value=2.93005e-12 -4.27487e-05 7.30449e-05 -5.25129e-06 -0.000616413 0.000870856 -0.000349598
internal_weight=800 780 649 591 131 58 98
internal_count=800 780 649 591 131 58 98
is_linear=0
shrinkage=0.1


Tree=43
num_leaves=9
num_cat=0
split_feature=2 0 2 2 2 1 1 1
split_gain=0.00495032 0.00396137 0.00311548 0.00260872 0.00313368 0.00209329 0.0012948 0.00100536
threshold=0.4360500000000001 0.44540000000000007 0.91180000000000005 0.74675000000000014 0.71285000000000009 39910.135000000002 14030.745000000001 39910.135000000002
decision_type=2 2 2 2 2 2 2 2
left_child=7 2 5 4 -3 -2 -5 -1
right_child=1 3 -4 6 -6 -7 -8 -9
leaf_value=-0.0014235687896143646 -4.2601313415998714e-05 -0.00021421115527659455 0.0012742116112349324 -0.00027701691257774774 -0.0012720337899571115 0.00051124556848123942 0.00025545247219971393 -0.00050746031034656848
leaf_weight=25 138 185 32 63 33 135 166 23
leaf_count=25 138 185 32 63 33 135 166 23
internal_value=1.59093e-12 6.28468e-05 0.000340701 -0.000126741 -0.00037434 0.000231279 0.000108965 -0.0009846
internal_weight=800 752 305 447 218 273 229 48
internal_count=800 752 305 447 218 273 229 48
is_linear=0
shrinkage=0.1


Tree=44
num_leaves=7
num_cat=0
split_feature=0 2 1 0 0 2
split_gain=0.00455311 0.00443895 0.00343586 0.00394414 0.00244575 0.00190629
threshold=0.94255000000000011 0.35475000000000007 57109.885000000002 0.12255000000000001 0.3433500000000001 0.68725000000000014
decision_type=2 2 2 2 2 2
left_child=1 -1 3 -3 -4 -2
right_child=5 2 4 -5 -6 -7
leaf_value=-0.0014068375941133128 -0.0016706775652710348 0.0012406144695970315 0.00090292987055470484 -0.00013200764873402108 0.00021126950483201794 -0.0004261457102984423
leaf_weight=20 20 22 68 432 206 32
leaf_count=20 20 22 68 432 206 32
internal_value=-3.3076e-12 6.29014e-05 0.000103279 -6.54929e-05 0.000382922 -0.000904812
internal_weight=800 748 728 454 274 52
internal_count=800 748 728 454 274 52
is_linear=0
shrinkage=0.1


Tree=45
num_leaves=10
num_cat=0
split_feature=2 0 1 1 0 1 1 0 1
split_gain=0.00403112 0.00367842 0.00341336 0.00306778 0.00208881 0.00241665 0.00279031 0.00176268 0.00108376
threshold=0.8388500000000001 0.9396000000000001 57109.885000000002 32676.985000000004 0.19025000000000003 85018.010000000024 30260.345000000005 0.35355000000000009 44807.845000000008
decision_type=2 2 2 2 2 2 2 2 2
left_child=1 2 3 -1 -2 6 -6 -4 -3
right_child=4 8 7 -5 5 -7 -8 -9 -10
leaf_value=-4.2307271302745094e-05 0.0013050404969941487 -0.0015718160988762977 0.00075956392127829117 -0.0006704257629519554 -3.4302207233849917e-05 -0.00070920661091804509 0.00080487691198608707 8.8342292716172578e-05 -0.00054324420856400625
leaf_weight=228 22 20 52 118 75 22 84 158 21
leaf_count=228 22 20 52 118 75 22 84 158 21
internal_value=-1.91142e-12 -0.000130897 -6.34908e-05 -0.000256521 0.000384952 0.000273119 0.000409038 0.00025455 -0.00104499
internal_weight=800 597 556 346 203 181 159 210 41
internal_count=800 597 556 346 203 181 159 210 41
is_linear=0
shrinkage=0.1


Tree=46
num_leaves=7
num_cat=0
split_feature=0 1 2 0 2 1
split_gain=0.00372829 0.00338944 0.00235861 0.00244773 0.00202197 0.00123295
threshold=0.088850000000000012 1.0000000180025095e-35 0.9386500000000001 0.83945000000000014 0.5960000000000002 -11295.759999999998
decision_type=2 2 2 2 2 2
left_child=-1 4 3 -3 -2 -6
right_child=1 2 -4 -5 5 -7
leaf_value=0.0013481620713719168 -0.0011755822829648177 9.9810214479455187e-05 0.00095687184657435866 -0.00046679012936968659 7.6959043741226197e-05 -0.00063258548410279525
leaf_weight=20 33 532 28 89 50 48
leaf_count=20 33 532 28 89 50 48
internal_value=-8.33779e-13 -3.45683e-05 5.90865e-05 1.86066e-05 -0.000498552 -0.000270573
internal_weight=800 780 649 621 131 98
internal_count=800 780 649 621 131 98
is_linear=0
shrinkage=0.1


Tree=47
num_leaves=8
num_cat=0
split_feature=2 2 1 1 0 2 2
split_gain=0.00327733 0.0022524 0.00257011 0.00251747 0.000863505 0.000550291 0.000663139
threshold=0.4360500000000001 0.8993000000000001 -14522.544999999998 -11295.759999999998 0.41875000000000001 0.9386500000000001 0.91770000000000007
decision_type=2 2 2 2 2 2 2
left_child=4 2 -2 -4 -1 6 -3
right_child=1 5 3 -5 -6 -7 -8
leaf_value=-0.0002992789284326136 -0.00088730835705064237 0.00065123405074700717 0.0010582990919077852 -7.5774086665603406e-06 -0.0011595971717075113 0.00083597378011558351 -3.1886320599975691e-05
leaf_weight=20 32 30 23 606 28 34 27
leaf_count=20 32 30 23 606 28 34 27
internal_value=2.5625e-12 5.1136e-05 -1.30785e-05 3.13974e-05 -0.000801131 0.000517574 0.000327651
internal_weight=800 752 661 629 48 91 57
internal_count=800 752 661 629 48 91 57
is_linear=0
shrinkage=0.1


Tree=48
num_leaves=9
num_cat=0
split_feature=0 1 2 2 1 0 1 2
split_gain=0.00295264 0.00271301 0.00187038 0.00487741 0.00246938 0.00174091 0.00161223 0.000816473
threshold=0.088850000000000012 1.0000000180025095e-35 0.67565000000000008 0.69210000000000005 31612.435000000005 0.63935000000000008 -11295.759999999998 0.69450000000000012
decision_type=2 2 2 2 2 2 2 2
left_child=-1 5 4 -4 -3 6 -2 -7
right_child=1 2 3 -5 -6 7 -8 -9
leaf_value=0.0011997548263752832 0.00033074224966445141 0.00039997755682138222 0.0016618151828879492 9.8803104283770485e-05 -0.00037201000879923373 -0.0014432554924860598 -0.00053745751459659502 -0.00055048856884241102
leaf_weight=20 35 55 21 405 168 20 55 21
leaf_count=20 35 55 21 405 168 20 55 21
internal_value=2.98752e-12 -3.07629e-05 5.30269e-05 0.000175853 -0.000181609 -0.000445874 -0.000199824 -0.000985985
internal_weight=800 780 649 426 223 131 90 41
internal_count=800 780 649 426 223 131 90 41
is_linear=0
shrinkage=0.1


Tree=49
num_leaves=7
num_cat=0
split_feature=2 0 1 1 0 0
split_gain=0.00273922 0.0027061 0.00220512 0.00166719 0.00165987 0.00153075
threshold=0.35475000000000007 0.9396000000000001 46060.855000000003 68486.155000000013 0.23410000000000003 0.34890000000000004
decision_type=2 2 2 2 2 2
left_child=-1 2 4 -3 -2 -4
right_child=1 3 5 -5 -6 -7
leaf_value=-0.0011555815301835537 0.00041393155881546832 -0.00022717210021630096 0.00061911272029748139 -0.001377800939080771 -0.00017084740924285189 0.00013866809079604177
leaf_weight=20 57 34 90 20 327 252
leaf_count=20 57 34 90 20 327 252
internal_value=-1.31899e-12 2.96303e-05 8.04291e-05 -0.000653331 -8.40443e-05 0.000265101
internal_weight=800 780 726 54 384 342
internal_count=800 780 726 54 384 342
is_linear=0
shrinkage=0.1


Tree=50
num_leaves=11
num_cat=0
split_feature=2 0 1 2 2 0 0 1 0 1
split_gain=0.00254048 0.00333176 0.00240404 0.00256288 0.00312579 0.0023229 0.0030153 0.00214349 0.00286595 0.00271207
threshold=0.75405000000000011 0.13855000000000003 75270.765000000014 0.4360500000000001 0.71285000000000009 0.35795000000000005 0.57325000000000015 77426.025000000009 0.53020000000000012 30260.345000000005
decision_type=2 2 2 2 2 2 2 2 2 2
left_child=2 -2 3 -1 -5 -4 -7 9 -9 -3
right_child=1 7 5 4 -6 6 -8 8 -10 -11
leaf_value=-0.0010710921994334943 0.00145212706993334 -6.9742518060497561e-05 0.0011085099047049882 -1.8288223026418167e-05 -0.00078271471315731651 -0.00071592795182809691 0.00057540979018085633 -0.00095552900211738525 0.00034011726177507836 0.0005653418082361254
leaf_weight=37 20 133 25 238 69 33 40 38 31 136
leaf_count=37 20 133 25 238 69 33 40 38 31 136
internal_value=-1.75169e-12 0.000198008 -0.000160377 -0.000284856 -0.000190097 0.000276566 -8.34563e-06 0.0001238 -0.000373427 0.000251341
internal_weight=800 358 442 344 307 98 73 338 69 269
internal_count=800 358 442 344 307 98 73 338 69 269
is_linear=0
shrinkage=0.1


Tree=51
num_leaves=10
num_cat=0
split_feature=0 2 2 2 2 0 1 0 0
split_gain=0.00240659 0.00327214 0.00215701 0.0055197 0.00361948 0.0020649 0.00195233 0.00179514 0.00173952
threshold=0.74945000000000006 0.58525000000000016 0.73475000000000013 0.71285000000000009 0.68725000000000014 0.78685000000000016 68486.155000000013 0.13265000000000002 0.26730000000000004
decision_type=2 2 2 2 2 2 2 2 2
left_child=2 -2 3 4 -1 -3 -7 -4 -9
right_child=1 5 7 -5 -6 6 -8 8 -10
leaf_value=-8.894187438569906e-05 -0.0013933494258671999 -0.00095683603117672307 0.0011754996481440254 -0.0012739079041473036 0.0009023071055538779 0.00030809209689047025 -0.00058041369031545606 -0.00032412471099428798 0.00033235520394710242
leaf_weight=257 25 26 21 35 43 79 36 49 229
leaf_count=257 25 26 21 35 43 79 36 49 229
internal_value=1.24805e-12 -0.000338958 8.87494e-05 -8.55094e-05 5.31371e-05 -0.00015201 2.99512e-05 0.000283989 0.000216645
internal_weight=800 166 634 335 300 141 115 299 278
internal_count=800 166 634 335 300 141 115 299 278
is_linear=0
shrinkage=0.1


Tree=52
num_leaves=10
num_cat=0
split_feature=0 2 1 1 2 2 2 0 0
split_gain=0.00194934 0.00265044 0.00185232 0.00279339 0.00174718 0.00447096 0.00293178 0.00145406 0.00140901
threshold=0.74945000000000006 0.58525000000000016 15729.090000000002 68486.155000000013 0.73475000000000013 0.71285000000000009 0.68725000000000014 0.13265000000000002 0.26730000000000004
decision_type=2 2 2 2 2 2 2 2 2
left_child=4 -2 -3 -4 5 6 -1 -6 -9
right_child=1 2 3 -5 7 -7 -8 8 -10
leaf_value=-8.0047689604977019e-05 -0.0012540144864469768 -0.00077979324508787088 0.0004945062355975299 -0.00054388500800335105 0.0010579496774534207 -0.0011465170910066392 0.0008120763562294806 -0.00029171223732006108 0.00029911968586219102
leaf_weight=257 25 34 63 44 21 35 43 49 229
leaf_count=257 25 34 63 44 21 35 43 49 229
internal_value=7.00965e-13 -0.000305063 -0.000136809 6.75042e-05 7.98744e-05 -7.69584e-05 4.78234e-05 0.00025559 0.00019498
internal_weight=800 166 141 107 634 335 300 299 278
internal_count=800 166 141 107 634 335 300 299 278
is_linear=0
shrinkage=0.1


Tree=53
num_leaves=7
num_cat=0
split_feature=2 0 1 0 1 2
split_gain=0.00176347 0.00179717 0.0016452 0.00157644 0.00140185 0.000953305
threshold=0.35475000000000007 0.94255000000000011 57109.885000000002 0.69430000000000003 88187.645000000004 0.68725000000000014
decision_type=2 2 2 2 2 2
left_child=-1 2 3 -2 -4 -3
right_child=1 5 4 -5 -6 -7
leaf_value=-0.00092719519205274991 4.9765781674631316e-05 -0.0010857711703283711 0.00040695612606499838 -0.00039217010093298518 -8.5276197078420384e-05 -0.00020568016661854928
leaf_weight=20 349 20 191 105 83 32
leaf_count=20 349 20 191 105 83 32
internal_value=4.34966e-13 2.37742e-05 6.43422e-05 -5.24441e-05 0.000257849 -0.000544177
internal_weight=800 780 728 454 274 52
internal_count=800 780 728 454 274 52
is_linear=0
shrinkage=0.1


Tree=54
num_leaves=11
num_cat=0
split_feature=2 1 1 1 1 0 1 0 1 1
split_gain=0.00164862 0.00158431 0.00212397 0.0041976 0.00393681 0.0014022 0.00110764 0.00108734 0.00171625 0.00206101
threshold=0.84735000000000016 57109.885000000002 32676.985000000004 40998.790000000008 21056.725000000002 0.90685000000000004 94062.85000000002 0.19550000000000003 79107.520000000004 30260.345000000005
decision_type=2 2 2 2 2 2 2 2 2 2
left_child=1 2 4 -4 -1 6 -3 -2 9 -9
right_child=7 5 3 -5 -6 -7 -8 8 -10 -11
leaf_value=-0.00022746224642061151 0.00092164061497896916 0.00030602174896905151 -0.0013154291675891727 -0.00011084587981544988 0.00078725898268377473 -0.00061798184482461736 -0.00030217670355341402 -7.3183184821261167e-05 -0.00053982754138165293 0.00070829176954301893
leaf_weight=205 22 178 45 81 47 23 36 67 28 68
leaf_count=205 22 178 45 81 47 23 36 67 28 68
internal_value=-3.27873e-13 -7.87341e-05 -0.000205824 -0.000541054 -3.82087e-05 0.000123966 0.000203708 0.000261738 0.000172671 0.000320449
internal_weight=800 615 378 126 252 237 214 185 163 135
internal_count=800 615 378 126 252 237 214 185 163 135
is_linear=0
shrinkage=0.1


Tree=55
num_leaves=8
num_cat=0
split_feature=0 1 1 1 2 0 0
split_gain=0.00152716 0.00169231 0.00220923 0.00235863 0.00120776 0.00102049 0.000322075
threshold=0.088850000000000012 -5409.6649999999991 -11295.759999999998 -14034.034999999998 0.9386500000000001 0.83945000000000014 0.53780000000000017
decision_type=2 2 2 2 2 2 2
left_child=-1 2 3 -2 5 -3 -4
right_child=1 4 6 -5 -6 -7 -8
leaf_value=0.00086283918120898305 -0.00047946521877556254 5.5587712903874885e-05 -0.00068144009869900487 0.0008410849544729683 0.00064444847427488818 -0.00030899104865639358 -0.0012352799131934132
leaf_weight=20 38 559 21 21 31 89 21
leaf_count=20 38 559 21 21 31 89 21
internal_value=-1.21645e-14 -2.21241e-05 -0.00040404 -9.43889e-06 3.46852e-05 5.5144e-06 -0.00095836
internal_weight=800 780 101 59 679 648 42
internal_count=800 780 101 59 679 648 42
is_linear=0
shrinkage=0.1


Tree=56
num_leaves=8
num_cat=0
split_feature=2 0 2 0 2 0 1
split_gain=0.00144519 0.00132356 0.00152082 0.0017696 0.00143632 0.00194949 0.000397017
threshold=0.35475000000000007 0.44540000000000007 0.46640000000000009 0.54540000000000011 0.54365000000000008 0.43035000000000007 33260.760000000009
decision_type=2 2 2 2 2 2 2
left_child=-1 4 -3 -4 6 -6 -2
right_child=1 2 3 -5 5 -7 -8
leaf_value=-0.00083936387702124207 0.0010164860805327242 -0.00084510918334126473 -0.00037987985070567053 7.7104054428261037e-05 1.1751952575628907e-05 0.00093774599838070583 0.00040088015608489517
leaf_weight=20 22 25 115 322 251 25 20
leaf_count=20 22 25 115 322 251 25 20
internal_value=3.15026e-12 2.15222e-05 -8.65507e-05 -4.31549e-05 0.000178534 9.56282e-05 0.00072334
internal_weight=800 780 462 437 318 276 42
internal_count=800 780 462 437 318 276 42
is_linear=0
shrinkage=0.1


Tree=57
num_leaves=11
num_cat=0
split_feature=2 0 0 0 1 1 1 1 1 1
split_gain=0.0012709 0.00142527 0.00286782 0.00267549 0.00237538 0.00179974 0.00145261 0.000682235 0.00057965 0.000344027
threshold=0.89420000000000011 0.60925000000000007 0.54540000000000011 0.48385000000000006 -5409.6649999999991 31612.435000000005 33260.760000000009 10438.790000000003 76250.665000000023 49452.270000000011
decision_type=2 2 2 2 2 2 2 2 2 2
left_child=1 2 3 -1 -3 -6 -4 -2 9 -9
right_child=7 4 6 -5 5 -7 -8 8 -10 -11
leaf_value=8.0959524985066414e-05 -0.00011893326160497964 -0.0010013356741650828 0.00020900381542742253 -0.00063483427211101506 0.0003321433419841924 -0.00029760061443084851 0.0012668557141700554 0.00044771035282985505 2.3254994302988053e-05 0.0009582264380614188
leaf_weight=331 25 35 25 62 64 156 27 33 20 22
leaf_count=331 25 35 25 62 64 156 27 33 20 22
internal_value=-1.70735e-12 -4.76388e-05 6.03777e-05 -3.19647e-05 -0.000236138 -0.000114402 0.000758273 0.000333472 0.000484274 0.000651917
internal_weight=800 700 445 393 255 220 52 100 75 55
internal_count=800 700 445 393 255 220 52 100 75 55
is_linear=0
shrinkage=0.1


Tree=58
num_leaves=8
num_cat=0
split_feature=0 1 1 1 1 2 2
split_gain=0.00121583 0.00122527 0.00398598 0.00169037 0.00137939 0.00155646 0.00123154
threshold=0.088850000000000012 57109.885000000002 54011.850000000013 46060.855000000003 64106.270000000011 0.73205000000000009 0.62045000000000006
decision_type=2 2 2 2 2 2 2
left_child=-1 2 3 -2 5 -3 -6
right_child=1 4 -4 -5 6 -7 -8
leaf_value=0.00076988259796053173 -0.00012598401273117104 3.4708288841925211e-05 -0.0015000126796803671 0.00047907776466812586 0.00041396941558238776 0.0012254610536215097 -8.4067524089139471e-05
leaf_weight=20 412 21 20 52 68 23 184
leaf_count=20 412 21 20 52 68 23 184
internal_value=3.7616e-12 -1.97406e-05 -0.000117755 -5.81754e-05 0.000140527 0.000657147 5.03234e-05
internal_weight=800 780 484 464 296 44 252
internal_count=800 780 484 464 296 44 252
is_linear=0
shrinkage=0.1


Tree=59
num_leaves=7
num_cat=0
split_feature=2 0 1 0 0 1
split_gain=0.00115949 0.000972035 0.000864855 0.00125433 0.00117764 0.000835521
threshold=0.35475000000000007 0.94255000000000011 56123.180000000008 0.52515000000000012 0.69430000000000003 67025.365000000005
decision_type=2 2 2 2 2 2
left_child=-1 2 4 -4 -2 -3
right_child=1 5 3 -5 -6 -7
leaf_value=-0.00075183322187513115 5.2158168555461592e-05 -8.1519439663679815e-05 6.2200317915994676e-06 0.00043703703800291943 -0.00033147259488871964 -0.00090544948297974779
leaf_weight=20 347 32 160 117 104 20
leaf_count=20 347 32 160 117 104 20
internal_value=-3.76627e-12 1.92778e-05 4.9113e-05 0.00018819 -3.63066e-05 -0.000398416
internal_weight=800 780 728 277 451 52
internal_count=800 780 728 277 451 52
is_linear=0
shrinkage=0.1


end of trees

feature_importances:
liquidity_score=239
foir=227
disposable_income=159

parameters:
[boosting: gbdt]
[objective: regression]
[metric: l1]
[tree_learner: serial]
[device_type: cpu]
[data_sample_strategy: bagging]
[data: ]
[valid: ]
[num_iterations: 100]
[learning_rate: 0.1]
[num_leaves: 15]
[num_threads: 0]
[seed: 42]
[deterministic: 0]
[force_col_wise: 0]
[force_row_wise: 0]
[histogram_pool_size: -1]
[max_depth: 4]
[min_data_in_leaf: 20]
[min_sum_hessian_in_leaf: 0.001]
[bagging_fraction: 1]
[pos_bagging_fraction: 1]
[neg_bagging_fraction: 1]
[bagging_freq: 0]
[bagging_seed: 400]
[bagging_by_query: 0]
[feature_fraction: 1]
[feature_fraction_bynode: 1]
[feature_fraction_seed: 30056]
[extra_trees: 0]
[extra_seed: 12879]
[early_stopping_round: 0]
[early_stopping_min_delta: 0]
[first_metric_only: 0]
[max_delta_step: 0]
[lambda_l1: 0]
[lambda_l2: 0]
[linear_lambda: 0]
[min_gain_to_split: 0]
[drop_rate: 0.1]
[max_drop: 50]
[skip_drop: 0.5]
[xgboost_dart_mode: 0]
[uniform_drop: 0]
[drop_seed: 17869]
[top_rate: 0.2]
[other_rate: 0.1]
[min_data_per_group: 100]
[max_cat_threshold: 32]
[cat_l2: 10]
[cat_smooth: 10]
[max_cat_to_onehot: 4]
[top_k: 20]
[monotone_constraints: ]
[monotone_constraints_method: basic]
[monotone_penalty: 0]
[feature_contri: ]
[forcedsplits_filename: ]
[refit_decay_rate: 0.9]
[cegb_tradeoff: 1]
[cegb_penalty_split: 0]
[cegb_penalty_feature_lazy: ]
[cegb_penalty_feature_coupled: ]
[path_smooth: 0]
[interaction_constraints: ]
[verbosity: -1]
[saved_feature_importance_type: 0]
[use_quantized_grad: 0]
[num_grad_quant_bins: 4]
[quant_train_renew_leaf: 0]
[stochastic_rounding: 1]
[linear_tree: 0]
[max_bin: 255]
[max_bin_by_feature: ]
[min_data_in_bin: 3]
[bin_construct_sample_cnt: 200000]
[data_random_seed: 175]
[is_enable_sparse: 1]
[enable_bundle: 1]
[use_missing: 1]
[zero_as_missing: 0]
[feature_pre_filter: 1]
[pre_partition: 0]
[two_round: 0]
[header: 0]
[label_column: ]
[weight_column: ]
[group_column: ]
[ignore_column: ]
[categorical_feature: ]
[forcedbins_filename: ]
[precise_float_parser: 0]
[parser_config_file: ]
[objective_seed: 16083]
[num_class: 1]
[is_unbalance: 0]
[scale_pos_weight: 1]
[sigmoid: 1]
[boost_from_average: 1]
[reg_sqrt: 0]
[alpha: 0.9]
[fair_c: 1]
[poisson_max_delta_step: 0.7]
[tweedie_variance_power: 1.5]
[lambdarank_truncation_level: 30]
[lambdarank_norm: 1]
[label_gain: ]
[lambdarank_position_bias_regularization: 0]
[eval_at: ]
[multi_error_top_k: 1]
[auc_mu_weights: ]
[num_machines: 1]
[local_listen_port: 12400]
[time_out: 120]
[machine_list_filename: ]
[machines: ]
[gpu_platform_id: -1]
[gpu_device_id: -1]
[gpu_use_dp: 0]
[num_gpu: 1]

end of parameters

pandas_categorical:null
