{"learner":{"attributes":{"best_iteration":"98","best_score":"0.03440758814704693"},"feature_names":["identity_confidence","income_confidence","foir","cibil_score_normalized","cashflow_stability","employment_tier","loan_to_income_ratio"],"feature_types":[],"gradient_booster":{"model":{"cats":{"enc":[],"feature_segments":[],"sorted_idx":[]},"gbtree_model_param":{"num_parallel_tree":"1","num_trees":"100"},"iteration_indptr":[0,1,2,3,4,5,6,7,8,9,10,11,12,13,14,15,16,17,18,19,20,21,22,23,24,25,26,27,28,29,30,31,32,33,34,35,36,37,38,39,40,41,42,43,44,45,46,47,48,49,50,51,52,53,54,55,56,57,58,59,60,61,62,63,64,65,66,67,68,69,70,71,72,73,74,75,76,77,78,79,80,81,82,83,84,85,86,87,88,89,90,91,92,93,94,95,96,97,98,99,100],"tree_info":[0,0,0,0,0,0,0,0,0,0,0,0,0,0,0,0,0,0,0,0,0,0,0,0,0,0,0,0,0,0,0,0,0,0,0,0,0,0,0,0,0,0,0,0,0,0,0,0,0,0,0,0,0,0,0,0,0,0,0,0,0,0,0,0,0,0,0,0,0,0,0,0,0,0,0,0,0,0,0,0,0,0,0,0,0,0,0,0,0,0,0,0,0,0,0,0,0,0,0,0],"trees":[{"base_weights":[-3.0341977E-3,4.4702645E-2,-4.5129426E-2,1.09418906E-1,1.495492E-2,-2.2093754E-3,-8.486669E-2,4.9398888E-2,1.2600824E-1,-5.431714E-3,4.027566E-2,1.9670412E-2,-3.852242E-2,-1.2142199E-1,-6.8557836E-2,7.948633E-3,-2.892567E-4,1.4150632E-2,8.089367E-3,-3.121917E-3,4.8865716E-4,9.058184E-4,7.267928E-3,6.608301E-3,5.5007543E-4,-7.517051E-3,-8.103307E-4,-9.776903E-3,-1.5860261E-2,-4.811842E-3,-9.784581E-3],"categories":[],"categories_nodes":[],"categories_segments":[],"categories_sizes":[],"default_left":[0,0,0,0,0,0,0,0,0,0,0,0,0,0,0,0,0,0,0,0,0,0,0,0,0,0,0,0,0,0,0],"id":0,"left_children":[1,3,5,7,9,11,13,15,17,19,21,23,25,27,29,-1,-1,-1,-1,-1,-1,-1,-1,-1,-1,-1,-1,-1,-1,-1,-1],"loss_changes":[1.2820646E0,5.739869E-1,5.779856E-1,8.7370396E-2,1.0655693E-1,1.3105933E-1,9.660232E-2,3.484288E-2,3.9593935E-2,3.0752018E-2,9.240511E-2,6.7374505E-2,6.850862E-2,3.1103432E-2,6.9521785E-2,0E0,0E0,0E0,0E0,0E0,0E0,0E0,0E0,0E0,0E0,0E0,0E0,0E0,0E0,0E0,0E0],"parents":[2147483647,0,0,1,1,2,2,3,3,4,4,5,5,6,6,7,7,8,8,9,9,10,10,11,11,12,12,13,13,14,14],"right_children":[2,4,6,8,10,12,14,16,18,20,22,24,26,28,30,-1,-1,-1,-1,-1,-1,-1,-1,-1,-1,-1,-1,-1,-1,-1,-1],"split_conditions":[4.812E-1,2.9866E0,4.1587E0,7.209E-1,7.705E-1,7.907E-1,7.527E-1,1.4718E0,3.637E-1,5.304E-1,8.383E-1,1.3556E0,8.338E-1,7.907E-1,8.189E-1,7.948633E-3,-2.892567E-4,1.4150632E-2,8.089367E-3,-3.121917E-3,4.8865716E-4,9.058184E-4,7.267928E-3,6.608301E-3,5.5007543E-4,-7.517051E-3,-8.103307E-4,-9.776903E-3,-1.5860261E-2,-4.811842E-3,-9.784581E-3],"split_indices":[2,6,6,1,3,2,1,6,2,3,1,6,1,2,2,0,0,0,0,0,0,0,0,0,0,0,0,0,0,0,0],"split_type":[0,0,0,0,0,0,0,0,0,0,0,0,0,0,0,0,0,0,0,0,0,0,0,0,0,0,0,0,0,0,0],"sum_hessian":[6.36E2,2.98E2,3.38E2,9.3E1,2.05E2,1.63E2,1.75E2,2.1E1,7.2E1,1.14E2,9.1E1,1.02E2,6.1E1,5.2E1,1.23E2,1.3E1,8E0,5.2E1,2E1,3.2E1,8.2E1,4.7E1,4.4E1,2.3E1,7.9E1,2.7E1,3.4E1,3.4E1,1.8E1,7.4E1,4.9E1],"tree_param":{"num_deleted":"0","num_feature":"7","num_nodes":"31","size_leaf_vector":"1"}},{"base_weights":[3.0277006E-3,3.3094928E-2,-5.1187783E-2,1.5044408E-3,5.1300015E-2,-2.2898592E-2,-8.513217E-2,2.9705426E-2,-1.31869335E-2,2.7649121E-2,7.567575E-2,-5.560877E-2,3.5066025E-3,-1.2817577E-1,-6.686646E-2,-4.876447E-3,3.929486E-3,7.7937025E-4,-2.7790712E-3,1.9419378E-3,8.9997845E-3,1.0582472E-2,4.2309207E-3,-7.519623E-3,-1.1168101E-3,-3.492646E-3,2.9045155E-3,-1.7616285E-2,-8.394001E-3,-8.208861E-3,-3.236755E-3],"categories":[],"categories_nodes":[],"categories_segments":[],"categories_sizes":[],"default_left":[0,0,0,0,0,0,0,0,0,0,0,0,0,0,0,0,0,0,0,0,0,0,0,0,0,0,0,0,0,0,0],"id":1,"left_children":[1,3,5,7,9,11,13,15,17,19,21,23,25,27,29,-1,-1,-1,-1,-1,-1,-1,-1,-1,-1,-1,-1,-1,-1,-1,-1],"loss_changes":[1.0188823E0,2.3111606E-1,2.1218842E-1,6.1709788E-2,1.4491713E-1,1.064324E-1,7.0837736E-2,4.0292766E-2,3.0243453E-2,6.547022E-2,1.2126851E-1,4.7036573E-2,6.873965E-2,4.677257E-2,3.5678774E-2,0E0,0E0,0E0,0E0,0E0,0E0,0E0,0E0,0E0,0E0,0E0,0E0,0E0,0E0,0E0,0E0],"parents":[2147483647,0,0,1,1,2,2,3,3,4,4,5,5,6,6,7,7,8,8,9,9,10,10,11,11,12,12,13,13,14,14],"right_children":[2,4,6,8,10,12,14,16,18,20,22,24,26,28,30,-1,-1,-1,-1,-1,-1,-1,-1,-1,-1,-1,-1,-1,-1,-1,-1],"split_conditions":[6.049E-1,6.707E-1,8.202E-1,3E0,8.153E-1,6.967E-1,6.354E-1,7.029E-1,3.417E-1,9.221E-1,3.607E-1,7.657E-1,8.304E-1,7.802E-1,8.262E-1,-4.876447E-3,3.929486E-3,7.7937025E-4,-2.7790712E-3,1.9419378E-3,8.9997845E-3,1.0582472E-2,4.2309207E-3,-7.519623E-3,-1.1168101E-3,-3.492646E-3,2.9045155E-3,-1.7616285E-2,-8.394001E-3,-8.208861E-3,-3.236755E-3],"split_indices":[2,3,2,5,0,4,3,0,2,3,2,3,0,0,4,0,0,0,0,0,0,0,0,0,0,0,0,0,0,0,0],"split_type":[0,0,0,0,0,0,0,0,0,0,0,0,0,0,0,0,0,0,0,0,0,0,0,0,0,0,0,0,0,0,0],"sum_hessian":[6.23E2,4.01E2,2.22E2,1.47E2,2.54E2,1.22E2,1E2,5E1,9.7E1,1.3E2,1.24E2,5.4E1,6.8E1,2.8E1,7.2E1,5E0,4.5E1,4E1,5.7E1,1.16E2,1.4E1,6.4E1,6E1,3.7E1,1.7E1,2.7E1,4.1E1,1.2E1,1.6E1,4.9E1,2.3E1],"tree_param":{"num_deleted":"0","num_feature":"7","num_nodes":"31","size_leaf_vector":"1"}},{"base_weights":[1.2768941E-3,4.20389E-2,-3.533951E-2,4.601054E-3,6.732034E-2,-5.8063675E-2,-6.0369014E-3,-1.5348407E-2,3.9077874E-2,-1.3091612E-3,7.795529E-2,-7.799269E-2,-2.3354858E-2,-2.3433063E-2,2.8180314E-2,-2.2724103E-3,5.202944E-3,-5.997526E-4,5.757718E-3,-7.079722E-3,1.1384538E-3,5.398409E-3,1.0483897E-2,-9.776927E-3,-3.6489733E-3,1.769922E-4,-5.5020545E-3,-7.217315E-3,-1.3042642E-3,4.5854296E-3,-5.78756E-4],"categories":[],"categories_nodes":[],"categories_segments":[],"categories_sizes":[],"default_left":[0,0,0,0,0,0,0,0,0,0,0,0,0,0,0,0,0,0,0,0,0,0,0,0,0,0,0,0,0,0,0],"id":2,"left_children":[1,3,5,7,9,11,13,15,17,19,21,23,25,27,29,-1,-1,-1,-1,-1,-1,-1,-1,-1,-1,-1,-1,-1,-1,-1,-1],"loss_changes":[9.462748E-1,2.8363502E-1,2.2205245E-1,8.451065E-2,1.307491E-1,1.282205E-1,8.816184E-2,3.994508E-2,3.7869185E-2,2.2857506E-2,9.422767E-2,9.410602E-2,5.5788923E-2,4.8688818E-2,3.0282766E-2,0E0,0E0,0E0,0E0,0E0,0E0,0E0,0E0,0E0,0E0,0E0,0E0,0E0,0E0,0E0,0E0],"parents":[2147483647,0,0,1,1,2,2,3,3,4,4,5,5,6,6,7,7,8,8,9,9,10,10,11,11,12,12,13,13,14,14],"right_children":[2,4,6,8,10,12,14,16,18,20,22,24,26,28,30,-1,-1,-1,-1,-1,-1,-1,-1,-1,-1,-1,-1,-1,-1,-1,-1],"split_conditions":[4.875E-1,8.016E-1,8.446E-1,8.313E-1,5.236E-1,7.884E-1,8.7E-1,8.964E-1,6.304E-1,5.42E-1,8.118E-1,8.775E-1,7.74E-1,6.308E-1,8.089E-1,-2.2724103E-3,5.202944E-3,-5.997526E-4,5.757718E-3,-7.079722E-3,1.1384538E-3,5.398409E-3,1.0483897E-2,-9.776927E-3,-3.6489733E-3,1.769922E-4,-5.5020545E-3,-7.217315E-3,-1.3042642E-3,4.5854296E-3,-5.78756E-4],"split_indices":[2,1,0,0,3,3,1,3,3,0,0,1,2,1,2,0,0,0,0,0,0,0,0,0,0,0,0,0,0,0,0],"split_type":[0,0,0,0,0,0,0,0,0,0,0,0,0,0,0,0,0,0,0,0,0,0,0,0,0,0,0,0,0,0,0],"sum_hessian":[6.32E2,2.99E2,3.33E2,1.21E2,1.78E2,1.87E2,1.46E2,7.7E1,4.4E1,2.4E1,1.54E2,1.18E2,6.9E1,9.7E1,4.9E1,7E1,7E0,1.3E1,3.1E1,3E0,2.1E1,8.3E1,7.1E1,7.9E1,3.9E1,3.9E1,3E1,1.6E1,8.1E1,3.2E1,1.7E1],"tree_param":{"num_deleted":"0","num_feature":"7","num_nodes":"31","size_leaf_vector":"1"}},{"base_weights":[1.4851767E-3,6.121371E-2,-2.2486327E-2,1.3022086E-2,7.382487E-2,-4.0542893E-2,6.4287893E-3,2.9547576E-2,-3.323126E-2,1.580427E-2,8.123361E-2,-5.0797626E-2,2.6649758E-3,-8.644635E-3,3.7488602E-2,5.643123E-3,-1.098156E-4,-5.0236033E-3,2.8860152E-3,-1.374046E-4,2.968433E-3,5.563309E-3,9.634959E-3,-8.796117E-3,-4.352289E-3,-3.3081137E-3,1.021383E-3,2.0967526E-3,-1.8103992E-3,5.6087207E-3,1.1725477E-3],"categories":[],"categories_nodes":[],"categories_segments":[],"categories_sizes":[],"default_left":[0,0,0,0,0,0,0,0,0,0,0,0,0,0,0,0,0,0,0,0,0,0,0,0,0,0,0,0,0,0,0],"id":3,"left_children":[1,3,5,7,9,11,13,15,17,19,21,23,25,27,29,-1,-1,-1,-1,-1,-1,-1,-1,-1,-1,-1,-1,-1,-1,-1,-1],"loss_changes":[9.348988E-1,1.1268836E-1,2.4356286E-1,3.1556267E-2,6.233543E-2,1.2730083E-1,8.459607E-2,2.4778048E-2,1.3064174E-2,4.332636E-3,4.5333743E-2,5.889404E-2,1.5449047E-2,3.455326E-2,2.7612679E-2,0E0,0E0,0E0,0E0,0E0,0E0,0E0,0E0,0E0,0E0,0E0,0E0,0E0,0E0,0E0,0E0],"parents":[2147483647,0,0,1,1,2,2,3,3,4,4,5,5,6,6,7,7,8,8,9,9,10,10,11,11,12,12,13,13,14,14],"right_children":[2,4,6,8,10,12,14,16,18,20,22,24,26,28,30,-1,-1,-1,-1,-1,-1,-1,-1,-1,-1,-1,-1,-1,-1,-1,-1],"split_conditions":[2.8594E0,7.045E-1,8.557E-1,5E0,5.076E-1,8.786E-1,8.087E-1,1.5269E0,8.624E-1,7.964E-1,6.839E-1,6.308E-1,6.593E-1,3E0,4.6722E0,5.643123E-3,-1.098156E-4,-5.0236033E-3,2.8860152E-3,-1.374046E-4,2.968433E-3,5.563309E-3,9.634959E-3,-8.796117E-3,-4.352289E-3,-3.3081137E-3,1.021383E-3,2.0967526E-3,-1.8103992E-3,5.6087207E-3,1.1725477E-3],"split_indices":[6,1,1,5,3,3,3,6,4,4,4,1,1,5,6,0,0,0,0,0,0,0,0,0,0,0,0,0,0,0,0],"split_type":[0,0,0,0,0,0,0,0,0,0,0,0,0,0,0,0,0,0,0,0,0,0,0,0,0,0,0,0,0,0,0],"sum_hessian":[6.51E2,1.86E2,4.65E2,3.9E1,1.47E2,2.86E2,1.79E2,2.9E1,1E1,1.7E1,1.3E2,2.31E2,5.5E1,1.21E2,5.8E1,1.5E1,1.4E1,8E0,2E0,8E0,9E0,5E1,8E1,3.6E1,1.95E2,9E0,4.6E1,2.9E1,9.2E1,3.3E1,2.5E1],"tree_param":{"num_deleted":"0","num_feature":"7","num_nodes":"31","size_leaf_vector":"1"}},{"base_weights":[-2.9581506E-5,5.092898E-2,-2.2805575E-2,8.861211E-2,1.5312382E-2,-4.1019946E-4,-6.9304235E-2,1.1279285E-2,9.848718E-2,-2.0031182E-2,2.5724048E-2,-2.088808E-2,2.1332828E-2,-8.8188864E-2,-3.3138365E-2,-6.622149E-4,4.873769E-3,6.366926E-3,1.16321165E-2,-3.9941138E-3,-2.9568482E-4,4.1624573E-3,-8.9010637E-4,8.748881E-4,-3.5084244E-3,4.2149476E-3,2.1315516E-4,-6.5744477E-3,-9.818937E-3,-8.522522E-3,-1.9947723E-3],"categories":[],"categories_nodes":[],"categories_segments":[],"categories_sizes":[],"default_left":[0,0,0,0,0,0,0,0,0,0,0,0,0,0,0,0,0,0,0,0,0,0,0,0,0,0,0,0,0,0,0],"id":4,"left_children":[1,3,5,7,9,11,13,15,17,19,21,23,25,27,29,-1,-1,-1,-1,-1,-1,-1,-1,-1,-1,-1,-1,-1,-1,-1,-1],"loss_changes":[7.4396586E-1,2.643878E-1,4.6129185E-1,7.220125E-2,3.841777E-2,1.3402094E-1,9.542662E-2,8.369459E-3,4.5374036E-2,8.040682E-3,4.4415094E-2,6.552027E-2,5.8267258E-2,1.46433115E-2,3.333996E-2,0E0,0E0,0E0,0E0,0E0,0E0,0E0,0E0,0E0,0E0,0E0,0E0,0E0,0E0,0E0,0E0],"parents":[2147483647,0,0,1,1,2,2,3,3,4,4,5,5,6,6,7,7,8,8,9,9,10,10,11,11,12,12,13,13,14,14],"right_children":[2,4,6,8,10,12,14,16,18,20,22,24,26,28,30,-1,-1,-1,-1,-1,-1,-1,-1,-1,-1,-1,-1,-1,-1,-1,-1],"split_conditions":[2.9866E0,4.875E-1,6.622E-1,6.339E-1,6.89E-1,8.301E-1,8.775E-1,8.828E-1,8.266E-1,8.068E-1,8.089E-1,3.08E-1,3.702E-1,4.6404E0,6.414E-1,-6.622149E-4,4.873769E-3,6.366926E-3,1.16321165E-2,-3.9941138E-3,-2.9568482E-4,4.1624573E-3,-8.9010637E-4,8.748881E-4,-3.5084244E-3,4.2149476E-3,2.1315516E-4,-6.5744477E-3,-9.818937E-3,-8.522522E-3,-1.9947723E-3],"split_indices":[6,2,2,0,1,1,1,1,1,0,2,2,2,6,0,0,0,0,0,0,0,0,0,0,0,0,0,0,0,0,0],"split_type":[0,0,0,0,0,0,0,0,0,0,0,0,0,0,0,0,0,0,0,0,0,0,0,0,0,0,0,0,0,0,0],"sum_hessian":[6.39E2,1.97E2,4.42E2,9.5E1,1.02E2,2.99E2,1.43E2,1.1E1,8.4E1,2.3E1,7.9E1,1.54E2,1.45E2,9.3E1,5E1,8E0,3E0,3E1,5.4E1,1E1,1.3E1,5.4E1,2.5E1,5E1,1.04E2,6.9E1,7.6E1,3.1E1,6.2E1,9E0,4.1E1],"tree_param":{"num_deleted":"0","num_feature":"7","num_nodes":"31","size_leaf_vector":"1"}},{"base_weights":[-1.7696369E-3,2.2201173E-2,-3.8413152E-2,5.3180125E-2,-5.212508E-3,-9.193723E-3,-6.2051337E-2,6.911783E-2,2.639205E-2,3.0146912E-2,-2.046785E-2,-6.778131E-2,-1.2185324E-3,-9.058646E-2,-4.318749E-2,3.187454E-3,8.060575E-3,4.3390463E-3,4.3192785E-4,1.5702572E-3,5.700872E-3,-6.898496E-3,-1.4884084E-3,-8.810407E-3,5.051598E-4,-5.2751084E-3,3.6253373E-4,-1.3479431E-2,-6.786011E-3,-5.8626155E-3,-3.028158E-3],"categories":[],"categories_nodes":[],"categories_segments":[],"categories_sizes":[],"default_left":[0,0,0,0,0,0,0,0,0,0,0,0,0,0,0,0,0,0,0,0,0,0,0,0,0,0,0,0,0,0,0],"id":5,"left_children":[1,3,5,7,9,11,13,15,17,19,21,23,25,27,29,-1,-1,-1,-1,-1,-1,-1,-1,-1,-1,-1,-1,-1,-1,-1,-1],"loss_changes":[5.7530993E-1,3.3657908E-1,1.783193E-1,7.758671E-2,1.1443466E-1,5.4585323E-2,7.306218E-2,4.7061145E-2,2.645193E-2,2.3936886E-2,3.9067615E-2,2.1167375E-2,2.6151406E-2,4.7115088E-2,1.5758708E-2,0E0,0E0,0E0,0E0,0E0,0E0,0E0,0E0,0E0,0E0,0E0,0E0,0E0,0E0,0E0,0E0],"parents":[2147483647,0,0,1,1,2,2,3,3,4,4,5,5,6,6,7,7,8,8,9,9,10,10,11,11,12,12,13,13,14,14],"right_children":[2,4,6,8,10,12,14,16,18,20,22,24,26,28,30,-1,-1,-1,-1,-1,-1,-1,-1,-1,-1,-1,-1,-1,-1,-1,-1],"split_conditions":[6.026E-1,3.9523E0,4.1587E0,4.303E-1,2.603E-1,6.512E-1,7.764E-1,7.25E-1,2.7309E0,8.412E-1,6.111E-1,8.026E-1,4.782E-1,6.354E-1,7.1E-1,3.187454E-3,8.060575E-3,4.3390463E-3,4.3192785E-4,1.5702572E-3,5.700872E-3,-6.898496E-3,-1.4884084E-3,-8.810407E-3,5.051598E-4,-5.2751084E-3,3.6253373E-4,-1.3479431E-2,-6.786011E-3,-5.8626155E-3,-3.028158E-3],"split_indices":[2,6,6,2,2,0,0,0,6,3,0,3,4,3,4,0,0,0,0,0,0,0,0,0,0,0,0,0,0,0,0],"split_type":[0,0,0,0,0,0,0,0,0,0,0,0,0,0,0,0,0,0,0,0,0,0,0,0,0,0,0,0,0,0,0],"sum_hessian":[6.53E2,3.95E2,2.58E2,1.85E2,2.1E2,1.16E2,1.42E2,1.15E2,7E1,6.3E1,1.47E2,1.3E1,1.03E2,5.5E1,8.7E1,2.8E1,8.7E1,3.9E1,3.1E1,4.2E1,2.1E1,1.4E1,1.33E2,1E1,3E0,8E0,9.5E1,1.7E1,3.8E1,3.8E1,4.9E1],"tree_param":{"num_deleted":"0","num_feature":"7","num_nodes":"31","size_leaf_vector":"1"}},{"base_weights":[-9.05228E-4,4.630672E-2,-1.713865E-2,8.68595E-2,2.5419474E-2,1.1089869E-3,-5.656094E-2,4.589522E-3,9.322206E-2,-1.9655349E-2,3.7702918E-2,-2.2088239E-2,1.791804E-2,-3.4381732E-2,-7.056305E-2,-8.80305E-4,1.6452253E-3,6.9299466E-3,1.076579E-2,-3.4977861E-3,2.2553299E-3,5.8590393E-3,2.0735022E-3,-4.83311E-3,-7.846621E-4,1.231951E-4,4.0637436E-3,-2.295414E-3,-5.3076935E-3,-1.075904E-2,-5.7917833E-3],"categories":[],"categories_nodes":[],"categories_segments":[],"categories_sizes":[],"default_left":[0,0,0,0,0,0,0,0,0,0,0,0,0,0,0,0,0,0,0,0,0,0,0,0,0,0,0,0,0,0,0],"id":6,"left_children":[1,3,5,7,9,11,13,15,17,19,21,23,25,27,29,-1,-1,-1,-1,-1,-1,-1,-1,-1,-1,-1,-1,-1,-1,-1,-1],"loss_changes":[4.8823133E-1,1.3585895E-1,3.410411E-1,2.8361768E-2,6.1091527E-2,1.2712087E-1,4.4157237E-2,9.391923E-4,1.0151863E-2,1.6310684E-2,2.9264942E-2,5.0823256E-2,7.159944E-2,1.1600137E-2,3.6376506E-2,0E0,0E0,0E0,0E0,0E0,0E0,0E0,0E0,0E0,0E0,0E0,0E0,0E0,0E0,0E0,0E0],"parents":[2147483647,0,0,1,1,2,2,3,3,4,4,5,5,6,6,7,7,8,8,9,9,10,10,11,11,12,12,13,13,14,14],"right_children":[2,4,6,8,10,12,14,16,18,20,22,24,26,28,30,-1,-1,-1,-1,-1,-1,-1,-1,-1,-1,-1,-1,-1,-1,-1,-1],"split_conditions":[2.7009E0,3.463E-1,6.622E-1,5.076E-1,6.853E-1,7.994E-1,4.6947E0,4.508E-1,7.107E-1,7.908E-1,6.398E-1,6.354E-1,7.741E-1,4E0,7.16E-1,-8.80305E-4,1.6452253E-3,6.9299466E-3,1.076579E-2,-3.4977861E-3,2.2553299E-3,5.8590393E-3,2.0735022E-3,-4.83311E-3,-7.846621E-4,1.231951E-4,4.0637436E-3,-2.295414E-3,-5.3076935E-3,-1.075904E-2,-5.7917833E-3],"split_indices":[6,2,2,3,1,1,6,3,3,3,2,3,3,5,1,0,0,0,0,0,0,0,0,0,0,0,0,0,0,0,0],"split_type":[0,0,0,0,0,0,0,0,0,0,0,0,0,0,0,0,0,0,0,0,0,0,0,0,0,0,0,0,0,0,0],"sum_hessian":[6.35E2,1.62E2,4.73E2,5.4E1,1.08E2,3.24E2,1.49E2,4E0,5E1,2.3E1,8.5E1,1.36E2,1.88E2,5.9E1,9E1,2E0,2E0,2.1E1,2.9E1,1.7E1,6E0,3.7E1,4.8E1,4.7E1,8.9E1,1.09E2,7.9E1,3.8E1,2.1E1,2.1E1,6.9E1],"tree_param":{"num_deleted":"0","num_feature":"7","num_nodes":"31","size_leaf_vector":"1"}},{"base_weights":[-1.5206983E-3,2.3333548E-2,-2.4423948E-2,2.0667887E-4,4.0187556E-2,-7.951329E-2,-1.7871764E-2,-1.5652955E-2,2.4297146E-2,2.8149046E-3,5.0728995E-2,-9.581705E-2,-3.523081E-2,-3.2888412E-2,6.6541284E-3,3.188699E-4,-3.2327473E-3,-1.616537E-3,3.431597E-3,-2.6059551E-3,2.118196E-3,6.2325376E-4,5.610472E-3,-1.1059734E-2,-6.258689E-3,-8.287856E-3,-1.5433693E-3,-1.4988167E-3,-5.5686403E-3,-6.213341E-4,2.158109E-3],"categories":[],"categories_nodes":[],"categories_segments":[],"categories_sizes":[],"default_left":[0,0,0,0,0,0,0,0,0,0,0,0,0,0,0,0,0,0,0,0,0,0,0,0,0,0,0,0,0,0,0],"id":7,"left_children":[1,3,5,7,9,11,13,15,17,19,21,23,25,27,29,-1,-1,-1,-1,-1,-1,-1,-1,-1,-1,-1,-1,-1,-1,-1,-1],"loss_changes":[3.6317772E-1,1.1926448E-1,1.18416175E-1,5.00489E-2,6.958842E-2,2.1893248E-2,1.0997128E-1,2.4922948E-2,2.1634843E-2,2.1765541E-2,3.2660007E-2,5.3568482E-3,9.097048E-3,7.4661925E-2,2.2030324E-2,0E0,0E0,0E0,0E0,0E0,0E0,0E0,0E0,0E0,0E0,0E0,0E0,0E0,0E0,0E0,0E0],"parents":[2147483647,0,0,1,1,2,2,3,3,4,4,5,5,6,6,7,7,8,8,9,9,10,10,11,11,12,12,13,13,14,14],"right_children":[2,4,6,8,10,12,14,16,18,20,22,24,26,28,30,-1,-1,-1,-1,-1,-1,-1,-1,-1,-1,-1,-1,-1,-1,-1,-1],"split_conditions":[4.901E-1,8.139E-1,6.414E-1,8.377E-1,7.161E-1,8.032E-1,8.592E-1,2.935E-1,5.676E-1,7.155E-1,5.193E-1,8.775E-1,7.02E-1,7.421E-1,8.402E-1,3.188699E-4,-3.2327473E-3,-1.616537E-3,3.431597E-3,-2.6059551E-3,2.118196E-3,6.2325376E-4,5.610472E-3,-1.1059734E-2,-6.258689E-3,-8.287856E-3,-1.5433693E-3,-1.4988167E-3,-5.5686403E-3,-6.213341E-4,2.158109E-3],"split_indices":[2,1,0,0,0,3,1,2,3,3,3,1,1,2,0,0,0,0,0,0,0,0,0,0,0,0,0,0,0,0,0],"split_type":[0,0,0,0,0,0,0,0,0,0,0,0,0,0,0,0,0,0,0,0,0,0,0,0,0,0,0,0,0,0,0],"sum_hessian":[6.36E2,3.05E2,3.31E2,1.29E2,1.76E2,3.4E1,2.97E2,7.8E1,5.1E1,3.9E1,1.37E2,2.4E1,1E1,1.84E2,1.13E2,3.7E1,4.1E1,1E1,4.1E1,1.5E1,2.4E1,1.5E1,1.22E2,1.5E1,9E0,2E0,8E0,1.04E2,8E1,6.1E1,5.2E1],"tree_param":{"num_deleted":"0","num_feature":"7","num_nodes":"31","size_leaf_vector":"1"}},{"base_weights":[-1.6325498E-3,2.9725907E-2,-2.2452274E-2,-7.823001E-3,3.8027693E-2,-4.6984654E-2,-1.1526159E-2,4.5996785E-2,-1.682094E-2,6.2414095E-2,2.4755903E-2,-6.915101E-2,-3.4283724E-2,4.8581715E-4,-2.8412232E-2,5.4344786E-3,-2.0456016E-4,-3.8559164E-3,1.8680705E-4,1.0361308E-3,6.957212E-3,1.4434486E-3,4.6983315E-3,-1.45306E-3,-7.2979997E-3,-6.0665486E-3,-2.043354E-3,-1.0546024E-3,1.7559541E-3,-3.5333359E-3,2.2065088E-3],"categories":[],"categories_nodes":[],"categories_segments":[],"categories_sizes":[],"default_left":[0,0,0,0,0,0,0,0,0,0,0,0,0,0,0,0,0,0,0,0,0,0,0,0,0,0,0,0,0,0,0],"id":8,"left_children":[1,3,5,7,9,11,13,15,17,19,21,23,25,27,29,-1,-1,-1,-1,-1,-1,-1,-1,-1,-1,-1,-1,-1,-1,-1,-1],"loss_changes":[4.1720134E-1,7.978684E-2,1.02387175E-1,2.3534266E-2,6.6097975E-2,3.0850172E-2,5.4170772E-2,2.9185722E-3,1.6728936E-2,2.6478618E-2,3.075213E-2,7.7234805E-3,2.689559E-2,2.9756857E-2,3.9558567E-2,0E0,0E0,0E0,0E0,0E0,0E0,0E0,0E0,0E0,0E0,0E0,0E0,0E0,0E0,0E0,0E0],"parents":[2147483647,0,0,1,1,2,2,3,3,4,4,5,5,6,6,7,7,8,8,9,9,10,10,11,11,12,12,13,13,14,14],"right_children":[2,4,6,8,10,12,14,16,18,20,22,24,26,28,30,-1,-1,-1,-1,-1,-1,-1,-1,-1,-1,-1,-1,-1,-1,-1,-1],"split_conditions":[3.8643E0,6.903E-1,7.527E-1,1.1085E0,1.7717E0,6.354E-1,4E0,6.537E-1,6.26E-1,5.236E-1,8.056E-1,4.3493E0,6.448E-1,7.751E-1,9.307E-1,5.4344786E-3,-2.0456016E-4,-3.8559164E-3,1.8680705E-4,1.0361308E-3,6.957212E-3,1.4434486E-3,4.6983315E-3,-1.45306E-3,-7.2979997E-3,-6.0665486E-3,-2.043354E-3,-1.0546024E-3,1.7559541E-3,-3.5333359E-3,2.2065088E-3],"split_indices":[6,1,1,6,6,3,5,1,1,3,3,6,4,3,1,0,0,0,0,0,0,0,0,0,0,0,0,0,0,0,0],"split_type":[0,0,0,0,0,0,0,0,0,0,0,0,0,0,0,0,0,0,0,0,0,0,0,0,0,0,0,0,0,0,0],"sum_hessian":[6.37E2,2.54E2,3.83E2,4.6E1,2.08E2,1.17E2,2.66E2,6E0,4E1,7.2E1,1.36E2,4.1E1,7.6E1,1.56E2,1.1E2,5E0,1E0,1.8E1,2.2E1,9E0,6.3E1,9.4E1,4.2E1,3E0,3.8E1,2.5E1,5.1E1,9.5E1,6.1E1,9.7E1,1.3E1],"tree_param":{"num_deleted":"0","num_feature":"7","num_nodes":"31","size_leaf_vector":"1"}},{"base_weights":[-9.30054E-4,3.834218E-2,-1.5102772E-2,-2.247236E-3,4.7770504E-2,-4.3737307E-2,-5.1885797E-3,3.8384557E-2,-1.087379E-2,2.5144758E-2,6.291559E-2,-5.0733134E-2,-5.8717253E-3,-2.5381068E-2,4.0112645E-3,-3.6138415E-3,6.0516833E-3,1.4748103E-4,-3.3248754E-3,3.2760564E-3,-1.3925591E-3,3.1933424E-3,7.838906E-3,-5.8414675E-3,-1.8322667E-3,-2.7183767E-3,2.3196745E-3,-5.5057756E-3,-1.3038851E-3,2.0381387E-3,-4.1985573E-4],"categories":[],"categories_nodes":[],"categories_segments":[],"categories_sizes":[],"default_left":[0,0,0,0,0,0,0,0,0,0,0,0,0,0,0,0,0,0,0,0,0,0,0,0,0,0,0,0,0,0,0],"id":9,"left_children":[1,3,5,7,9,11,13,15,17,19,21,23,25,27,29,-1,-1,-1,-1,-1,-1,-1,-1,-1,-1,-1,-1,-1,-1,-1,-1],"loss_changes":[3.5679942E-1,6.5164655E-2,1.3348442E-1,1.1984293E-2,4.570633E-2,3.1755134E-2,6.5306276E-2,1.2083163E-2,7.785421E-3,1.741669E-2,3.6807716E-2,2.432385E-2,1.3020744E-2,3.9572485E-2,3.2609355E-2,0E0,0E0,0E0,0E0,0E0,0E0,0E0,0E0,0E0,0E0,0E0,0E0,0E0,0E0,0E0,0E0],"parents":[2147483647,0,0,1,1,2,2,3,3,4,4,5,5,6,6,7,7,8,8,9,9,10,10,11,11,12,12,13,13,14,14],"right_children":[2,4,6,8,10,12,14,16,18,20,22,24,26,28,30,-1,-1,-1,-1,-1,-1,-1,-1,-1,-1,-1,-1,-1,-1,-1,-1],"split_conditions":[2.7009E0,7.045E-1,7.197E-1,7.605E-1,6.839E-1,8.743E-1,6.427E-1,3.936E-1,5E0,2.4466E0,6.547E-1,8.426E-1,6.593E-1,6.33E-1,4.1825E0,-3.6138415E-3,6.0516833E-3,1.4748103E-4,-3.3248754E-3,3.2760564E-3,-1.3925591E-3,3.1933424E-3,7.838906E-3,-5.8414675E-3,-1.8322667E-3,-2.7183767E-3,2.3196745E-3,-5.5057756E-3,-1.3038851E-3,2.0381387E-3,-4.1985573E-4],"split_indices":[6,1,1,6,4,3,3,4,5,6,3,4,1,4,6,0,0,0,0,0,0,0,0,0,0,0,0,0,0,0,0],"split_type":[0,0,0,0,0,0,0,0,0,0,0,0,0,0,0,0,0,0,0,0,0,0,0,0,0,0,0,0,0,0,0],"sum_hessian":[6.39E2,1.69E2,4.7E2,3.2E1,1.37E2,1.2E2,3.5E2,5E0,2.7E1,5.6E1,8.1E1,1.01E2,1.9E1,1.09E2,2.41E2,1E0,4E0,1.8E1,9E0,4.7E1,9E0,2.8E1,5.3E1,8.1E1,2E1,1.1E1,8E0,3.1E1,7.8E1,8E1,1.61E2],"tree_param":{"num_deleted":"0","num_feature":"7","num_nodes":"31","size_leaf_vector":"1"}},{"base_weights":[2.95258E-4,3.633184E-2,-1.3968264E-2,1.455993E-2,4.8547924E-2,-7.024058E-2,-9.608021E-3,-3.317883E-2,2.519228E-2,3.1381004E-2,6.410115E-2,-4.432917E-2,-8.235911E-2,-2.0323047E-2,9.591197E-3,-4.87895E-3,1.4142558E-3,1.0534531E-3,4.2263656E-3,5.431605E-3,1.0332182E-3,5.0514853E-3,8.650739E-3,-7.959339E-3,-3.0681735E-3,-9.430516E-3,-4.9665417E-3,-5.4893894E-3,-1.4430721E-3,2.8362207E-3,-2.0716591E-4],"categories":[],"categories_nodes":[],"categories_segments":[],"categories_sizes":[],"default_left":[0,0,0,0,0,0,0,0,0,0,0,0,0,0,0,0,0,0,0,0,0,0,0,0,0,0,0,0,0,0,0],"id":10,"left_children":[1,3,5,7,9,11,13,15,17,19,21,23,25,27,29,-1,-1,-1,-1,-1,-1,-1,-1,-1,-1,-1,-1,-1,-1,-1,-1],"loss_changes":[3.4078115E-1,4.9295068E-2,1.1587158E-1,3.5858534E-2,3.0028522E-2,7.025376E-3,9.112321E-2,1.029335E-2,1.3817757E-2,2.792139E-2,1.4504015E-2,3.8143955E-3,3.9086193E-3,5.7059422E-2,3.4867603E-2,0E0,0E0,0E0,0E0,0E0,0E0,0E0,0E0,0E0,0E0,0E0,0E0,0E0,0E0,0E0,0E0],"parents":[2147483647,0,0,1,1,2,2,3,3,4,4,5,5,6,6,7,7,8,8,9,9,10,10,11,11,12,12,13,13,14,14],"right_children":[2,4,6,8,10,12,14,16,18,20,22,24,26,28,30,-1,-1,-1,-1,-1,-1,-1,-1,-1,-1,-1,-1,-1,-1,-1,-1],"split_conditions":[2.8594E0,7.786E-1,6.047E-1,6.853E-1,7.404E-1,3E0,8.627E-1,8.57E-1,7.139E-1,1.4718E0,9.028E-1,7.138E-1,8.253E-1,5.276E-1,4.6404E0,-4.87895E-3,1.4142558E-3,1.0534531E-3,4.2263656E-3,5.431605E-3,1.0332182E-3,5.0514853E-3,8.650739E-3,-7.959339E-3,-3.0681735E-3,-9.430516E-3,-4.9665417E-3,-5.4893894E-3,-1.4430721E-3,2.8362207E-3,-2.0716591E-4],"split_indices":[6,0,0,1,4,5,1,4,0,6,0,1,4,4,6,0,0,0,0,0,0,0,0,0,0,0,0,0,0,0,0],"split_type":[0,0,0,0,0,0,0,0,0,0,0,0,0,0,0,0,0,0,0,0,0,0,0,0,0,0,0,0,0,0,0],"sum_hessian":[6.61E2,1.87E2,4.74E2,6.8E1,1.19E2,3.3E1,4.41E2,1.2E1,5.6E1,5.8E1,6.1E1,1.2E1,2.1E1,2.83E2,1.58E2,9E0,3E0,3.1E1,2.5E1,2.7E1,3.1E1,4E1,2.1E1,2E0,1E1,1.4E1,7E0,4E1,2.43E2,6E1,9.8E1],"tree_param":{"num_deleted":"0","num_feature":"7","num_nodes":"31","size_leaf_vector":"1"}},{"base_weights":[4.1044687E-4,2.3767972E-2,-2.0870522E-2,4.9444456E-2,7.272149E-3,-3.2816052E-3,-3.621669E-2,3.3093866E-2,7.5447835E-2,2.5026465E-2,-5.4063573E-3,-5.246687E-2,2.4448142E-3,-5.3452324E-2,-2.2619473E-2,1.9331193E-3,5.722904E-3,6.515741E-3,1.2053191E-2,-9.6078584E-4,3.5168694E-3,-2.2948969E-3,4.992332E-4,-2.9064005E-3,-6.0462356E-3,-8.564517E-4,2.1393371E-3,-9.889771E-3,-4.5871637E-3,-5.3033247E-3,-1.6986225E-3],"categories":[],"categories_nodes":[],"categories_segments":[],"categories_sizes":[],"default_left":[0,0,0,0,0,0,0,0,0,0,0,0,0,0,0,0,0,0,0,0,0,0,0,0,0,0,0,0,0,0,0],"id":11,"left_children":[1,3,5,7,9,11,13,15,17,19,21,23,25,27,29,-1,-1,-1,-1,-1,-1,-1,-1,-1,-1,-1,-1,-1,-1,-1,-1],"loss_changes":[3.0967408E-1,1.2543623E-1,8.787589E-2,4.6822876E-2,4.1103177E-2,4.3221556E-2,3.9569005E-2,2.3141704E-2,1.2559593E-2,2.7034353E-2,1.9633526E-2,1.2365989E-3,2.8971529E-2,2.1645933E-2,1.6060669E-2,0E0,0E0,0E0,0E0,0E0,0E0,0E0,0E0,0E0,0E0,0E0,0E0,0E0,0E0,0E0,0E0],"parents":[2147483647,0,0,1,1,2,2,3,3,4,4,5,5,6,6,7,7,8,8,9,9,10,10,11,11,12,12,13,13,14,14],"right_children":[2,4,6,8,10,12,14,16,18,20,22,24,26,28,30,-1,-1,-1,-1,-1,-1,-1,-1,-1,-1,-1,-1,-1,-1,-1,-1],"split_conditions":[4.875E-1,3.5292E0,4.1587E0,8.441E-1,2.603E-1,6.512E-1,8.002E-1,8.377E-1,9.268E-1,5.479E-1,7.613E-1,7.246E-1,8.747E-1,6.921E-1,6.355E-1,1.9331193E-3,5.722904E-3,6.515741E-3,1.2053191E-2,-9.6078584E-4,3.5168694E-3,-2.2948969E-3,4.992332E-4,-2.9064005E-3,-6.0462356E-3,-8.564517E-4,2.1393371E-3,-9.889771E-3,-4.5871637E-3,-5.3033247E-3,-1.6986225E-3],"split_indices":[2,6,6,0,2,0,0,3,1,3,1,1,1,1,1,0,0,0,0,0,0,0,0,0,0,0,0,0,0,0,0],"split_type":[0,0,0,0,0,0,0,0,0,0,0,0,0,0,0,0,0,0,0,0,0,0,0,0,0,0,0,0,0,0,0],"sum_hessian":[6.21E2,2.96E2,3.25E2,1.15E2,1.81E2,1.52E2,1.73E2,7.2E1,4.3E1,7.5E1,1.06E2,1.5E1,1.37E2,7.5E1,9.8E1,4.7E1,2.5E1,3.7E1,6E0,1.7E1,5.8E1,3.9E1,6.7E1,5E0,1E1,8.7E1,5E1,9E0,6.6E1,1.4E1,8.4E1],"tree_param":{"num_deleted":"0","num_feature":"7","num_nodes":"31","size_leaf_vector":"1"}},{"base_weights":[1.7446681E-3,3.32275E-2,-8.667502E-3,-2.2034112E-5,4.3069538E-2,-1.8078383E-2,7.2189397E-3,1.1890199E-2,-2.1292305E-2,7.695325E-3,5.1836137E-2,-5.7803553E-2,-1.4210802E-2,2.0971362E-2,-6.0250703E-3,-1.6066035E-3,2.5991134E-3,3.113234E-4,-3.1365845E-3,-2.4580946E-3,2.3405943E-3,3.2780548E-3,7.0236116E-3,-1.0736188E-4,-6.2299003E-3,2.9339848E-4,-2.2262703E-3,-2.2766956E-3,2.551616E-3,6.95056E-4,-2.3715934E-3],"categories":[],"categories_nodes":[],"categories_segments":[],"categories_sizes":[],"default_left":[0,0,0,0,0,0,0,0,0,0,0,0,0,0,0,0,0,0,0,0,0,0,0,0,0,0,0,0,0,0,0],"id":12,"left_children":[1,3,5,7,9,11,13,15,17,19,21,23,25,27,29,-1,-1,-1,-1,-1,-1,-1,-1,-1,-1,-1,-1,-1,-1,-1,-1],"loss_changes":[2.1368879E-1,5.3014338E-2,7.338816E-2,9.881474E-3,3.8365066E-2,4.6499796E-2,3.345747E-2,1.0272801E-2,3.5395515E-3,1.3759424E-2,3.2759875E-2,6.818831E-3,3.899488E-2,1.847129E-2,2.1742549E-2,0E0,0E0,0E0,0E0,0E0,0E0,0E0,0E0,0E0,0E0,0E0,0E0,0E0,0E0,0E0,0E0],"parents":[2147483647,0,0,1,1,2,2,3,3,4,4,5,5,6,6,7,7,8,8,9,9,10,10,11,11,12,12,13,13,14,14],"right_children":[2,4,6,8,10,12,14,16,18,20,22,24,26,28,30,-1,-1,-1,-1,-1,-1,-1,-1,-1,-1,-1,-1,-1,-1,-1,-1],"split_conditions":[2.7009E0,7.523E-1,7.884E-1,4E0,5.863E-1,6.252E-1,5.1673E0,6.479E-1,7.216E-1,6.125E-1,7.404E-1,2.816E0,3E0,6.111E-1,4E0,-1.6066035E-3,2.5991134E-3,3.113234E-4,-3.1365845E-3,-2.4580946E-3,2.3405943E-3,3.2780548E-3,7.0236116E-3,-1.0736188E-4,-6.2299003E-3,2.9339848E-4,-2.2262703E-3,-2.2766956E-3,2.551616E-3,6.95056E-4,-2.3715934E-3],"split_indices":[6,0,3,5,3,0,6,3,3,4,4,6,5,0,5,0,0,0,0,0,0,0,0,0,0,0,0,0,0,0,0],"split_type":[0,0,0,0,0,0,0,0,0,0,0,0,0,0,0,0,0,0,0,0,0,0,0,0,0,0,0,0,0,0,0],"sum_hessian":[6.5E2,1.61E2,4.89E2,3.7E1,1.24E2,3.07E2,1.82E2,2.4E1,1.3E1,2.5E1,9.9E1,2.6E1,2.81E2,8.9E1,9.3E1,8E0,1.6E1,4E0,9E0,8E0,1.7E1,5E1,4.9E1,2E0,2.4E1,9E1,1.91E2,8E0,8.1E1,5.4E1,3.9E1],"tree_param":{"num_deleted":"0","num_feature":"7","num_nodes":"31","size_leaf_vector":"1"}},{"base_weights":[3.783003E-4,1.8078862E-2,-2.1326551E-2,3.9293177E-2,4.218955E-3,-4.2009586E-3,-3.759642E-2,6.9971204E-2,3.0407678E-2,2.4459211E-2,-4.367321E-3,1.0196006E-2,-1.8133206E-2,-6.0896743E-2,-2.7176706E-2,1.6276399E-3,8.0059115E-3,-6.967372E-4,3.3875785E-3,-3.6275847E-4,3.1138998E-3,-2.4194706E-3,4.7225272E-4,3.5084744E-3,-1.4237488E-4,-2.2796774E-3,2.1441989E-3,-6.7449533E-3,-1.6624915E-3,-3.4550272E-3,-1.0712269E-3],"categories":[],"categories_nodes":[],"categories_segments":[],"categories_sizes":[],"default_left":[0,0,0,0,0,0,0,0,0,0,0,0,0,0,0,0,0,0,0,0,0,0,0,0,0,0,0,0,0,0,0],"id":13,"left_children":[1,3,5,7,9,11,13,15,17,19,21,23,25,27,29,-1,-1,-1,-1,-1,-1,-1,-1,-1,-1,-1,-1,-1,-1,-1,-1],"loss_changes":[2.4203984E-1,1.0186211E-1,7.869464E-2,3.5217106E-2,3.6776178E-2,2.8065795E-2,3.3548534E-2,1.4946967E-2,1.4235072E-2,1.193263E-2,2.6968218E-2,2.0004822E-2,1.35926865E-2,1.1643216E-2,1.2012854E-2,0E0,0E0,0E0,0E0,0E0,0E0,0E0,0E0,0E0,0E0,0E0,0E0,0E0,0E0,0E0,0E0],"parents":[2147483647,0,0,1,1,2,2,3,3,4,4,5,5,6,6,7,7,8,8,9,9,10,10,11,11,12,12,13,13,14,14],"right_children":[2,4,6,8,10,12,14,16,18,20,22,24,26,28,30,-1,-1,-1,-1,-1,-1,-1,-1,-1,-1,-1,-1,-1,-1,-1,-1],"split_conditions":[5.329E-1,3.5292E0,4.1825E0,2.04E-1,3E0,7.437E-1,6.38E-1,5.922E-1,5.067E-1,5.479E-1,6.589E-1,1.7126E0,8.975E-1,8.439E-1,8.297E-1,1.6276399E-3,8.0059115E-3,-6.967372E-4,3.3875785E-3,-3.6275847E-4,3.1138998E-3,-2.4194706E-3,4.7225272E-4,3.5084744E-3,-1.4237488E-4,-2.2796774E-3,2.1441989E-3,-6.7449533E-3,-1.6624915E-3,-3.4550272E-3,-1.0712269E-3],"split_indices":[2,6,6,2,5,2,3,3,3,3,4,6,4,4,3,0,0,0,0,0,0,0,0,0,0,0,0,0,0,0,0],"split_type":[0,0,0,0,0,0,0,0,0,0,0,0,0,0,0,0,0,0,0,0,0,0,0,0,0,0,0,0,0,0,0],"sum_hessian":[6.28E2,3.46E2,2.82E2,1.36E2,2.1E2,1.38E2,1.44E2,2.9E1,1.07E2,6.2E1,1.48E2,6.8E1,7E1,4.3E1,1.01E2,5E0,2.4E1,9E0,9.8E1,1.2E1,5E1,4.6E1,1.02E2,2.1E1,4.7E1,6.3E1,7E0,3.7E1,6E0,6.9E1,3.2E1],"tree_param":{"num_deleted":"0","num_feature":"7","num_nodes":"31","size_leaf_vector":"1"}},{"base_weights":[7.660665E-4,1.348407E-2,-2.7902832E-2,2.9845215E-2,7.9259917E-4,5.6161713E-3,-3.7263192E-2,6.16501E-2,2.0122357E-2,-1.1747473E-2,1.5656114E-2,-5.8522457E-3,1.188963E-2,-4.4734795E-2,-1.7456962E-2,1.2619793E-3,6.905963E-3,2.7675068E-4,3.462245E-3,-3.0989142E-3,-1.9961126E-4,3.3672515E-3,3.6793848E-4,2.7726006E-4,4.2984667E-3,-5.4079457E-3,-2.253099E-3,-3.777597E-3,1.8541723E-4],"categories":[],"categories_nodes":[],"categories_segments":[],"categories_sizes":[],"default_left":[0,0,0,0,0,0,0,0,0,0,0,0,0,0,0,0,0,0,0,0,0,0,0,0,0,0,0,0,0],"id":14,"left_children":[1,3,5,7,9,11,13,15,17,19,21,-1,23,25,27,-1,-1,-1,-1,-1,-1,-1,-1,-1,-1,-1,-1,-1,-1],"loss_changes":[2.2898744E-1,9.0302795E-2,6.0763E-2,5.7513997E-2,4.6035748E-2,1.7997762E-2,2.1564692E-2,1.5113294E-2,3.6896285E-2,2.5080886E-2,2.4258971E-2,0E0,1.1220596E-2,2.139762E-2,1.6942516E-2,0E0,0E0,0E0,0E0,0E0,0E0,0E0,0E0,0E0,0E0,0E0,0E0,0E0,0E0],"parents":[2147483647,0,0,1,1,2,2,3,3,4,4,5,5,6,6,7,7,8,8,9,9,10,10,12,12,13,13,14,14],"right_children":[2,4,6,8,10,12,14,16,18,20,22,-1,24,26,28,-1,-1,-1,-1,-1,-1,-1,-1,-1,-1,-1,-1,-1,-1],"split_conditions":[6.837E-1,3.9523E0,2.4231E0,2.271E-1,8.313E-1,6.03E-1,8.884E-1,6.593E-1,8.338E-1,7.644E-1,3.08E-1,-5.8522457E-3,9.176E-1,8.822E-1,7.358E-1,1.2619793E-3,6.905963E-3,2.7675068E-4,3.462245E-3,-3.0989142E-3,-1.9961126E-4,3.3672515E-3,3.6793848E-4,2.7726006E-4,4.2984667E-3,-5.4079457E-3,-2.253099E-3,-3.777597E-3,1.8541723E-4],"split_indices":[2,6,6,2,0,1,0,1,1,1,2,0,0,1,3,0,0,0,0,0,0,0,0,0,0,0,0,0,0],"split_type":[0,0,0,0,0,0,0,0,0,0,0,0,0,0,0,0,0,0,0,0,0,0,0,0,0,0,0,0,0],"sum_hessian":[6.26E2,4.34E2,1.92E2,1.89E2,2.45E2,4.2E1,1.5E2,4.3E1,1.46E2,1.33E2,1.12E2,3E0,3.9E1,1.08E2,4.2E1,6E0,3.7E1,6.7E1,7.9E1,4.4E1,8.9E1,4.4E1,6.8E1,3.1E1,8E0,7.5E1,3.3E1,2E1,2.2E1],"tree_param":{"num_deleted":"0","num_feature":"7","num_nodes":"29","size_leaf_vector":"1"}},{"base_weights":[-4.416268E-5,2.6955426E-2,-1.0459857E-2,4.8959423E-2,1.6003432E-2,1.8425294E-3,-2.5478762E-2,2.6644252E-2,6.3499995E-2,-3.7546648E-4,2.3506729E-2,9.378017E-3,-1.6128073E-2,-3.892817E-2,-1.2540627E-2,-1.5108004E-3,3.3024468E-3,4.0464136E-3,7.693037E-3,-1.7463096E-3,9.89213E-4,2.86672E-4,2.917832E-3,-1.1149076E-3,1.6455019E-3,-2.68312E-3,5.4868334E-4,-7.511413E-3,-3.1825833E-3,-2.518405E-3,7.1571994E-4],"categories":[],"categories_nodes":[],"categories_segments":[],"categories_sizes":[],"default_left":[0,0,0,0,0,0,0,0,0,0,0,0,0,0,0,0,0,0,0,0,0,0,0,0,0,0,0,0,0,0,0],"id":15,"left_children":[1,3,5,7,9,11,13,15,17,19,21,23,25,27,29,-1,-1,-1,-1,-1,-1,-1,-1,-1,-1,-1,-1,-1,-1,-1,-1],"loss_changes":[1.8082485E-1,4.2353272E-2,8.5779466E-2,1.7452136E-2,1.487921E-2,3.4818064E-2,3.587997E-2,7.1586445E-3,7.715374E-3,7.0152534E-3,9.632472E-3,2.6477383E-2,1.7729597E-2,2.3823932E-2,2.7077425E-2,0E0,0E0,0E0,0E0,0E0,0E0,0E0,0E0,0E0,0E0,0E0,0E0,0E0,0E0,0E0,0E0],"parents":[2147483647,0,0,1,1,2,2,3,3,4,4,5,5,6,6,7,7,8,8,9,9,10,10,11,11,12,12,13,13,14,14],"right_children":[2,4,6,8,10,12,14,16,18,20,22,24,26,28,30,-1,-1,-1,-1,-1,-1,-1,-1,-1,-1,-1,-1,-1,-1,-1,-1],"split_conditions":[3.404E-1,3.1038E0,4.6722E0,7.984E-1,6.448E-1,7.74E-1,8.002E-1,6.81E-1,8.504E-1,7.511E-1,7.109E-1,7.395E-1,8.891E-1,6.762E-1,8.548E-1,-1.5108004E-3,3.3024468E-3,4.0464136E-3,7.693037E-3,-1.7463096E-3,9.89213E-4,2.86672E-4,2.917832E-3,-1.1149076E-3,1.6455019E-3,-2.68312E-3,5.4868334E-4,-7.511413E-3,-3.1825833E-3,-2.518405E-3,7.1571994E-4],"split_indices":[2,6,6,0,4,2,0,1,1,1,0,0,1,1,1,0,0,0,0,0,0,0,0,0,0,0,0,0,0,0,0],"split_type":[0,0,0,0,0,0,0,0,0,0,0,0,0,0,0,0,0,0,0,0,0,0,0,0,0,0,0,0,0,0,0],"sum_hessian":[6.41E2,1.78E2,4.63E2,5.8E1,1.2E2,2.55E2,2.08E2,2.4E1,3.4E1,3.8E1,8.2E1,1.8E2,7.5E1,1.01E2,1.07E2,3E0,2.1E1,1.4E1,2E1,1.4E1,2.4E1,1.8E1,6.4E1,4.6E1,1.34E2,5E1,2.5E1,1.5E1,8.6E1,6.5E1,4.2E1],"tree_param":{"num_deleted":"0","num_feature":"7","num_nodes":"31","size_leaf_vector":"1"}},{"base_weights":[-9.472453E-4,-3.720273E-2,3.2702032E-3,-6.285295E-2,-2.8250605E-2,-1.9937752E-2,9.458594E-3,-7.729437E-2,-1.5622938E-2,-1.745267E-2,-4.647734E-2,-4.2571887E-2,-1.1737799E-2,3.500462E-2,4.392868E-3,-1.4555991E-3,-8.16746E-3,-2.8309904E-3,2.271672E-4,-2.2467298E-3,1.5122688E-3,-5.7446E-3,-2.9125789E-3,-1.6023169E-3,-5.1109563E-3,-3.5483267E-3,-4.6849414E-4,6.8209106E-3,2.9868544E-3,-6.6761917E-4,1.4253544E-3],"categories":[],"categories_nodes":[],"categories_segments":[],"categories_sizes":[],"default_left":[0,0,0,0,0,0,0,0,0,0,0,0,0,0,0,0,0,0,0,0,0,0,0,0,0,0,0,0,0,0,0],"id":16,"left_children":[1,3,5,7,9,11,13,15,17,19,21,23,25,27,29,-1,-1,-1,-1,-1,-1,-1,-1,-1,-1,-1,-1,-1,-1,-1,-1],"loss_changes":[9.538187E-2,1.3149925E-2,8.04721E-2,9.705536E-3,9.029403E-3,2.1400958E-2,5.7045083E-2,2.1088347E-3,1.199452E-3,5.730422E-3,1.7526597E-3,6.20766E-3,1.4571423E-2,1.04121715E-2,4.048007E-2,0E0,0E0,0E0,0E0,0E0,0E0,0E0,0E0,0E0,0E0,0E0,0E0,0E0,0E0,0E0,0E0],"parents":[2147483647,0,0,1,1,2,2,3,3,4,4,5,5,6,6,7,7,8,8,9,9,10,10,11,11,12,12,13,13,14,14],"right_children":[2,4,6,8,10,12,14,16,18,20,22,24,26,28,30,-1,-1,-1,-1,-1,-1,-1,-1,-1,-1,-1,-1,-1,-1,-1,-1],"split_conditions":[6.4E-1,7.511E-1,7.093E-1,8.57E-1,4E0,5.761E-1,1.7717E0,2E0,4.854E-1,9.323E-1,7.999E-1,2.8198E0,6.007E-1,6.1E-1,7.109E-1,-1.4555991E-3,-8.16746E-3,-2.8309904E-3,2.271672E-4,-2.2467298E-3,1.5122688E-3,-5.7446E-3,-2.9125789E-3,-1.6023169E-3,-5.1109563E-3,-3.5483267E-3,-4.6849414E-4,6.8209106E-3,2.9868544E-3,-6.6761917E-4,1.4253544E-3],"split_indices":[1,0,0,4,5,0,6,5,1,0,4,6,4,6,4,0,0,0,0,0,0,0,0,0,0,0,0,0,0,0,0],"split_type":[0,0,0,0,0,0,0,0,0,0,0,0,0,0,0,0,0,0,0,0,0,0,0,0,0,0,0,0,0,0,0],"sum_hessian":[6.22E2,6.4E1,5.58E2,1.5E1,4.9E1,1.17E2,4.41E2,1.1E1,4E0,3.2E1,1.7E1,3E1,8.7E1,7.2E1,3.69E2,1E0,1E1,2E0,2E0,2.8E1,4E0,9E0,8E0,8E0,2.2E1,1.9E1,6.8E1,8E0,6.4E1,1.74E2,1.95E2],"tree_param":{"num_deleted":"0","num_feature":"7","num_nodes":"31","size_leaf_vector":"1"}},{"base_weights":[-1.0163582E-4,9.726751E-3,-2.0919884E-2,-9.411066E-4,2.133132E-2,-1.6249361E-3,-3.0413536E-2,1.6482037E-2,-9.588754E-3,3.269101E-2,6.899845E-3,-2.1378927E-2,8.287384E-3,-3.544389E-2,-9.744889E-3,4.143354E-3,7.875712E-4,1.2170828E-3,-1.4424879E-3,5.0433786E-3,2.2179014E-3,3.1630424E-4,4.101002E-3,-1.1582206E-3,-3.2956444E-3,2.6749691E-3,-6.2580315E-5,-5.000921E-3,-2.5566986E-3,5.776053E-4,-3.4256894E-3],"categories":[],"categories_nodes":[],"categories_segments":[],"categories_sizes":[],"default_left":[0,0,0,0,0,0,0,0,0,0,0,0,0,0,0,0,0,0,0,0,0,0,0,0,0,0,0,0,0,0,0],"id":17,"left_children":[1,3,5,7,9,11,13,15,17,19,21,23,25,27,29,-1,-1,-1,-1,-1,-1,-1,-1,-1,-1,-1,-1,-1,-1,-1,-1],"loss_changes":[1.2951687E-1,5.325231E-2,3.713601E-2,3.405861E-2,3.3545464E-2,1.349211E-2,1.3794616E-2,1.5779238E-2,1.6065605E-2,2.0330302E-2,1.1596878E-2,2.2269906E-3,7.5864075E-3,1.4402181E-2,1.0850452E-2,0E0,0E0,0E0,0E0,0E0,0E0,0E0,0E0,0E0,0E0,0E0,0E0,0E0,0E0,0E0,0E0],"parents":[2147483647,0,0,1,1,2,2,3,3,4,4,5,5,6,6,7,7,8,8,9,9,10,10,11,11,12,12,13,13,14,14],"right_children":[2,4,6,8,10,12,14,16,18,20,22,24,26,28,30,-1,-1,-1,-1,-1,-1,-1,-1,-1,-1,-1,-1,-1,-1,-1,-1],"split_conditions":[6.622E-1,8.243E-1,3.3089E0,3E0,4.5906E0,7.59E-1,8.542E-1,2.339E-1,2.0676E0,3.35E-1,9.599E-1,2.3555E0,3E0,7.802E-1,4E0,4.143354E-3,7.875712E-4,1.2170828E-3,-1.4424879E-3,5.0433786E-3,2.2179014E-3,3.1630424E-4,4.101002E-3,-1.1582206E-3,-3.2956444E-3,2.6749691E-3,-6.2580315E-5,-5.000921E-3,-2.5566986E-3,5.776053E-4,-3.4256894E-3],"split_indices":[2,0,6,5,6,0,4,2,6,2,0,6,5,0,5,0,0,0,0,0,0,0,0,0,0,0,0,0,0,0,0],"split_type":[0,0,0,0,0,0,0,0,0,0,0,0,0,0,0,0,0,0,0,0,0,0,0,0,0,0,0,0,0,0,0],"sum_hessian":[6.31E2,4.29E2,2.02E2,2.24E2,2.05E2,6.7E1,1.35E2,7.4E1,1.5E2,1.14E2,9.1E1,2.2E1,4.5E1,1.08E2,2.7E1,1.8E1,5.6E1,2.7E1,1.23E2,4.1E1,7.3E1,8.3E1,8E0,1.3E1,9E0,1.4E1,3.1E1,4.2E1,6.6E1,1.7E1,1E1],"tree_param":{"num_deleted":"0","num_feature":"7","num_nodes":"31","size_leaf_vector":"1"}},{"base_weights":[-9.721166E-5,1.7683866E-2,-1.1131958E-2,3.1449437E-2,4.429393E-3,-5.7713604E-3,-3.850592E-2,-9.862921E-3,3.5260126E-2,-1.7205022E-3,2.3529729E-2,-1.688107E-2,3.827397E-3,-6.0730375E-2,-2.1116693E-2,-1.9804458E-3,2.324933E-3,6.975969E-3,2.997182E-3,-1.089644E-3,1.2205159E-3,3.2557368E-3,1.024207E-3,-2.740948E-3,-2.0762986E-5,1.6378284E-3,-4.691512E-4,-7.6647014E-3,-4.4002454E-3,-3.510635E-3,-1.7702702E-4],"categories":[],"categories_nodes":[],"categories_segments":[],"categories_sizes":[],"default_left":[0,0,0,0,0,0,0,0,0,0,0,0,0,0,0,0,0,0,0,0,0,0,0,0,0,0,0,0,0,0,0],"id":18,"left_children":[1,3,5,7,9,11,13,15,17,19,21,23,25,27,29,-1,-1,-1,-1,-1,-1,-1,-1,-1,-1,-1,-1,-1,-1,-1,-1],"loss_changes":[1.2655589E-1,4.4927187E-2,5.8180604E-2,1.9396618E-2,1.4958547E-2,3.568217E-2,2.3837872E-2,4.0814932E-3,1.8160492E-2,1.2527749E-2,3.3851862E-3,2.7203746E-2,1.9322416E-2,4.082404E-3,1.0222545E-2,0E0,0E0,0E0,0E0,0E0,0E0,0E0,0E0,0E0,0E0,0E0,0E0,0E0,0E0,0E0,0E0],"parents":[2147483647,0,0,1,1,2,2,3,3,4,4,5,5,6,6,7,7,8,8,9,9,10,10,11,11,12,12,13,13,14,14],"right_children":[2,4,6,8,10,12,14,16,18,20,22,24,26,28,30,-1,-1,-1,-1,-1,-1,-1,-1,-1,-1,-1,-1,-1,-1,-1,-1],"split_conditions":[4.182E-1,4.463E0,8.886E-1,6.339E-1,8.918E-1,7.134E-1,7.314E-1,8.279E-1,9.494E-1,8.236E-1,2.729E-1,8.604E-1,3.6628E0,7.802E-1,8.097E-1,-1.9804458E-3,2.324933E-3,6.975969E-3,2.997182E-3,-1.089644E-3,1.2205159E-3,3.2557368E-3,1.024207E-3,-2.740948E-3,-2.0762986E-5,1.6378284E-3,-4.691512E-4,-7.6647014E-3,-4.4002454E-3,-3.510635E-3,-1.7702702E-4],"split_indices":[2,6,2,0,1,3,3,3,6,0,2,1,6,0,0,0,0,0,0,0,0,0,0,0,0,0,0,0,0,0,0],"split_type":[0,0,0,0,0,0,0,0,0,0,0,0,0,0,0,0,0,0,0,0,0,0,0,0,0,0,0,0,0,0,0],"sum_hessian":[6.43E2,2.46E2,3.97E2,1.2E2,1.26E2,3.33E2,6.4E1,1E1,1.1E2,9.6E1,3E1,1.54E2,1.79E2,2.7E1,3.7E1,8E0,2E0,1.3E1,9.7E1,5.8E1,3.8E1,1.7E1,1.3E1,9.4E1,6E1,7.2E1,1.07E2,1.2E1,1.5E1,2.1E1,1.6E1],"tree_param":{"num_deleted":"0","num_feature":"7","num_nodes":"31","size_leaf_vector":"1"}},{"base_weights":[1.3189889E-3,1.1019546E-2,-9.842808E-3,-5.4497283E-4,2.2656145E-2,-2.8146083E-2,-3.8622743E-3,-2.8951125E-2,3.4355216E-3,1.7113693E-3,2.9847456E-2,-4.876446E-2,-1.7472878E-2,-9.642683E-3,1.0879435E-2,-6.3452043E-4,-3.7570482E-3,-7.110529E-4,1.2267742E-3,3.0546838E-3,-5.545036E-4,2.0257253E-3,5.708595E-3,-6.0390024E-3,-2.2678508E-3,-2.5628244E-3,-5.378662E-4,-4.3265964E-3,-6.6241337E-4,6.0521543E-4,3.917066E-3],"categories":[],"categories_nodes":[],"categories_segments":[],"categories_sizes":[],"default_left":[0,0,0,0,0,0,0,0,0,0,0,0,0,0,0,0,0,0,0,0,0,0,0,0,0,0,0,0,0,0,0],"id":19,"left_children":[1,3,5,7,9,11,13,15,17,19,21,23,25,27,29,-1,-1,-1,-1,-1,-1,-1,-1,-1,-1,-1,-1,-1,-1,-1,-1],"loss_changes":[6.821385E-2,4.5362998E-2,3.196406E-2,1.9321455E-2,2.5253154E-2,1.4992565E-2,1.9022217E-2,3.8534254E-3,1.4058985E-2,9.376024E-3,3.149642E-2,5.908776E-3,4.6951585E-3,1.5952364E-2,8.366822E-3,0E0,0E0,0E0,0E0,0E0,0E0,0E0,0E0,0E0,0E0,0E0,0E0,0E0,0E0,0E0,0E0],"parents":[2147483647,0,0,1,1,2,2,3,3,4,4,5,5,6,6,7,7,8,8,9,9,10,10,11,11,12,12,13,13,14,14],"right_children":[2,4,6,8,10,12,14,16,18,20,22,24,26,28,30,-1,-1,-1,-1,-1,-1,-1,-1,-1,-1,-1,-1,-1,-1,-1,-1],"split_conditions":[4.6404E0,8.338E-1,7.197E-1,6.414E-1,6.149E-1,7.741E-1,8.259E-1,3E0,6.925E-1,1.2671E0,8.828E-1,7.392E-1,8.643E-1,6.252E-1,9.253E-1,-6.3452043E-4,-3.7570482E-3,-7.110529E-4,1.2267742E-3,3.0546838E-3,-5.545036E-4,2.0257253E-3,5.708595E-3,-6.0390024E-3,-2.2678508E-3,-2.5628244E-3,-5.378662E-4,-4.3265964E-3,-6.6241337E-4,6.0521543E-4,3.917066E-3],"split_indices":[6,1,1,0,3,0,3,5,3,6,0,3,0,0,0,0,0,0,0,0,0,0,0,0,0,0,0,0,0,0,0],"split_type":[0,0,0,0,0,0,0,0,0,0,0,0,0,0,0,0,0,0,0,0,0,0,0,0,0,0,0,0,0,0,0],"sum_hessian":[6.28E2,3.36E2,2.92E2,1.69E2,1.67E2,7.1E1,2.21E2,2E1,1.49E2,4.3E1,1.24E2,2.3E1,4.8E1,1.59E2,6.2E1,6E0,1.4E1,6.8E1,8.1E1,8E0,3.5E1,9.3E1,3.1E1,1.5E1,8E0,2.8E1,2E1,1.2E1,1.47E2,5.4E1,8E0],"tree_param":{"num_deleted":"0","num_feature":"7","num_nodes":"31","size_leaf_vector":"1"}},{"base_weights":[-1.2582997E-3,2.0725165E-2,-9.291628E-3,-7.048014E-3,2.6099801E-2,1.3066661E-3,-1.8481942E-2,-2.730092E-2,6.370436E-4,2.1584705E-2,5.909173E-2,-3.127977E-2,3.989495E-3,-8.842766E-3,-3.071015E-2,-9.2915696E-5,-3.593665E-3,-3.2346122E-4,1.8868148E-3,8.8485045E-4,2.7352523E-3,7.052404E-3,4.3057205E-4,-4.0913937E-3,2.7317663E-3,7.805557E-4,-1.8658255E-3,-2.973003E-3,-3.5447197E-4,-4.751668E-3,-2.2775037E-3],"categories":[],"categories_nodes":[],"categories_segments":[],"categories_sizes":[],"default_left":[0,0,0,0,0,0,0,0,0,0,0,0,0,0,0,0,0,0,0,0,0,0,0,0,0,0,0,0,0,0,0],"id":20,"left_children":[1,3,5,7,9,11,13,15,17,19,21,23,25,27,29,-1,-1,-1,-1,-1,-1,-1,-1,-1,-1,-1,-1,-1,-1,-1,-1],"loss_changes":[1.1480623E-1,2.6157066E-2,4.6387333E-2,4.5310897E-3,2.0472936E-2,1.953288E-2,2.9785246E-2,1.7885244E-3,1.6138916E-3,9.307783E-3,1.0343965E-2,1.071481E-2,1.7949233E-2,1.5829898E-2,1.3854317E-2,0E0,0E0,0E0,0E0,0E0,0E0,0E0,0E0,0E0,0E0,0E0,0E0,0E0,0E0,0E0,0E0],"parents":[2147483647,0,0,1,1,2,2,3,3,4,4,5,5,6,6,7,7,8,8,9,9,10,10,11,11,12,12,13,13,14,14],"right_children":[2,4,6,8,10,12,14,16,18,20,22,24,26,28,30,-1,-1,-1,-1,-1,-1,-1,-1,-1,-1,-1,-1,-1,-1,-1,-1],"split_conditions":[3.35E-1,5.236E-1,4.1587E0,4.065E-1,9.36E-1,4.782E-1,6.837E-1,1.647E-1,8.975E-1,7.527E-1,9.659E-1,9.261E-1,8.961E-1,6.669E-1,6.354E-1,-9.2915696E-5,-3.593665E-3,-3.2346122E-4,1.8868148E-3,8.8485045E-4,2.7352523E-3,7.052404E-3,4.3057205E-4,-4.0913937E-3,2.7317663E-3,7.805557E-4,-1.8658255E-3,-2.973003E-3,-3.5447197E-4,-4.751668E-3,-2.2775037E-3],"split_indices":[2,3,6,3,1,4,2,2,1,1,1,3,2,1,3,0,0,0,0,0,0,0,0,0,0,0,0,0,0,0,0],"split_type":[0,0,0,0,0,0,0,0,0,0,0,0,0,0,0,0,0,0,0,0,0,0,0,0,0,0,0,0,0,0,0],"sum_hessian":[6.48E2,1.73E2,4.75E2,2.8E1,1.45E2,2.21E2,2.54E2,7E0,2.1E1,1.29E2,1.6E1,1.6E1,2.05E2,1.43E2,1.11E2,2E0,5E0,1.8E1,3E0,4.1E1,8.8E1,1.3E1,3E0,1.4E1,2E0,1.76E2,2.9E1,2.8E1,1.15E2,3.4E1,7.7E1],"tree_param":{"num_deleted":"0","num_feature":"7","num_nodes":"31","size_leaf_vector":"1"}},{"base_weights":[-6.4410816E-4,-1.3772787E-2,5.8462596E-3,-2.9003585E-2,-6.061743E-3,-1.1272269E-3,1.5455253E-2,-6.163376E-2,-2.3363817E-2,7.3865306E-4,-1.926126E-2,-1.0184244E-2,7.1210912E-3,3.155478E-2,7.1468437E-3,-8.016676E-4,-6.6700475E-3,-3.1436123E-3,-5.722248E-4,-2.8035396E-3,4.7921817E-4,-8.262098E-4,-2.948997E-3,-1.6080516E-3,8.23713E-4,1.6494585E-3,-5.752698E-5,4.294154E-3,2.2138194E-3,1.5213119E-3,-4.772855E-4],"categories":[],"categories_nodes":[],"categories_segments":[],"categories_sizes":[],"default_left":[0,0,0,0,0,0,0,0,0,0,0,0,0,0,0,0,0,0,0,0,0,0,0,0,0,0,0,0,0,0,0],"id":21,"left_children":[1,3,5,7,9,11,13,15,17,19,21,23,25,27,29,-1,-1,-1,-1,-1,-1,-1,-1,-1,-1,-1,-1,-1,-1,-1,-1],"loss_changes":[5.538178E-2,2.507494E-2,2.9165987E-2,1.1809915E-2,1.2939947E-2,1.8972928E-2,2.4252828E-2,2.1819063E-3,8.791827E-3,1.1331449E-2,5.269207E-3,1.3275164E-2,9.604348E-3,5.6972615E-3,1.1802615E-2,0E0,0E0,0E0,0E0,0E0,0E0,0E0,0E0,0E0,0E0,0E0,0E0,0E0,0E0,0E0,0E0],"parents":[2147483647,0,0,1,1,2,2,3,3,4,4,5,5,6,6,7,7,8,8,9,9,10,10,11,11,12,12,13,13,14,14],"right_children":[2,4,6,8,10,12,14,16,18,20,22,24,26,28,30,-1,-1,-1,-1,-1,-1,-1,-1,-1,-1,-1,-1,-1,-1,-1,-1],"split_conditions":[6.547E-1,7.61E-1,8.393E-1,5.659E-1,4E0,7.312E-1,2.9866E0,6.618E-1,8.107E-1,5.407E-1,4.7562E0,8.76E-1,4.1587E0,3E0,4E0,-8.016676E-4,-6.6700475E-3,-3.1436123E-3,-5.722248E-4,-2.8035396E-3,4.7921817E-4,-8.262098E-4,-2.948997E-3,-1.6080516E-3,8.23713E-4,1.6494585E-3,-5.752698E-5,4.294154E-3,2.2138194E-3,1.5213119E-3,-4.772855E-4],"split_indices":[3,0,0,0,5,4,6,6,4,4,6,3,6,5,5,0,0,0,0,0,0,0,0,0,0,0,0,0,0,0,0],"split_type":[0,0,0,0,0,0,0,0,0,0,0,0,0,0,0,0,0,0,0,0,0,0,0,0,0,0,0,0,0,0,0],"sum_hessian":[6.48E2,2.14E2,4.34E2,7.1E1,1.43E2,2.52E2,1.82E2,9E0,6.2E1,9.5E1,4.8E1,1.2E2,1.32E2,6.1E1,1.21E2,1E0,8E0,4.2E1,2E1,1.1E1,8.4E1,2.4E1,2.4E1,9.1E1,2.9E1,5.9E1,7.3E1,2.6E1,3.5E1,7.2E1,4.9E1],"tree_param":{"num_deleted":"0","num_feature":"7","num_nodes":"31","size_leaf_vector":"1"}},{"base_weights":[5.2797084E-4,-1.8061396E-2,4.984041E-3,-2.740955E-2,-3.3843948E-3,-3.3382203E-2,7.3518166E-3,-4.552988E-2,-2.2120636E-2,-1.6541287E-2,8.890598E-3,-4.7695335E-2,-2.3840873E-2,2.8102867E-2,3.3568933E-3,-5.228309E-3,-2.5560684E-3,1.6116537E-4,-2.5285499E-3,-5.591537E-4,-3.7741847E-3,2.2194784E-3,5.4162916E-5,-7.551283E-4,-5.095461E-3,-3.2803498E-3,-6.296501E-4,-4.6202214E-4,3.298303E-3,1.5351991E-3,-2.2644005E-4],"categories":[],"categories_nodes":[],"categories_segments":[],"categories_sizes":[],"default_left":[0,0,0,0,0,0,0,0,0,0,0,0,0,0,0,0,0,0,0,0,0,0,0,0,0,0,0,0,0,0,0],"id":22,"left_children":[1,3,5,7,9,11,13,15,17,19,21,23,25,27,29,-1,-1,-1,-1,-1,-1,-1,-1,-1,-1,-1,-1,-1,-1,-1,-1],"loss_changes":[5.2690573E-2,1.6783189E-2,4.6847705E-2,6.1806105E-3,8.060599E-3,2.9598847E-3,4.0028706E-2,8.213073E-4,4.5473184E-3,5.3603454E-3,2.875961E-3,1.0544751E-3,2.9383255E-3,1.2608528E-2,2.7477948E-2,0E0,0E0,0E0,0E0,0E0,0E0,0E0,0E0,0E0,0E0,0E0,0E0,0E0,0E0,0E0,0E0],"parents":[2147483647,0,0,1,1,2,2,3,3,4,4,5,5,6,6,7,7,8,8,9,9,10,10,11,11,12,12,13,13,14,14],"right_children":[2,4,6,8,10,12,14,16,18,20,22,24,26,28,30,-1,-1,-1,-1,-1,-1,-1,-1,-1,-1,-1,-1,-1,-1,-1,-1],"split_conditions":[6.981E-1,8.561E-1,5.822E-1,5.668E-1,6.308E-1,6.589E-1,1.7717E0,6.762E-1,6.235E-1,4E0,6.537E-1,3E0,8.544E-1,5.407E-1,3E0,-5.228309E-3,-2.5560684E-3,1.6116537E-4,-2.5285499E-3,-5.591537E-4,-3.7741847E-3,2.2194784E-3,5.4162916E-5,-7.551283E-4,-5.095461E-3,-3.2803498E-3,-6.296501E-4,-4.6202214E-4,3.298303E-3,1.5351991E-3,-2.2644005E-4],"split_indices":[1,0,0,4,1,4,6,1,4,5,1,5,1,4,5,0,0,0,0,0,0,0,0,0,0,0,0,0,0,0,0],"split_type":[0,0,0,0,0,0,0,0,0,0,0,0,0,0,0,0,0,0,0,0,0,0,0,0,0,0,0,0,0,0,0],"sum_hessian":[6.34E2,1.22E2,5.12E2,7.4E1,4.8E1,2.9E1,4.83E2,1.5E1,5.9E1,2.3E1,2.5E1,1E1,1.9E1,7.7E1,4.06E2,1E1,5E0,7E0,5.2E1,1.6E1,7E0,9E0,1.6E1,1E0,9E0,1.2E1,7E0,1E1,6.7E1,1.29E2,2.77E2],"tree_param":{"num_deleted":"0","num_feature":"7","num_nodes":"31","size_leaf_vector":"1"}},{"base_weights":[1.5291407E-4,-4.9905595E-3,1.3346211E-2,-4.340447E-2,-3.3719365E-3,5.1709734E-2,1.012729E-2,-1.5344346E-2,-4.9864214E-2,6.8266126E-3,-7.893921E-3,1.882871E-2,5.5620847E-3,-5.767927E-3,1.7121568E-2,-2.3231686E-3,-2.3422242E-4,-2.1925287E-3,-5.5021844E-3,-3.5746154E-4,1.6699642E-3,1.8027239E-4,-1.2613529E-3,-7.5471406E-5,2.8997778E-3,4.0872465E-4,-2.2233326E-3,1.3622692E-3,5.389707E-3],"categories":[],"categories_nodes":[],"categories_segments":[],"categories_sizes":[],"default_left":[0,0,0,0,0,0,0,0,0,0,0,0,0,0,0,0,0,0,0,0,0,0,0,0,0,0,0,0,0],"id":23,"left_children":[1,3,5,7,9,11,13,15,17,19,21,23,-1,25,27,-1,-1,-1,-1,-1,-1,-1,-1,-1,-1,-1,-1,-1,-1],"loss_changes":[4.4514496E-2,2.920149E-2,2.2198327E-2,2.6788265E-3,2.0991312E-2,7.5314566E-4,1.9109776E-2,4.5834703E-4,9.5510855E-4,1.44365225E-2,1.44385155E-2,6.1932066E-4,0E0,8.691149E-3,1.4577866E-2,0E0,0E0,0E0,0E0,0E0,0E0,0E0,0E0,0E0,0E0,0E0,0E0,0E0,0E0],"parents":[2147483647,0,0,1,1,2,2,3,3,4,4,5,5,6,6,7,7,8,8,9,9,10,10,11,11,13,13,14,14],"right_children":[2,4,6,8,10,12,14,16,18,20,22,24,-1,26,28,-1,-1,-1,-1,-1,-1,-1,-1,-1,-1,-1,-1,-1,-1],"split_conditions":[8.279E-1,5.659E-1,1.1348E0,4.914E-1,3.0517E0,8.692E-1,6.298E-1,4.812E-1,3E0,7.45E-1,3E0,6.695E-1,5.5620847E-3,4E0,9.452E-1,-2.3231686E-3,-2.3422242E-4,-2.1925287E-3,-5.5021844E-3,-3.5746154E-4,1.6699642E-3,1.8027239E-4,-1.2613529E-3,-7.5471406E-5,2.8997778E-3,4.0872465E-4,-2.2233326E-3,1.3622692E-3,5.389707E-3],"split_indices":[3,0,6,3,6,3,4,0,5,4,5,0,0,5,0,0,0,0,0,0,0,0,0,0,0,0,0,0,0],"split_type":[0,0,0,0,0,0,0,0,0,0,0,0,0,0,0,0,0,0,0,0,0,0,0,0,0,0,0,0,0],"sum_hessian":[6.54E2,4.71E2,1.83E2,1.8E1,4.53E2,1.3E1,1.7E2,4E0,1.4E1,1.39E2,3.14E2,2E0,1.1E1,5.2E1,1.18E2,2E0,2E0,3E0,1.1E1,6.8E1,7.1E1,1.03E2,2.11E2,1E0,1E0,3.3E1,1.9E1,1.09E2,9E0],"tree_param":{"num_deleted":"0","num_feature":"7","num_nodes":"29","size_leaf_vector":"1"}},{"base_weights":[-8.8488765E-4,7.1050925E-3,-1.7555354E-2,-9.511291E-3,1.132288E-2,-3.254014E-2,-1.0621323E-2,-1.916291E-2,2.0201483E-3,2.3090234E-2,6.4256326E-3,-2.358428E-2,-5.018174E-2,-1.7637711E-2,-3.4589193E-5,-2.019514E-4,-2.7671498E-3,1.079962E-3,-7.738277E-4,1.9161775E-3,5.06295E-3,1.4929931E-3,-1.2122457E-4,4.343553E-5,-3.0459156E-3,-1.6316772E-5,-5.267451E-3,-1.0641161E-3,-3.750762E-3,1.6179618E-3,-7.152178E-4],"categories":[],"categories_nodes":[],"categories_segments":[],"categories_sizes":[],"default_left":[0,0,0,0,0,0,0,0,0,0,0,0,0,0,0,0,0,0,0,0,0,0,0,0,0,0,0,0,0,0,0],"id":24,"left_children":[1,3,5,7,9,11,13,15,17,19,21,23,25,27,29,-1,-1,-1,-1,-1,-1,-1,-1,-1,-1,-1,-1,-1,-1,-1,-1],"loss_changes":[8.510423E-2,3.0384144E-2,2.1162719E-2,9.832853E-3,1.9733164E-2,9.086214E-3,1.062152E-2,6.94569E-3,3.5961966E-3,9.956725E-3,1.5932024E-2,7.443862E-3,2.6097856E-3,1.1556661E-2,6.8092705E-3,0E0,0E0,0E0,0E0,0E0,0E0,0E0,0E0,0E0,0E0,0E0,0E0,0E0,0E0,0E0,0E0],"parents":[2147483647,0,0,1,1,2,2,3,3,4,4,5,5,6,6,7,7,8,8,9,9,10,10,11,11,12,12,13,13,14,14],"right_children":[2,4,6,8,10,12,14,16,18,20,22,24,26,28,30,-1,-1,-1,-1,-1,-1,-1,-1,-1,-1,-1,-1,-1,-1,-1,-1],"split_conditions":[6.622E-1,5.655E-1,7.889E-1,8.207E-1,2.603E-1,8.832E-1,7.657E-1,3.226E-1,4E0,9.36E-1,4.1825E0,2.816E0,9.494E-1,9.008E-1,2.9866E0,-2.019514E-4,-2.7671498E-3,1.079962E-3,-7.738277E-4,1.9161775E-3,5.06295E-3,1.4929931E-3,-1.2122457E-4,4.343553E-5,-3.0459156E-3,-1.6316772E-5,-5.267451E-3,-1.0641161E-3,-3.750762E-3,1.6179618E-3,-7.152178E-4],"split_indices":[2,3,1,1,2,2,3,2,5,1,6,6,6,2,6,0,0,0,0,0,0,0,0,0,0,0,0,0,0,0,0],"split_type":[0,0,0,0,0,0,0,0,0,0,0,0,0,0,0,0,0,0,0,0,0,0,0,0,0,0,0,0,0,0,0],"sum_hessian":[6.37E2,4.31E2,2.06E2,8.7E1,3.44E2,6.4E1,1.42E2,4.7E1,4E1,1E2,2.44E2,4.4E1,2E1,8.5E1,5.7E1,1.6E1,3.1E1,2.1E1,1.9E1,8.9E1,1.1E1,1.15E2,1.29E2,1E1,3.4E1,1E0,1.9E1,6.4E1,2.1E1,1.7E1,4E1],"tree_param":{"num_deleted":"0","num_feature":"7","num_nodes":"31","size_leaf_vector":"1"}},{"base_weights":[3.5020613E-4,1.548157E-2,-6.4731995E-3,1.0722434E-2,3.3356316E-2,-2.0595722E-2,-8.8303344E-4,2.0711673E-2,4.5831664E-3,2.4353104E-2,6.3662194E-3,-4.7365487E-2,-1.5447656E-2,3.8157986E-3,-1.5384704E-2,3.8342157E-3,1.4129078E-3,2.2153188E-4,3.60635E-3,3.2292455E-3,1.0704573E-3,-1.752609E-3,-5.6143547E-3,-4.528619E-3,-1.0887793E-3,-6.143259E-4,1.3990239E-3,-3.806327E-3,-1.1546314E-3],"categories":[],"categories_nodes":[],"categories_segments":[],"categories_sizes":[],"default_left":[0,0,0,0,0,0,0,0,0,0,0,0,0,0,0,0,0,0,0,0,0,0,0,0,0,0,0,0,0],"id":25,"left_children":[1,3,5,7,9,11,13,15,17,19,-1,21,23,25,27,-1,-1,-1,-1,-1,-1,-1,-1,-1,-1,-1,-1,-1,-1],"loss_changes":[6.7107804E-2,1.6826145E-2,3.5350174E-2,9.778662E-3,9.9093355E-3,1.6770504E-2,2.200008E-2,6.5375734E-3,7.448712E-3,3.338581E-3,0E0,4.2546615E-3,1.4201375E-2,2.480994E-2,6.437395E-3,0E0,0E0,0E0,0E0,0E0,0E0,0E0,0E0,0E0,0E0,0E0,0E0,0E0,0E0],"parents":[2147483647,0,0,1,1,2,2,3,3,4,4,5,5,6,6,7,7,8,8,9,9,11,11,12,12,13,13,14,14],"right_children":[2,4,6,8,10,12,14,16,18,20,-1,22,24,26,28,-1,-1,-1,-1,-1,-1,-1,-1,-1,-1,-1,-1,-1,-1],"split_conditions":[3.463E-1,9.022E-1,7.523E-1,3E0,8.453E-1,6.762E-1,8.312E-1,1.471E-1,9.5E-1,2.627E-1,6.3662194E-3,4.94E-1,5.675E-1,8.338E-1,6.79E-1,3.8342157E-3,1.4129078E-3,2.2153188E-4,3.60635E-3,3.2292455E-3,1.0704573E-3,-1.752609E-3,-5.6143547E-3,-4.528619E-3,-1.0887793E-3,-6.143259E-4,1.3990239E-3,-3.806327E-3,-1.1546314E-3],"split_indices":[2,0,0,5,4,1,2,2,1,2,0,2,0,1,1,0,0,0,0,0,0,0,0,0,0,0,0,0,0],"split_type":[0,0,0,0,0,0,0,0,0,0,0,0,0,0,0,0,0,0,0,0,0,0,0,0,0,0,0,0,0],"sum_hessian":[6.48E2,2.01E2,4.47E2,1.6E2,4.1E1,1.26E2,3.21E2,6E1,1E2,3.3E1,8E0,1.9E1,1.07E2,2.43E2,7.8E1,1.5E1,4.5E1,9.4E1,6E0,2E1,1.3E1,5E0,1.4E1,1.3E1,9.4E1,1.23E2,1.2E2,1E1,6.8E1],"tree_param":{"num_deleted":"0","num_feature":"7","num_nodes":"29","size_leaf_vector":"1"}},{"base_weights":[-6.937113E-5,1.4450464E-2,-6.198355E-3,2.2909237E-2,5.0792415E-3,3.4524023E-4,-1.5851174E-2,1.8770797E-2,5.7450432E-2,-9.219838E-3,1.1685598E-2,-2.0541688E-2,2.8010753E-3,-3.7260763E-2,-1.1290445E-2,1.7112516E-3,4.973115E-3,6.2580258E-3,5.641013E-4,-3.5689378E-3,-4.792993E-4,2.1178355E-3,3.2451397E-4,-2.437177E-3,1.94996E-3,-2.8974444E-4,1.2038216E-3,-2.5984063E-3,-5.087589E-3,-2.074235E-3,-2.8789006E-4],"categories":[],"categories_nodes":[],"categories_segments":[],"categories_sizes":[],"default_left":[0,0,0,0,0,0,0,0,0,0,0,0,0,0,0,0,0,0,0,0,0,0,0,0,0,0,0,0,0,0,0],"id":26,"left_children":[1,3,5,7,9,11,13,15,17,19,21,23,25,27,29,-1,-1,-1,-1,-1,-1,-1,-1,-1,-1,-1,-1,-1,-1,-1,-1],"loss_changes":[5.6065436E-2,1.4706951E-2,2.7987182E-2,1.2930386E-2,8.609572E-3,1.3650675E-2,1.7057464E-2,3.7183203E-3,2.304718E-3,3.2270611E-3,4.8989113E-3,4.7693606E-3,1.2562731E-2,3.4375824E-3,1.1786545E-2,0E0,0E0,0E0,0E0,0E0,0E0,0E0,0E0,0E0,0E0,0E0,0E0,0E0,0E0,0E0,0E0],"parents":[2147483647,0,0,1,1,2,2,3,3,4,4,5,5,6,6,7,7,8,8,9,9,10,10,11,11,12,12,13,13,14,14],"right_children":[2,4,6,8,10,12,14,16,18,20,22,24,26,28,30,-1,-1,-1,-1,-1,-1,-1,-1,-1,-1,-1,-1,-1,-1,-1,-1],"split_conditions":[3.463E-1,4.6216E0,5.0534E0,9.381E-1,6.448E-1,4.782E-1,5.46E-1,9.48E-1,3.35E-1,3.666E-1,2.148E-1,9.276E-1,8.716E-1,6.715E-1,7.312E-1,1.7112516E-3,4.973115E-3,6.2580258E-3,5.641013E-4,-3.5689378E-3,-4.792993E-4,2.1178355E-3,3.2451397E-4,-2.437177E-3,1.94996E-3,-2.8974444E-4,1.2038216E-3,-2.5984063E-3,-5.087589E-3,-2.074235E-3,-2.8789006E-4],"split_indices":[2,6,6,1,4,4,3,4,2,3,2,3,1,2,4,0,0,0,0,0,0,0,0,0,0,0,0,0,0,0,0],"split_type":[0,0,0,0,0,0,0,0,0,0,0,0,0,0,0,0,0,0,0,0,0,0,0,0,0,0,0,0,0,0,0],"sum_hessian":[6.28E2,1.86E2,4.42E2,9.7E1,8.9E1,2.64E2,1.78E2,8.8E1,9E0,2.8E1,6.1E1,2.7E1,2.37E2,3E1,1.48E2,8.5E1,3E0,8E0,1E0,3E0,2.5E1,2.8E1,3.3E1,2.5E1,2E0,1.47E2,9E1,1.8E1,1.2E1,6.9E1,7.9E1],"tree_param":{"num_deleted":"0","num_feature":"7","num_nodes":"31","size_leaf_vector":"1"}},{"base_weights":[2.7059417E-4,5.6871427E-3,-1.1758656E-2,1.4785483E-2,-5.9122127E-4,-3.5640344E-2,-8.9691235E-3,2.8164538E-3,2.5614947E-2,-9.575726E-3,5.684699E-3,-2.5249466E-2,-4.454536E-3,1.0138406E-2,-1.2177568E-2,1.4447904E-3,-4.6365862E-4,1.1914414E-3,3.1869523E-3,-1.5543487E-3,-1.4192189E-4,-1.4380529E-3,9.1838225E-4,-6.604952E-4,-3.3746106E-3,1.2704198E-3,-1.4622658E-3,-7.338198E-4,-2.1901317E-3],"categories":[],"categories_nodes":[],"categories_segments":[],"categories_sizes":[],"default_left":[0,0,0,0,0,0,0,0,0,0,0,0,0,0,0,0,0,0,0,0,0,0,0,0,0,0,0,0,0],"id":27,"left_children":[1,3,5,7,9,11,13,15,17,19,21,23,-1,25,27,-1,-1,-1,-1,-1,-1,-1,-1,-1,-1,-1,-1,-1,-1],"loss_changes":[4.2809878E-2,2.5885317E-2,1.32705625E-2,2.3907218E-2,1.5222278E-2,8.1840344E-4,1.1403663E-2,7.782369E-3,7.932328E-3,5.3809853E-3,1.129557E-2,1.6780975E-3,0E0,1.9011262E-3,7.274259E-3,0E0,0E0,0E0,0E0,0E0,0E0,0E0,0E0,0E0,0E0,0E0,0E0,0E0,0E0],"parents":[2147483647,0,0,1,1,2,2,3,3,4,4,5,5,6,6,7,7,8,8,9,9,10,10,11,11,13,13,14,14],"right_children":[2,4,6,8,10,12,14,16,18,20,22,24,-1,26,28,-1,-1,-1,-1,-1,-1,-1,-1,-1,-1,-1,-1,-1,-1],"split_conditions":[6.594E-1,3.8643E0,6.355E-1,8.266E-1,6.993E-1,8.631E-1,1.7717E0,3E0,6.827E-1,5.9347E0,6.752E-1,3E0,-4.454536E-3,9.943E-1,4E0,1.4447904E-3,-4.6365862E-4,1.1914414E-3,3.1869523E-3,-1.5543487E-3,-1.4192189E-4,-1.4380529E-3,9.1838225E-4,-6.604952E-4,-3.3746106E-3,1.2704198E-3,-1.4622658E-3,-7.338198E-4,-2.1901317E-3],"split_indices":[2,6,1,1,4,2,6,5,4,6,1,5,0,2,5,0,0,0,0,0,0,0,0,0,0,0,0,0,0],"split_type":[0,0,0,0,0,0,0,0,0,0,0,0,0,0,0,0,0,0,0,0,0,0,0,0,0,0,0,0,0],"sum_hessian":[6.55E2,4.52E2,2.03E2,1.84E2,2.68E2,2E1,1.83E2,8.8E1,9.6E1,1.1E2,1.58E2,1.1E1,9E0,2.6E1,1.57E2,3.4E1,5.4E1,3.1E1,6.5E1,6.3E1,4.7E1,2.3E1,1.35E2,4E0,7E0,2.4E1,2E0,1.06E2,5.1E1],"tree_param":{"num_deleted":"0","num_feature":"7","num_nodes":"29","size_leaf_vector":"1"}},{"base_weights":[-6.9654436E-4,4.5712255E-3,-1.2431846E-2,-6.2559266E-3,1.0864129E-2,-2.9057268E-2,-9.031417E-3,-1.6225962E-2,1.3156694E-3,1.682829E-2,7.2382134E-4,-1.7850304E-2,-3.637554E-2,-2.7269252E-2,-6.182363E-3,-1.5467522E-4,-2.292171E-3,3.0391922E-3,-6.817532E-5,7.8438286E-4,2.542177E-3,-4.7782782E-4,8.335281E-4,-5.014797E-4,-3.1803052E-3,1.1737645E-4,-3.8526827E-3,-2.9722904E-3,1.212871E-3,8.68948E-4,-8.5123983E-4],"categories":[],"categories_nodes":[],"categories_segments":[],"categories_sizes":[],"default_left":[0,0,0,0,0,0,0,0,0,0,0,0,0,0,0,0,0,0,0,0,0,0,0,0,0,0,0,0,0,0,0],"id":28,"left_children":[1,3,5,7,9,11,13,15,17,19,21,23,25,27,29,-1,-1,-1,-1,-1,-1,-1,-1,-1,-1,-1,-1,-1,-1,-1,-1],"loss_changes":[3.9311808E-2,2.997889E-2,1.0874683E-2,1.2250578E-2,1.680082E-2,2.0572022E-3,8.404907E-3,6.8447255E-3,5.421933E-3,1.331196E-2,4.3952456E-3,2.5268733E-3,1.580026E-3,2.4872161E-3,5.063846E-3,0E0,0E0,0E0,0E0,0E0,0E0,0E0,0E0,0E0,0E0,0E0,0E0,0E0,0E0,0E0,0E0],"parents":[2147483647,0,0,1,1,2,2,3,3,4,4,5,5,6,6,7,7,8,8,9,9,10,10,11,11,12,12,13,13,14,14],"right_children":[2,4,6,8,10,12,14,16,18,20,22,24,26,28,30,-1,-1,-1,-1,-1,-1,-1,-1,-1,-1,-1,-1,-1,-1,-1,-1],"split_conditions":[6.594E-1,6.707E-1,5.795E-1,7.994E-1,5.2615E0,8.1E-1,6.752E-1,2.979E-1,9.078E-1,8.266E-1,7.565E-1,8.504E-1,5.601E-1,9.047E-1,1.9503E0,-1.5467522E-4,-2.292171E-3,3.0391922E-3,-6.817532E-5,7.8438286E-4,2.542177E-3,-4.7782782E-4,8.335281E-4,-5.014797E-4,-3.1803052E-3,1.1737645E-4,-3.8526827E-3,-2.9722904E-3,1.212871E-3,8.68948E-4,-8.5123983E-4],"split_indices":[2,3,3,1,6,2,1,2,6,1,4,1,6,4,6,0,0,0,0,0,0,0,0,0,0,0,0,0,0,0,0],"split_type":[0,0,0,0,0,0,0,0,0,0,0,0,0,0,0,0,0,0,0,0,0,0,0,0,0,0,0,0,0,0,0],"sum_hessian":[6.34E2,4.38E2,1.96E2,1.61E2,2.77E2,3.2E1,1.64E2,6.9E1,9.2E1,1.74E2,1.03E2,1.4E1,1.8E1,2.1E1,1.43E2,2.2E1,4.7E1,5E0,8.7E1,8.6E1,8.8E1,6E1,4.3E1,8E0,6E0,1E0,1.7E1,2E1,1E0,1.9E1,1.24E2],"tree_param":{"num_deleted":"0","num_feature":"7","num_nodes":"31","size_leaf_vector":"1"}},{"base_weights":[-1.8769549E-4,9.62118E-3,-4.556677E-3,5.5427123E-3,3.1150354E-2,-1.5959365E-2,-8.194473E-5,-2.638858E-3,1.183752E-2,3.6984112E-2,9.755284E-3,-4.1649286E-2,-1.231111E-2,-5.9540956E-3,7.4806237E-3,-3.142506E-3,-5.146572E-5,2.4881838E-3,6.750712E-4,2.5274737E-3,5.0849766E-3,1.9117227E-3,-1.2220363E-3,-4.360196E-3,-7.155925E-4,-1.9951116E-3,-8.321895E-5,-9.826995E-4,9.7028905E-4,1.6462579E-3,1.5807619E-4],"categories":[],"categories_nodes":[],"categories_segments":[],"categories_sizes":[],"default_left":[0,0,0,0,0,0,0,0,0,0,0,0,0,0,0,0,0,0,0,0,0,0,0,0,0,0,0,0,0,0,0],"id":29,"left_children":[1,3,5,7,9,11,13,15,17,19,21,23,25,27,29,-1,-1,-1,-1,-1,-1,-1,-1,-1,-1,-1,-1,-1,-1,-1,-1],"loss_changes":[2.7256634E-2,1.7037325E-2,2.2449244E-2,8.580472E-3,3.5084318E-3,1.11089535E-2,1.4122048E-2,4.4476073E-3,6.0693007E-3,2.61138E-3,1.8794972E-3,6.9830194E-4,9.630285E-3,1.0949537E-2,7.3399064E-3,0E0,0E0,0E0,0E0,0E0,0E0,0E0,0E0,0E0,0E0,0E0,0E0,0E0,0E0,0E0,0E0],"parents":[2147483647,0,0,1,1,2,2,3,3,4,4,5,5,6,6,7,7,8,8,9,9,10,10,11,11,12,12,13,13,14,14],"right_children":[2,4,6,8,10,12,14,16,18,20,22,24,26,28,30,-1,-1,-1,-1,-1,-1,-1,-1,-1,-1,-1,-1,-1,-1,-1,-1],"split_conditions":[3.463E-1,9.161E-1,7.523E-1,6.778E-1,8.795E-1,5.659E-1,7.615E-1,4.974E-1,1.537E-1,7.118E-1,9.536E-1,9.423E-1,7.784E-1,8.494E-1,3.6628E0,-3.142506E-3,-5.146572E-5,2.4881838E-3,6.750712E-4,2.5274737E-3,5.0849766E-3,1.9117227E-3,-1.2220363E-3,-4.360196E-3,-7.155925E-4,-1.9951116E-3,-8.321895E-5,-9.826995E-4,9.7028905E-4,1.6462579E-3,1.5807619E-4],"split_indices":[2,0,0,3,3,0,3,4,2,3,0,4,4,4,6,0,0,0,0,0,0,0,0,0,0,0,0,0,0,0,0],"split_type":[0,0,0,0,0,0,0,0,0,0,0,0,0,0,0,0,0,0,0,0,0,0,0,0,0,0,0,0,0,0,0],"sum_hessian":[6.34E2,1.95E2,4.39E2,1.65E2,3E1,1.23E2,3.16E2,7.2E1,9.3E1,2.3E1,7E0,1.4E1,1.09E2,1.78E2,1.38E2,4E0,6.8E1,2.5E1,6.8E1,1.4E1,9E0,5E0,2E0,1.3E1,1E0,6.5E1,4.4E1,1.43E2,3.5E1,5.4E1,8.4E1],"tree_param":{"num_deleted":"0","num_feature":"7","num_nodes":"31","size_leaf_vector":"1"}},{"base_weights":[-1.74581E-4,5.0109006E-3,-1.0332617E-2,-5.9406116E-4,1.3454384E-2,-1.524861E-2,2.1603892E-3,-1.22717535E-2,2.4551633E-3,2.2284104E-2,7.026718E-3,-7.814439E-3,-2.2583863E-2,-6.531423E-3,1.4780715E-2,-3.0985875E-3,-9.2869496E-4,-5.655275E-4,7.3025405E-4,2.3968234E-3,-2.4440268E-3,-1.552623E-3,9.401748E-4,-1.1190368E-3,1.5943903E-4,-1.4935972E-3,-3.6759952E-3,8.39368E-4,-1.4628223E-3,4.0204003E-3,3.2982402E-4],"categories":[],"categories_nodes":[],"categories_segments":[],"categories_sizes":[],"default_left":[0,0,0,0,0,0,0,0,0,0,0,0,0,0,0,0,0,0,0,0,0,0,0,0,0,0,0,0,0,0,0],"id":30,"left_children":[1,3,5,7,9,11,13,15,17,19,21,23,25,27,29,-1,-1,-1,-1,-1,-1,-1,-1,-1,-1,-1,-1,-1,-1,-1,-1],"loss_changes":[3.4290075E-2,2.0405238E-2,1.3544355E-2,9.288184E-3,9.605192E-3,8.439504E-3,7.00723E-3,2.7285665E-3,8.179368E-3,6.251458E-3,5.5559305E-3,2.5589247E-3,8.015912E-3,4.7149165E-3,7.4573765E-3,0E0,0E0,0E0,0E0,0E0,0E0,0E0,0E0,0E0,0E0,0E0,0E0,0E0,0E0,0E0,0E0],"parents":[2147483647,0,0,1,1,2,2,3,3,4,4,5,5,6,6,7,7,8,8,9,9,10,10,11,11,12,12,13,13,14,14],"right_children":[2,4,6,8,10,12,14,16,18,20,22,24,26,28,30,-1,-1,-1,-1,-1,-1,-1,-1,-1,-1,-1,-1,-1,-1,-1,-1],"split_conditions":[6.594E-1,8.441E-1,8.884E-1,5.655E-1,3.6628E0,4.7111E0,7.314E-1,4.782E-1,6.913E-1,9.725E-1,4.327E-1,3.808E0,8.973E-1,7.351E-1,2.9866E0,-3.0985875E-3,-9.2869496E-4,-5.655275E-4,7.3025405E-4,2.3968234E-3,-2.4440268E-3,-1.552623E-3,9.401748E-4,-1.1190368E-3,1.5943903E-4,-1.4935972E-3,-3.6759952E-3,8.39368E-4,-1.4628223E-3,4.0204003E-3,3.2982402E-4],"split_indices":[2,0,0,3,6,6,3,4,4,0,3,6,2,2,6,0,0,0,0,0,0,0,0,0,0,0,0,0,0,0,0],"split_type":[0,0,0,0,0,0,0,0,0,0,0,0,0,0,0,0,0,0,0,0,0,0,0,0,0,0,0,0,0,0,0],"sum_hessian":[6.49E2,4.3E2,2.19E2,2.59E2,1.71E2,1.57E2,6.2E1,5.3E1,2.06E2,7.1E1,1E2,7.9E1,7.8E1,3.7E1,2.5E1,6E0,4.7E1,7.7E1,1.29E2,6.9E1,2E0,9E0,9.1E1,5.8E1,2.1E1,5.2E1,2.6E1,1.3E1,2.4E1,7E0,1.8E1],"tree_param":{"num_deleted":"0","num_feature":"7","num_nodes":"31","size_leaf_vector":"1"}},{"base_weights":[-5.6129666E-5,-5.3638727E-3,7.4650124E-3,2.619167E-3,-1.1390451E-2,1.1878395E-2,-1.5427736E-3,-3.7857108E-3,9.72056E-3,-1.8407414E-2,-4.522395E-3,2.8415361E-2,8.687159E-3,-2.5761377E-2,8.1013737E-4,-1.4744977E-3,7.972514E-5,-3.5905212E-3,1.1371947E-3,-2.1942523E-3,-2.717082E-4,1.5835958E-3,-7.123757E-4,-1.491487E-4,3.192352E-3,4.967529E-4,2.1191973E-3,9.692311E-5,-3.483312E-3,-3.5600252E-3,2.62053E-4],"categories":[],"categories_nodes":[],"categories_segments":[],"categories_sizes":[],"default_left":[0,0,0,0,0,0,0,0,0,0,0,0,0,0,0,0,0,0,0,0,0,0,0,0,0,0,0,0,0,0,0],"id":31,"left_children":[1,3,5,7,9,11,13,15,17,19,21,23,25,27,29,-1,-1,-1,-1,-1,-1,-1,-1,-1,-1,-1,-1,-1,-1,-1,-1],"loss_changes":[2.6147911E-2,1.8504232E-2,1.079188E-2,7.58707E-3,1.0470994E-2,9.357901E-3,5.1494497E-3,4.431635E-3,6.360629E-3,5.9308223E-3,6.044268E-3,3.0902326E-3,7.057772E-3,1.9737063E-3,5.564411E-3,0E0,0E0,0E0,0E0,0E0,0E0,0E0,0E0,0E0,0E0,0E0,0E0,0E0,0E0,0E0,0E0],"parents":[2147483647,0,0,1,1,2,2,3,3,4,4,5,5,6,6,7,7,8,8,9,9,10,10,11,11,12,12,13,13,14,14],"right_children":[2,4,6,8,10,12,14,16,18,20,22,24,26,28,30,-1,-1,-1,-1,-1,-1,-1,-1,-1,-1,-1,-1,-1,-1,-1,-1],"split_conditions":[8.438E-1,4.281E-1,6.837E-1,7.416E-1,7.24E-1,1.8417E0,7.047E-1,7.079E-1,4.812E-1,8.667E-1,1.7126E0,3.987E-1,9.452E-1,5.076E-1,4.316E-1,-1.4744977E-3,7.972514E-5,-3.5905212E-3,1.1371947E-3,-2.1942523E-3,-2.717082E-4,1.5835958E-3,-7.123757E-4,-1.491487E-4,3.192352E-3,4.967529E-4,2.1191973E-3,9.692311E-5,-3.483312E-3,-3.5600252E-3,2.62053E-4],"split_indices":[0,2,2,3,4,6,2,0,0,3,6,4,0,3,3,0,0,0,0,0,0,0,0,0,0,0,0,0,0,0,0],"split_type":[0,0,0,0,0,0,0,0,0,0,0,0,0,0,0,0,0,0,0,0,0,0,0,0,0,0,0,0,0,0,0],"sum_hessian":[6.53E2,3.83E2,2.7E2,1.65E2,2.18E2,1.81E2,8.9E1,8.7E1,7.8E1,1.07E2,1.11E2,2.8E1,1.53E2,7E0,8.2E1,2.5E1,6.2E1,2E0,7.6E1,8.7E1,2E1,1.2E1,9.9E1,3E0,2.5E1,1.19E2,3.4E1,2E0,5E0,3E0,7.9E1],"tree_param":{"num_deleted":"0","num_feature":"7","num_nodes":"31","size_leaf_vector":"1"}},{"base_weights":[-5.6934415E-4,1.8136028E-3,-1.9457087E-2,1.0153719E-2,-2.5299448E-3,-2.4903307E-2,-6.9243414E-4,5.302333E-3,1.8055968E-2,2.3861649E-2,-4.3427846E-3,-9.332536E-3,-3.2226045E-2,-1.1484453E-2,1.2884144E-2,2.7747795E-3,3.8899804E-4,2.1531263E-3,-1.4043922E-4,-6.549597E-4,3.2209326E-3,-1.032607E-3,1.2347545E-4,-1.9712786E-3,8.8079406E-7,-3.4511317E-3,-4.7447087E-4,3.954315E-4,-2.2436017E-3,2.1500762E-3,-2.3716092E-3],"categories":[],"categories_nodes":[],"categories_segments":[],"categories_sizes":[],"default_left":[0,0,0,0,0,0,0,0,0,0,0,0,0,0,0,0,0,0,0,0,0,0,0,0,0,0,0,0,0,0,0],"id":32,"left_children":[1,3,5,7,9,11,13,15,17,19,21,23,25,27,29,-1,-1,-1,-1,-1,-1,-1,-1,-1,-1,-1,-1,-1,-1,-1,-1],"loss_changes":[2.8525662E-2,2.0420752E-2,7.238699E-3,7.303275E-3,1.7853651E-2,5.9703924E-3,2.6387852E-3,3.727871E-3,4.9672667E-3,6.3036745E-3,1.1626208E-2,1.8425176E-3,2.1599382E-3,1.7795058E-3,3.0328762E-3,0E0,0E0,0E0,0E0,0E0,0E0,0E0,0E0,0E0,0E0,0E0,0E0,0E0,0E0,0E0,0E0],"parents":[2147483647,0,0,1,1,2,2,3,3,4,4,5,5,6,6,7,7,8,8,9,9,10,10,11,11,12,12,13,13,14,14],"right_children":[2,4,6,8,10,12,14,16,18,20,22,24,26,28,30,-1,-1,-1,-1,-1,-1,-1,-1,-1,-1,-1,-1,-1,-1,-1,-1],"split_conditions":[9.008E-1,3E0,8.259E-1,7.657E-1,9.865E-1,2.8771E0,8.097E-1,1.177E-1,6.6394E0,7.546E-1,8.068E-1,8.225E-1,9.298E-1,8.88E-1,9.356E-1,2.7747795E-3,3.8899804E-4,2.1531263E-3,-1.4043922E-4,-6.549597E-4,3.2209326E-3,-1.032607E-3,1.2347545E-4,-1.9712786E-3,8.8079406E-7,-3.4511317E-3,-4.7447087E-4,3.954315E-4,-2.2436017E-3,2.1500762E-3,-2.3716092E-3],"split_indices":[2,5,3,3,6,6,0,2,6,0,0,0,0,3,0,0,0,0,0,0,0,0,0,0,0,0,0,0,0,0,0],"split_type":[0,0,0,0,0,0,0,0,0,0,0,0,0,0,0,0,0,0,0,0,0,0,0,0,0,0,0,0,0,0,0],"sum_hessian":[6.32E2,5.62E2,7E1,1.92E2,3.7E2,5.4E1,1.6E1,1.2E2,7.2E1,2.3E1,3.47E2,1.8E1,3.6E1,9E0,7E0,6E0,1.14E2,6.1E1,1.1E1,5E0,1.8E1,1.67E2,1.8E2,8E0,1E1,3.3E1,3E0,4E0,5E0,6E0,1E0],"tree_param":{"num_deleted":"0","num_feature":"7","num_nodes":"31","size_leaf_vector":"1"}},{"base_weights":[2.59537E-4,4.757615E-3,-7.939382E-3,2.6401047E-2,3.2074277E-3,2.6936193E-3,-1.2391761E-2,-1.7088115E-3,3.0403603E-2,-1.0570391E-2,5.286842E-3,-6.9285114E-4,2.8602064E-2,-3.8332917E-2,-1.0076351E-2,8.239662E-4,3.405888E-3,-2.381711E-3,-8.3247945E-4,2.1700228E-4,1.4721777E-3,-8.2457595E-4,1.0815285E-3,3.2191097E-3,1.7394125E-4,-1.5579063E-3,-4.6714735E-3,1.8583334E-3,-1.202368E-3],"categories":[],"categories_nodes":[],"categories_segments":[],"categories_sizes":[],"default_left":[0,0,0,0,0,0,0,0,0,0,0,0,0,0,0,0,0,0,0,0,0,0,0,0,0,0,0,0,0],"id":33,"left_children":[1,3,5,7,9,11,13,-1,15,17,19,21,23,25,27,-1,-1,-1,-1,-1,-1,-1,-1,-1,-1,-1,-1,-1,-1],"loss_changes":[2.4046248E-2,1.4040446E-2,1.0969417E-2,5.39344E-3,1.1343902E-2,6.073752E-3,9.40424E-3,0E0,1.8257629E-3,1.3485602E-3,1.0054649E-2,5.4782135E-3,7.152939E-4,1.7515682E-3,8.650719E-3,0E0,0E0,0E0,0E0,0E0,0E0,0E0,0E0,0E0,0E0,0E0,0E0,0E0,0E0],"parents":[2147483647,0,0,1,1,2,2,3,3,4,4,5,5,6,6,8,8,9,9,10,10,11,11,12,12,13,13,14,14],"right_children":[2,4,6,8,10,12,14,-1,16,18,20,22,24,26,28,-1,-1,-1,-1,-1,-1,-1,-1,-1,-1,-1,-1,-1,-1],"split_conditions":[4E0,1.471E-1,3.404E-1,5.706E-1,6.838E-1,9.192E-1,5.999E-1,-1.7088115E-3,5.203E-1,5.42E-1,8.336E-1,8.323E-1,3.331E-1,4.3493E0,9.865E-1,8.239662E-4,3.405888E-3,-2.381711E-3,-8.3247945E-4,2.1700228E-4,1.4721777E-3,-8.2457595E-4,1.0815285E-3,3.2191097E-3,1.7394125E-4,-1.5579063E-3,-4.6714735E-3,1.8583334E-3,-1.202368E-3],"split_indices":[5,2,2,0,0,3,0,0,3,0,3,0,2,6,6,0,0,0,0,0,0,0,0,0,0,0,0,0,0],"split_type":[0,0,0,0,0,0,0,0,0,0,0,0,0,0,0,0,0,0,0,0,0,0,0,0,0,0,0,0,0],"sum_hessian":[6.5E2,4.2E2,2.3E2,2.7E1,3.93E2,6.8E1,1.62E2,2E0,2.5E1,5.1E1,3.42E2,6.1E1,7E0,1.2E1,1.5E2,4E0,2.1E1,6E0,4.5E1,2.58E2,8.4E1,3.7E1,2.4E1,6E0,1E0,4E0,8E0,9E0,1.41E2],"tree_param":{"num_deleted":"0","num_feature":"7","num_nodes":"29","size_leaf_vector":"1"}},{"base_weights":[-5.358367E-4,2.9093449E-3,-1.2269518E-2,1.0085994E-2,-8.535466E-4,-7.2871707E-3,-2.0289956E-2,9.092074E-3,4.1066958E-3,-6.0752304E-3,5.5899923E-3,-1.973314E-2,-2.5343886E-3,-1.2390242E-2,-2.9274005E-2,1.8805662E-3,6.257498E-4,-1.2797442E-3,-1.1517709E-4,2.749235E-3,2.8722238E-4,8.8596495E-4,-2.129366E-3,2.0200917E-3,-5.1018107E-4,-1.641039E-3,1.2189858E-4,-3.936415E-3,-2.9119253E-4],"categories":[],"categories_nodes":[],"categories_segments":[],"categories_sizes":[],"default_left":[0,0,0,0,0,0,0,0,0,0,0,0,0,0,0,0,0,0,0,0,0,0,0,0,0,0,0,0,0],"id":34,"left_children":[1,3,5,7,9,11,13,15,-1,17,19,21,23,25,27,-1,-1,-1,-1,-1,-1,-1,-1,-1,-1,-1,-1,-1,-1],"loss_changes":[2.582663E-2,1.3349055E-2,5.646432E-3,4.8613604E-3,1.0968951E-2,5.3329105E-3,3.5407152E-3,4.4529503E-3,0E0,5.9426366E-3,8.611765E-3,1.3041422E-3,4.0139267E-3,1.7160489E-3,6.5353066E-3,0E0,0E0,0E0,0E0,0E0,0E0,0E0,0E0,0E0,0E0,0E0,0E0,0E0,0E0],"parents":[2147483647,0,0,1,1,2,2,3,3,4,4,5,5,6,6,7,7,9,9,10,10,11,11,12,12,13,13,14,14],"right_children":[2,4,6,8,10,12,14,16,-1,18,20,22,24,26,28,-1,-1,-1,-1,-1,-1,-1,-1,-1,-1,-1,-1,-1,-1],"split_conditions":[7.437E-1,3E0,9.1E-1,9.687E-1,8.255E-1,6.354E-1,4.7111E0,2.339E-1,4.1066958E-3,6.807E-1,1.5269E0,3.439E-1,1.9503E0,3.9737E0,8.259E-1,1.8805662E-3,6.257498E-4,-1.2797442E-3,-1.1517709E-4,2.749235E-3,2.8722238E-4,8.8596495E-4,-2.129366E-3,2.0200917E-3,-5.1018107E-4,-1.641039E-3,1.2189858E-4,-3.936415E-3,-2.9119253E-4],"split_indices":[2,5,2,0,0,3,6,2,0,3,6,3,6,6,3,0,0,0,0,0,0,0,0,0,0,0,0,0,0],"split_type":[0,0,0,0,0,0,0,0,0,0,0,0,0,0,0,0,0,0,0,0,0,0,0,0,0,0,0,0,0],"sum_hessian":[6.37E2,4.93E2,1.44E2,1.69E2,3.24E2,9E1,5.4E1,1.65E2,4E0,1.79E2,1.45E2,2.4E1,6.6E1,3E1,2.4E1,3.6E1,1.29E2,7.5E1,1.04E2,1.5E1,1.3E2,1E0,2.3E1,6E0,6E1,2.3E1,7E0,1.7E1,7E0],"tree_param":{"num_deleted":"0","num_feature":"7","num_nodes":"29","size_leaf_vector":"1"}},{"base_weights":[-2.2395512E-4,-1.7661614E-2,1.846777E-3,-3.8660742E-2,-1.1825676E-2,-4.6215076E-3,6.836054E-3,-2.1631855E-3,-4.7609795E-2,-1.3973971E-2,1.3311386E-2,3.741258E-3,-9.044842E-3,-4.2200736E-3,1.0169123E-2,-5.040996E-3,-1.2604252E-3,-7.2882086E-4,-1.968311E-3,1.1727214E-4,1.6052872E-3,-1.0702495E-3,6.9652917E-4,-1.2412181E-3,2.2934943E-4,-1.412196E-3,2.469102E-4,-1.6715743E-4,1.328111E-3],"categories":[],"categories_nodes":[],"categories_segments":[],"categories_sizes":[],"default_left":[0,0,0,0,0,0,0,0,0,0,0,0,0,0,0,0,0,0,0,0,0,0,0,0,0,0,0,0,0],"id":35,"left_children":[1,3,5,7,9,11,13,-1,15,17,19,21,23,25,27,-1,-1,-1,-1,-1,-1,-1,-1,-1,-1,-1,-1,-1,-1],"loss_changes":[2.4153246E-2,8.243835E-3,1.9330287E-2,1.2559965E-3,3.264117E-3,9.688571E-3,1.2498496E-2,0E0,2.4681166E-4,1.8795524E-3,1.4756428E-4,4.3121567E-3,6.5572495E-3,5.267469E-3,9.602703E-3,0E0,0E0,0E0,0E0,0E0,0E0,0E0,0E0,0E0,0E0,0E0,0E0,0E0,0E0],"parents":[2147483647,0,0,1,1,2,2,3,3,4,4,5,5,6,6,8,8,9,9,10,10,11,11,12,12,13,13,14,14],"right_children":[2,4,6,8,10,12,14,-1,16,18,20,22,24,26,28,-1,-1,-1,-1,-1,-1,-1,-1,-1,-1,-1,-1,-1,-1],"split_conditions":[6.4E-1,5.007E-1,7.109E-1,4.967E-1,9.047E-1,4.254E-1,7.139E-1,-2.1631855E-3,8.704E-1,5.329E-1,7.449E-1,5.236E-1,9.113E-1,7.542E-1,5.863E-1,-5.040996E-3,-1.2604252E-3,-7.2882086E-4,-1.968311E-3,1.1727214E-4,1.6052872E-3,-1.0702495E-3,6.9652917E-4,-1.2412181E-3,2.2934943E-4,-1.412196E-3,2.469102E-4,-1.6715743E-4,1.328111E-3],"split_indices":[1,1,4,2,4,2,0,0,0,2,0,4,0,3,3,0,0,0,0,0,0,0,0,0,0,0,0,0,0],"split_type":[0,0,0,0,0,0,0,0,0,0,0,0,0,0,0,0,0,0,0,0,0,0,0,0,0,0,0,0,0],"sum_hessian":[6.67E2,7E1,5.97E2,1.4E1,5.6E1,2.6E2,3.37E2,6E0,8E0,5.2E1,4E0,9E1,1.7E2,7.8E1,2.59E2,7E0,1E0,2.5E1,2.7E1,1E0,3E0,1.6E1,7.4E1,1.31E2,3.9E1,3.1E1,4.7E1,5.4E1,2.05E2],"tree_param":{"num_deleted":"0","num_feature":"7","num_nodes":"29","size_leaf_vector":"1"}},{"base_weights":[1.2370676E-4,-3.4719005E-2,9.090115E-4,-1.4688504E-3,-4.1262355E-2,4.21633E-3,-6.6155703E-3,-4.5778574E-3,-1.5464992E-3,-4.671164E-4,9.702311E-3,-1.0247962E-2,1.6232628E-3,9.3468244E-4,-5.0644815E-4,7.134351E-4,3.2328833E-3,-1.1784335E-3,9.674239E-4,2.125315E-3,-5.8789603E-5],"categories":[],"categories_nodes":[],"categories_segments":[],"categories_sizes":[],"default_left":[0,0,0,0,0,0,0,0,0,0,0,0,0,0,0,0,0,0,0,0,0],"id":36,"left_children":[1,3,5,-1,7,9,11,-1,-1,13,15,17,19,-1,-1,-1,-1,-1,-1,-1,-1],"loss_changes":[1.7379161E-2,1.2288485E-3,1.5482216E-2,0E0,4.5710057E-4,1.1104036E-2,5.7027005E-3,0E0,0E0,1.060501E-2,1.133205E-2,4.1542547E-3,2.5733772E-3,0E0,0E0,0E0,0E0,0E0,0E0,0E0,0E0],"parents":[2147483647,0,0,1,1,2,2,4,4,5,5,6,6,9,9,10,10,11,11,12,12],"right_children":[2,4,6,-1,8,10,12,-1,-1,14,16,18,20,-1,-1,-1,-1,-1,-1,-1,-1],"split_conditions":[5.007E-1,3.1888E0,6.837E-1,-1.4688504E-3,9.161E-1,8.236E-1,8.872E-1,-4.5778574E-3,-1.5464992E-3,3E0,9.331E-1,9.603E-1,1.2671E0,9.3468244E-4,-5.0644815E-4,7.134351E-4,3.2328833E-3,-1.1784335E-3,9.674239E-4,2.125315E-3,-5.8789603E-5],"split_indices":[1,6,2,0,0,0,0,0,0,5,1,1,6,0,0,0,0,0,0,0,0],"split_type":[0,0,0,0,0,0,0,0,0,0,0,0,0,0,0,0,0,0,0,0,0],"sum_hessian":[6.33E2,1.3E1,6.2E2,4E0,9E0,4.31E2,1.89E2,7E0,2E0,2.33E2,1.98E2,1.31E2,5.8E1,7.4E1,1.59E2,1.79E2,1.9E1,1.22E2,9E0,5E0,5.3E1],"tree_param":{"num_deleted":"0","num_feature":"7","num_nodes":"21","size_leaf_vector":"1"}},{"base_weights":[-2.0263533E-4,-1.6515255E-2,1.5732325E-3,-7.983128E-3,-2.720002E-2,-2.4163013E-3,7.491978E-3,-2.004234E-2,-3.3911553E-3,-4.0648382E-2,-2.1684632E-2,6.3397028E-3,-5.493451E-3,-4.151466E-3,1.0471009E-2,-1.3714953E-3,-2.610468E-3,-7.3917786E-4,1.6490066E-3,-1.1200801E-3,-4.3689515E-3,-9.5462654E-4,-2.4693196E-3,4.1610427E-4,2.8695501E-3,-8.7810354E-4,3.96662E-4,1.7720053E-3,-7.6154E-4,1.4877627E-3,2.0332563E-4],"categories":[],"categories_nodes":[],"categories_segments":[],"categories_sizes":[],"default_left":[0,0,0,0,0,0,0,0,0,0,0,0,0,0,0,0,0,0,0,0,0,0,0,0,0,0,0,0,0,0,0],"id":37,"left_children":[1,3,5,7,9,11,13,15,17,19,21,23,25,27,29,-1,-1,-1,-1,-1,-1,-1,-1,-1,-1,-1,-1,-1,-1,-1,-1],"loss_changes":[1.8884838E-2,5.617341E-3,1.3902567E-2,1.9809294E-3,1.1953972E-3,9.518951E-3,8.264093E-3,2.5563408E-5,2.3489345E-3,1.3752002E-4,5.676914E-4,4.3615196E-3,8.152136E-3,3.8472584E-3,6.99714E-3,0E0,0E0,0E0,0E0,0E0,0E0,0E0,0E0,0E0,0E0,0E0,0E0,0E0,0E0,0E0,0E0],"parents":[2147483647,0,0,1,1,2,2,3,3,4,4,5,5,6,6,7,7,8,8,9,9,10,10,11,11,12,12,13,13,14,14],"right_children":[2,4,6,8,10,12,14,16,18,20,22,24,26,28,30,-1,-1,-1,-1,-1,-1,-1,-1,-1,-1,-1,-1,-1,-1,-1,-1],"split_conditions":[6.308E-1,5.3E-1,7.705E-1,5.007E-1,5.007E-1,3.08E-1,5.654E-1,7.863E-1,9.169E-1,4.228E-1,5.713E-1,9.586E-1,9.045E-1,1.1085E0,5.2615E0,-1.3714953E-3,-2.610468E-3,-7.3917786E-4,1.6490066E-3,-1.1200801E-3,-4.3689515E-3,-9.5462654E-4,-2.4693196E-3,4.1610427E-4,2.8695501E-3,-8.7810354E-4,3.96662E-4,1.7720053E-3,-7.6154E-4,1.4877627E-3,2.0332563E-4],"split_indices":[1,2,3,1,1,2,4,3,4,1,4,1,1,6,6,0,0,0,0,0,0,0,0,0,0,0,0,0,0,0,0],"split_type":[0,0,0,0,0,0,0,0,0,0,0,0,0,0,0,0,0,0,0,0,0,0,0,0,0,0,0,0,0,0,0],"sum_hessian":[6.5E2,6.3E1,5.87E2,3.6E1,2.7E1,3.51E2,2.36E2,9E0,2.7E1,6E0,2.1E1,9.1E1,2.6E2,4.8E1,1.88E2,6E0,3E0,2.3E1,4E0,1E0,5E0,5E0,1.6E1,8.4E1,7E0,1.93E2,6.7E1,6E0,4.2E1,1.23E2,6.5E1],"tree_param":{"num_deleted":"0","num_feature":"7","num_nodes":"31","size_leaf_vector":"1"}},{"base_weights":[2.977895E-4,-6.2251003E-3,3.938486E-3,-7.048254E-4,-1.27901435E-2,1.2465046E-3,1.1898906E-2,-9.671755E-3,4.9372823E-3,-3.1230794E-2,-1.0520278E-2,5.510086E-3,-6.1974963E-3,3.0346191E-3,9.831835E-3,-1.17087206E-4,-1.415126E-3,-8.6958305E-4,8.0553984E-4,-7.943809E-4,-3.5523034E-3,-3.4789385E-3,-8.785445E-4,9.820303E-4,-1.6321361E-4,-2.7875847E-4,-1.5538665E-3,2.7813197E-3,8.08544E-4],"categories":[],"categories_nodes":[],"categories_segments":[],"categories_sizes":[],"default_left":[0,0,0,0,0,0,0,0,0,0,0,0,0,0,0,0,0,0,0,0,0,0,0,0,0,0,0,0,0],"id":38,"left_children":[1,3,5,7,9,11,13,15,17,19,21,23,25,-1,27,-1,-1,-1,-1,-1,-1,-1,-1,-1,-1,-1,-1,-1,-1],"loss_changes":[1.5246896E-2,8.326379E-3,8.81404E-3,6.422393E-3,4.066514E-3,9.841223E-3,3.6673546E-3,1.849338E-3,3.3857992E-3,8.172989E-4,3.6941282E-3,6.08058E-3,3.5560247E-3,0E0,2.7583605E-3,0E0,0E0,0E0,0E0,0E0,0E0,0E0,0E0,0E0,0E0,0E0,0E0,0E0,0E0],"parents":[2147483647,0,0,1,1,2,2,3,3,4,4,5,5,6,6,7,7,8,8,9,9,10,10,11,11,12,12,14,14],"right_children":[2,4,6,8,10,12,14,16,18,20,22,24,26,-1,28,-1,-1,-1,-1,-1,-1,-1,-1,-1,-1,-1,-1,-1,-1],"split_conditions":[7.847E-1,4.9457E0,8.336E-1,6.807E-1,4.327E-1,4E0,2E0,5.076E-1,6.04E-1,1.78E-1,5.007E-1,6.171E-1,7.421E-1,3.0346191E-3,7.605E-1,-1.17087206E-4,-1.415126E-3,-8.6958305E-4,8.0553984E-4,-7.943809E-4,-3.5523034E-3,-3.4789385E-3,-8.785445E-4,9.820303E-4,-1.6321361E-4,-2.7875847E-4,-1.5538665E-3,2.7813197E-3,8.08544E-4],"split_indices":[1,6,3,3,3,5,5,3,1,2,1,2,2,0,6,0,0,0,0,0,0,0,0,0,0,0,0,0,0],"split_type":[0,0,0,0,0,0,0,0,0,0,0,0,0,0,0,0,0,0,0,0,0,0,0,0,0,0,0,0,0],"sum_hessian":[6.4E2,2.29E2,4.11E2,1.25E2,1.04E2,3.08E2,1.03E2,4.8E1,7.7E1,1E1,9.4E1,1.96E2,1.12E2,9E0,9.4E1,1.7E1,3.1E1,1.4E1,6.3E1,2E0,8E0,5E0,8.9E1,1.22E2,7.4E1,8.3E1,2.9E1,7E0,8.7E1],"tree_param":{"num_deleted":"0","num_feature":"7","num_nodes":"29","size_leaf_vector":"1"}},{"base_weights":[-7.9607364E-4,-3.4626445E-3,6.0679135E-3,-2.6088445E-2,-2.5755684E-3,3.605378E-3,3.0617079E-2,-1.518774E-2,-3.2879245E-3,3.6499107E-3,-5.6902613E-3,2.1552708E-2,1.9130877E-3,3.365608E-2,-5.964458E-4,-6.428763E-4,-1.9157374E-3,-9.1123994E-4,8.590712E-4,1.0990801E-4,-9.825879E-4,-1.0638848E-3,2.5121907E-3,-6.9869787E-4,4.5084E-4,-1.05735664E-4,3.6407677E-3],"categories":[],"categories_nodes":[],"categories_segments":[],"categories_sizes":[],"default_left":[0,0,0,0,0,0,0,0,0,0,0,0,0,0,0,0,0,0,0,0,0,0,0,0,0,0,0],"id":39,"left_children":[1,3,5,7,9,11,13,15,-1,17,19,21,23,25,-1,-1,-1,-1,-1,-1,-1,-1,-1,-1,-1,-1,-1],"loss_changes":[1.085657E-2,8.503044E-3,9.924843E-3,6.850306E-4,8.009637E-3,4.575326E-3,1.8683095E-3,1.550013E-4,0E0,8.780017E-3,7.7322815E-3,1.7609433E-3,3.265283E-3,1.3757385E-3,0E0,0E0,0E0,0E0,0E0,0E0,0E0,0E0,0E0,0E0,0E0,0E0,0E0],"parents":[2147483647,0,0,1,1,2,2,3,3,4,4,5,5,6,6,7,7,9,9,10,10,11,11,12,12,13,13],"right_children":[2,4,6,8,10,12,14,16,-1,18,20,22,24,26,-1,-1,-1,-1,-1,-1,-1,-1,-1,-1,-1,-1,-1],"split_conditions":[8.891E-1,5.42E-1,9.452E-1,4.5273E0,3E0,2E0,7.8157E0,4.4E-1,-3.2879245E-3,6.853E-1,4.254E-1,5.104E-1,6.997E-1,8.905E-1,-5.964458E-4,-6.428763E-4,-1.9157374E-3,-9.1123994E-4,8.590712E-4,1.0990801E-4,-9.825879E-4,-1.0638848E-3,2.5121907E-3,-6.9869787E-4,4.5084E-4,-1.05735664E-4,3.6407677E-3],"split_indices":[1,0,0,6,5,5,6,2,0,1,2,0,0,1,0,0,0,0,0,0,0,0,0,0,0,0,0],"split_type":[0,0,0,0,0,0,0,0,0,0,0,0,0,0,0,0,0,0,0,0,0,0,0,0,0,0,0],"sum_hessian":[5.91E2,4.26E2,1.65E2,1.5E1,4.11E2,1.51E2,1.4E1,7E0,8E0,1.37E2,2.74E2,1.2E1,1.39E2,1.3E1,1E0,3E0,4E0,3.8E1,9.9E1,1.04E2,1.7E2,1E0,1.1E1,3.1E1,1.08E2,1E0,1.2E1],"tree_param":{"num_deleted":"0","num_feature":"7","num_nodes":"27","size_leaf_vector":"1"}},{"base_weights":[-5.9509686E-5,-1.1148359E-2,2.1956097E-3,7.813148E-3,-1.3356417E-2,-2.2083638E-2,3.2285182E-3,-9.580292E-3,1.4675438E-2,-5.5044903E-3,-1.8237563E-2,-9.478612E-3,-2.8609468E-2,1.9158692E-4,9.844847E-3,-1.9426256E-3,9.978801E-4,1.7403796E-3,-3.5757126E-4,-9.843607E-4,1.57377E-3,-1.6249316E-3,-3.685842E-3,-1.7003304E-3,4.178077E-4,-3.514982E-3,-9.806866E-4,6.3735276E-4,-2.7334454E-4,5.7728664E-4,1.8850624E-3],"categories":[],"categories_nodes":[],"categories_segments":[],"categories_sizes":[],"default_left":[0,0,0,0,0,0,0,0,0,0,0,0,0,0,0,0,0,0,0,0,0,0,0,0,0,0,0,0,0,0,0],"id":40,"left_children":[1,3,5,7,9,11,13,15,17,19,21,23,25,27,29,-1,-1,-1,-1,-1,-1,-1,-1,-1,-1,-1,-1,-1,-1,-1,-1],"loss_changes":[1.612878E-2,4.6679806E-3,1.3513235E-2,1.5729009E-3,3.6555976E-3,1.538503E-3,1.0346182E-2,9.6416334E-4,5.103919E-4,3.7496367E-3,1.6224459E-3,9.959023E-4,1.3769493E-3,6.418582E-3,5.8319364E-3,0E0,0E0,0E0,0E0,0E0,0E0,0E0,0E0,0E0,0E0,0E0,0E0,0E0,0E0,0E0,0E0],"parents":[2147483647,0,0,1,1,2,2,3,3,4,4,5,5,6,6,7,7,8,8,9,9,10,10,11,11,12,12,13,13,14,14],"right_children":[2,4,6,8,10,12,14,16,18,20,22,24,26,28,30,-1,-1,-1,-1,-1,-1,-1,-1,-1,-1,-1,-1,-1,-1,-1,-1],"split_conditions":[5.654E-1,1.766E-1,4.204E-1,6.903E-1,3E0,6.89E-1,8.891E-1,8.504E-1,5.559E-1,8.398E-1,9.661E-1,6.452E-1,7.964E-1,3E0,8.483E-1,-1.9426256E-3,9.978801E-4,1.7403796E-3,-3.5757126E-4,-9.843607E-4,1.57377E-3,-1.6249316E-3,-3.685842E-3,-1.7003304E-3,4.178077E-4,-3.514982E-3,-9.806866E-4,6.3735276E-4,-2.7334454E-4,5.7728664E-4,1.8850624E-3],"split_indices":[4,2,3,3,5,1,1,1,4,2,2,1,4,5,4,0,0,0,0,0,0,0,0,0,0,0,0,0,0,0,0],"split_type":[0,0,0,0,0,0,0,0,0,0,0,0,0,0,0,0,0,0,0,0,0,0,0,0,0,0,0,0,0,0,0],"sum_hessian":[6.43E2,1.08E2,5.35E2,1.1E1,9.7E1,2.1E1,5.14E2,3E0,8E0,3.8E1,5.9E1,8E0,1.3E1,3.53E2,1.61E2,2E0,1E0,7E0,1E0,3.2E1,6E0,5.5E1,4E0,5E0,3E0,9E0,4E0,1.13E2,2.4E2,1.12E2,4.9E1],"tree_param":{"num_deleted":"0","num_feature":"7","num_nodes":"31","size_leaf_vector":"1"}},{"base_weights":[7.076536E-6,-9.504867E-3,1.810443E-3,-5.9014526E-3,-2.2339944E-2,-9.981442E-4,8.820155E-3,-2.031918E-2,-4.0430827E-3,-1.4157191E-2,-3.2586455E-2,1.0872294E-2,-2.721151E-3,-4.2082607E-3,1.1748757E-2,-2.93541E-3,7.5353583E-4,-1.000915E-3,8.574848E-5,-3.0843815E-4,-1.9966045E-3,-3.8117014E-3,-8.8196696E-4,-2.1373332E-3,1.3439908E-3,-2.5362242E-3,-2.0225777E-4,-6.647703E-4,1.2700178E-3,8.296102E-4,2.2061856E-3],"categories":[],"categories_nodes":[],"categories_segments":[],"categories_sizes":[],"default_left":[0,0,0,0,0,0,0,0,0,0,0,0,0,0,0,0,0,0,0,0,0,0,0,0,0,0,0,0,0,0,0],"id":41,"left_children":[1,3,5,7,9,11,13,15,17,19,21,23,25,27,29,-1,-1,-1,-1,-1,-1,-1,-1,-1,-1,-1,-1,-1,-1,-1,-1],"loss_changes":[1.0978308E-2,4.585672E-3,1.0600618E-2,2.088119E-3,1.3832496E-3,7.903932E-3,5.925318E-3,2.4861654E-3,2.1428918E-3,8.389014E-4,8.4681343E-4,4.3441756E-3,5.27885E-3,1.2805944E-3,4.303528E-3,0E0,0E0,0E0,0E0,0E0,0E0,0E0,0E0,0E0,0E0,0E0,0E0,0E0,0E0,0E0,0E0],"parents":[2147483647,0,0,1,1,2,2,3,3,4,4,5,5,6,6,7,7,8,8,9,9,10,10,11,11,12,12,13,13,14,14],"right_children":[2,4,6,8,10,12,14,16,18,20,22,24,26,28,30,-1,-1,-1,-1,-1,-1,-1,-1,-1,-1,-1,-1,-1,-1,-1,-1],"split_conditions":[5.46E-1,5E0,8.262E-1,3.947E-1,4.2857E0,1.7126E0,6.943E-1,8.652E-1,7.994E-1,7.654E-1,5.134E-1,6.03E-1,5.323E-1,6.333E0,8.574E-1,-2.93541E-3,7.5353583E-4,-1.000915E-3,8.574848E-5,-3.0843815E-4,-1.9966045E-3,-3.8117014E-3,-8.8196696E-4,-2.1373332E-3,1.3439908E-3,-2.5362242E-3,-2.0225777E-4,-6.647703E-4,1.2700178E-3,8.296102E-4,2.2061856E-3],"split_indices":[3,5,4,3,6,6,1,1,1,4,3,1,1,6,3,0,0,0,0,0,0,0,0,0,0,0,0,0,0,0,0],"split_type":[0,0,0,0,0,0,0,0,0,0,0,0,0,0,0,0,0,0,0,0,0,0,0,0,0,0,0,0,0,0,0],"sum_hessian":[6.38E2,1.01E2,5.37E2,8E1,2.1E1,3.84E2,1.53E2,8E0,7.2E1,1.3E1,8E0,4.8E1,3.36E2,2.8E1,1.25E2,6E0,2E0,3.2E1,4E1,5E0,8E0,6E0,2E0,3E0,4.5E1,9E0,3.27E2,2.5E1,3E0,9.5E1,3E1],"tree_param":{"num_deleted":"0","num_feature":"7","num_nodes":"31","size_leaf_vector":"1"}},{"base_weights":[6.4256997E-4,-1.5323394E-2,2.124809E-3,-2.2413766E-2,-9.111049E-3,1.310977E-2,1.2927856E-4,-2.698068E-2,-3.4550976E-3,-5.0878455E-3,-2.2178055E-3,-6.492883E-3,1.5340462E-2,-5.182371E-3,3.7230637E-3,-1.4076829E-4,-2.8252536E-3,-1.2778126E-3,1.0127306E-3,-8.9998E-4,8.79998E-4,-1.4896303E-3,4.8897986E-4,2.7659226E-3,1.2169706E-3,-8.608259E-5,-1.2392573E-3,-8.632685E-4,5.823958E-4],"categories":[],"categories_nodes":[],"categories_segments":[],"categories_sizes":[],"default_left":[0,0,0,0,0,0,0,0,0,0,0,0,0,0,0,0,0,0,0,0,0,0,0,0,0,0,0,0,0],"id":42,"left_children":[1,3,5,7,9,11,13,15,17,19,-1,21,23,25,27,-1,-1,-1,-1,-1,-1,-1,-1,-1,-1,-1,-1,-1,-1],"loss_changes":[1.532039E-2,2.2184188E-3,1.2975432E-2,2.0713434E-3,1.5168695E-3,4.0788054E-3,9.601935E-3,6.107334E-4,8.8918273E-4,1.4374121E-3,0E0,1.0293745E-3,2.866298E-3,6.3146525E-3,7.837714E-3,0E0,0E0,0E0,0E0,0E0,0E0,0E0,0E0,0E0,0E0,0E0,0E0,0E0,0E0],"parents":[2147483647,0,0,1,1,2,2,3,3,4,4,5,5,6,6,7,7,8,8,9,9,11,11,12,12,13,13,14,14],"right_children":[2,4,6,8,10,12,14,16,18,20,-1,22,24,26,28,-1,-1,-1,-1,-1,-1,-1,-1,-1,-1,-1,-1,-1,-1],"split_conditions":[6.252E-1,5.675E-1,1.9503E0,8.775E-1,5E0,6.03E-1,6.967E-1,6.618E-1,5E0,6.0719E0,-2.2178055E-3,8.291E-1,8.052E-1,4E0,6.648E-1,-1.4076829E-4,-2.8252536E-3,-1.2778126E-3,1.0127306E-3,-8.9998E-4,8.79998E-4,-1.4896303E-3,4.8897986E-4,2.7659226E-3,1.2169706E-3,-8.608259E-5,-1.2392573E-3,-8.632685E-4,5.823958E-4],"split_indices":[0,0,6,1,5,1,4,6,5,6,0,4,6,5,1,0,0,0,0,0,0,0,0,0,0,0,0,0,0],"split_type":[0,0,0,0,0,0,0,0,0,0,0,0,0,0,0,0,0,0,0,0,0,0,0,0,0,0,0,0,0],"sum_hessian":[6.45E2,5.4E1,5.91E2,2.4E1,3E1,9E1,5.01E2,1.9E1,5E0,2.4E1,6E0,9E0,8.1E1,2.02E2,2.99E2,1E0,1.8E1,3E0,2E0,1.9E1,5E0,5E0,4E0,1.5E1,6.6E1,1.27E2,7.5E1,4.3E1,2.56E2],"tree_param":{"num_deleted":"0","num_feature":"7","num_nodes":"29","size_leaf_vector":"1"}},{"base_weights":[-5.6201192E-5,-3.6974389E-3,3.7486055E-3,-2.0368495E-3,-1.7445859E-2,-1.6984932E-2,4.6345633E-3,-6.7585534E-3,1.204068E-3,-8.024563E-3,-2.3344599E-2,7.6461834E-4,-2.2158425E-2,-2.8061657E-3,6.624319E-3,-1.8789497E-3,-4.707247E-4,1.3211943E-3,-4.4118817E-5,-1.1920523E-3,5.6694524E-4,-2.6908822E-3,7.010341E-4,-2.1452607E-4,-2.3945216E-3,1.6419424E-5,-1.7132827E-3,1.8661683E-4,1.2194752E-3],"categories":[],"categories_nodes":[],"categories_segments":[],"categories_sizes":[],"default_left":[0,0,0,0,0,0,0,0,0,0,0,0,0,0,0,0,0,0,0,0,0,0,0,0,0,0,0,0,0],"id":43,"left_children":[1,3,5,7,9,11,13,15,17,19,21,-1,23,25,27,-1,-1,-1,-1,-1,-1,-1,-1,-1,-1,-1,-1,-1,-1],"loss_changes":[8.838991E-3,7.4072005E-3,5.809859E-3,4.476513E-3,1.7577531E-3,1.826003E-3,4.4601588E-3,2.8483719E-3,3.443378E-3,8.678524E-4,2.460667E-3,0E0,3.419835E-4,2.726355E-3,6.258917E-3,0E0,0E0,0E0,0E0,0E0,0E0,0E0,0E0,0E0,0E0,0E0,0E0,0E0,0E0],"parents":[2147483647,0,0,1,1,2,2,3,3,4,4,5,5,6,6,7,7,8,8,9,9,10,10,12,12,13,13,14,14],"right_children":[2,4,6,8,10,12,14,16,18,20,22,-1,24,26,28,-1,-1,-1,-1,-1,-1,-1,-1,-1,-1,-1,-1,-1,-1],"split_conditions":[8.236E-1,8.757E-1,4.099E-1,6.974E-1,3E0,4.456E-1,5.795E-1,5.012E-1,1.687E-1,7.71E-1,9.059E-1,7.6461834E-4,8.313E-1,7.73E-1,7.424E-1,-1.8789497E-3,-4.707247E-4,1.3211943E-3,-4.4118817E-5,-1.1920523E-3,5.6694524E-4,-2.6908822E-3,7.010341E-4,-2.1452607E-4,-2.3945216E-3,1.6419424E-5,-1.7132827E-3,1.8661683E-4,1.2194752E-3],"split_indices":[0,2,4,3,5,2,3,4,2,0,4,0,0,2,4,0,0,0,0,0,0,0,0,0,0,0,0,0,0],"split_type":[0,0,0,0,0,0,0,0,0,0,0,0,0,0,0,0,0,0,0,0,0,0,0,0,0,0,0,0,0],"sum_hessian":[6.36E2,3.25E2,3.11E2,2.91E2,3.4E1,1.2E1,2.99E2,1.18E2,1.73E2,1.4E1,2E1,2E0,1E1,6.3E1,2.36E2,1.6E1,1.02E2,2E1,1.53E2,1.1E1,3E0,1.8E1,2E0,1E0,9E0,5.3E1,1E1,1.28E2,1.08E2],"tree_param":{"num_deleted":"0","num_feature":"7","num_nodes":"29","size_leaf_vector":"1"}},{"base_weights":[-3.6753347E-4,1.3879847E-2,-1.3775249E-3,-4.0141866E-4,2.213448E-2,-3.4281628E-3,5.858531E-3,8.073936E-3,-2.0661985E-3,2.9853432E-2,1.0641247E-2,-5.942448E-3,3.884148E-3,8.9997435E-3,2.5346747E-4,1.1363268E-3,-1.4054358E-3,3.3697996E-3,3.2425125E-4,-9.276137E-4,1.8311058E-3,-4.1493328E-4,-1.9491317E-3,-1.158271E-4,1.1865705E-3,1.0526767E-3,-8.865042E-4,4.4621542E-4,-1.3926068E-3],"categories":[],"categories_nodes":[],"categories_segments":[],"categories_sizes":[],"default_left":[0,0,0,0,0,0,0,0,0,0,0,0,0,0,0,0,0,0,0,0,0,0,0,0,0,0,0,0,0],"id":44,"left_children":[1,3,5,7,9,11,13,15,-1,17,19,21,23,25,27,-1,-1,-1,-1,-1,-1,-1,-1,-1,-1,-1,-1,-1,-1],"loss_changes":[8.911975E-3,4.842235E-3,8.596754E-3,2.9142716E-3,1.9889306E-3,8.314823E-3,2.2513764E-3,1.033151E-3,0E0,1.4253445E-3,2.0030064E-3,8.082137E-3,4.68232E-3,2.3302757E-3,2.8669697E-3,0E0,0E0,0E0,0E0,0E0,0E0,0E0,0E0,0E0,0E0,0E0,0E0,0E0,0E0],"parents":[2147483647,0,0,1,1,2,2,3,3,4,4,5,5,6,6,7,7,9,9,10,10,11,11,12,12,13,13,14,14],"right_children":[2,4,6,8,10,12,14,16,-1,18,20,22,24,26,28,-1,-1,-1,-1,-1,-1,-1,-1,-1,-1,-1,-1,-1,-1],"split_conditions":[1.452E-1,6.511E-1,8.494E-1,6.062E-1,4E0,8.336E-1,4E0,5E0,-2.0661985E-3,8.721E-1,6.707E-1,9.008E-1,7.404E-1,7.6798E0,7.388E-1,1.1363268E-3,-1.4054358E-3,3.3697996E-3,3.2425125E-4,-9.276137E-4,1.8311058E-3,-4.1493328E-4,-1.9491317E-3,-1.158271E-4,1.1865705E-3,1.0526767E-3,-8.865042E-4,4.4621542E-4,-1.3926068E-3],"split_indices":[2,4,4,4,5,3,5,5,0,3,3,2,4,6,2,0,0,0,0,0,0,0,0,0,0,0,0,0,0],"split_type":[0,0,0,0,0,0,0,0,0,0,0,0,0,0,0,0,0,0,0,0,0,0,0,0,0,0,0,0,0],"sum_hessian":[6.17E2,4E1,5.77E2,1.5E1,2.5E1,4.5E2,1.27E2,1.1E1,4E0,1.4E1,1.1E1,3.35E2,1.15E2,8.1E1,4.6E1,1E1,1E0,1.2E1,2E0,3E0,8E0,2.97E2,3.8E1,7.1E1,4.4E1,7.5E1,6E0,3.6E1,1E1],"tree_param":{"num_deleted":"0","num_feature":"7","num_nodes":"29","size_leaf_vector":"1"}},{"base_weights":[3.5375598E-4,-8.403964E-3,2.0460407E-3,-2.230971E-2,-6.1722677E-3,-8.327846E-3,3.9029613E-3,-8.1884116E-4,-2.5416572E-2,-7.5945724E-3,9.533465E-3,1.8533869E-2,-1.0692375E-2,1.6381979E-3,1.2182673E-2,-1.4618397E-3,-2.9498616E-3,-2.1418056E-3,-6.2566367E-4,1.2106096E-3,-4.2374732E-4,6.246686E-4,2.2199403E-3,-2.5994133E-3,-9.009451E-4,4.0334414E-4,-3.4997854E-4,8.122692E-4,1.958609E-3],"categories":[],"categories_nodes":[],"categories_segments":[],"categories_sizes":[],"default_left":[0,0,0,0,0,0,0,0,0,0,0,0,0,0,0,0,0,0,0,0,0,0,0,0,0,0,0,0,0],"id":45,"left_children":[1,3,5,7,9,11,13,-1,15,17,19,21,23,25,27,-1,-1,-1,-1,-1,-1,-1,-1,-1,-1,-1,-1,-1,-1],"loss_changes":[9.517171E-3,3.0897725E-3,1.0396257E-2,4.0609995E-4,2.1051913E-3,5.4064235E-3,8.549519E-3,0E0,5.3641386E-5,1.4195689E-3,3.3471955E-4,1.7660111E-4,1.7229365E-3,4.444536E-3,2.7865656E-3,0E0,0E0,0E0,0E0,0E0,0E0,0E0,0E0,0E0,0E0,0E0,0E0,0E0,0E0],"parents":[2147483647,0,0,1,1,2,2,3,3,4,4,5,5,6,6,8,8,9,9,10,10,11,11,12,12,13,13,14,14],"right_children":[2,4,6,8,10,12,14,-1,16,18,20,22,24,26,28,-1,-1,-1,-1,-1,-1,-1,-1,-1,-1,-1,-1,-1,-1],"split_conditions":[6.762E-1,5.007E-1,6.838E-1,1.7413E0,9.19E-1,1.325E-1,8.531E-1,-8.1884116E-4,4.4E-1,3.936E-1,6.049E-1,7.236E-1,5.104E-1,6.744E-1,9.012E-1,-1.4618397E-3,-2.9498616E-3,-2.1418056E-3,-6.2566367E-4,1.2106096E-3,-4.2374732E-4,6.246686E-4,2.2199403E-3,-2.5994133E-3,-9.009451E-4,4.0334414E-4,-3.4997854E-4,8.122692E-4,1.958609E-3],"split_indices":[1,1,0,6,4,2,4,0,2,4,2,1,0,2,1,0,0,0,0,0,0,0,0,0,0,0,0,0,0],"split_type":[0,0,0,0,0,0,0,0,0,0,0,0,0,0,0,0,0,0,0,0,0,0,0,0,0,0,0,0,0],"sum_hessian":[6.4E2,1.03E2,5.37E2,1.3E1,9E1,8.1E1,4.56E2,3E0,1E1,8.3E1,7E0,6E0,7.5E1,3.59E2,9.7E1,4E0,6E0,6E0,7.7E1,6E0,1E0,2E0,4E0,6E0,6.9E1,2.45E2,1.14E2,6.4E1,3.3E1],"tree_param":{"num_deleted":"0","num_feature":"7","num_nodes":"29","size_leaf_vector":"1"}},{"base_weights":[-5.647028E-4,1.7572041E-3,-4.968656E-3,8.948634E-4,2.0227738E-2,-1.5315527E-2,-3.3596014E-3,-4.3308624E-5,1.3662251E-2,-8.559595E-4,2.411799E-2,-6.874345E-3,-1.9192401E-2,-8.98818E-3,-1.612781E-4,1.6314942E-4,-8.086782E-4,1.9804265E-3,6.105649E-4,-8.299768E-4,2.6662834E-3,1.1594164E-3,-1.9084087E-3,-2.2476213E-3,-4.3809414E-5,-5.744497E-4,-2.4457583E-3,-8.0452545E-4,2.0701624E-4],"categories":[],"categories_nodes":[],"categories_segments":[],"categories_sizes":[],"default_left":[0,0,0,0,0,0,0,0,0,0,0,0,0,0,0,0,0,0,0,0,0,0,0,0,0,0,0,0,0],"id":46,"left_children":[1,3,5,7,9,11,13,15,17,-1,19,21,23,25,27,-1,-1,-1,-1,-1,-1,-1,-1,-1,-1,-1,-1,-1,-1],"loss_changes":[6.665577E-3,6.78311E-3,3.6944994E-3,4.8995963E-3,2.3342487E-3,8.498272E-4,3.5269456E-3,5.1592044E-3,1.178639E-3,0E0,1.6237637E-3,2.7017174E-3,1.2218659E-3,3.4221308E-3,2.2333255E-3,0E0,0E0,0E0,0E0,0E0,0E0,0E0,0E0,0E0,0E0,0E0,0E0,0E0,0E0],"parents":[2147483647,0,0,1,1,2,2,3,3,4,4,5,5,6,6,7,7,8,8,10,10,11,11,12,12,13,13,14,14],"right_children":[2,4,6,8,10,12,14,16,18,-1,20,22,24,26,28,-1,-1,-1,-1,-1,-1,-1,-1,-1,-1,-1,-1,-1,-1],"split_conditions":[6.594E-1,9.635E-1,6.762E-1,9.543E-1,4.512E-1,3E0,7.741E-1,5E0,3.35E-1,-8.559595E-4,4.73E-1,8.223E-1,8.645E-1,7.418E-1,5.795E-1,1.6314942E-4,-8.086782E-4,1.9804265E-3,6.105649E-4,-8.299768E-4,2.6662834E-3,1.1594164E-3,-1.9084087E-3,-2.2476213E-3,-4.3809414E-5,-5.744497E-4,-2.4457583E-3,-8.0452545E-4,2.0701624E-4],"split_indices":[2,0,1,1,1,5,0,5,2,0,3,2,3,0,3,0,0,0,0,0,0,0,0,0,0,0,0,0,0],"split_type":[0,0,0,0,0,0,0,0,0,0,0,0,0,0,0,0,0,0,0,0,0,0,0,0,0,0,0,0,0],"sum_hessian":[6.5E2,4.26E2,2.24E2,4.08E2,1.8E1,2.9E1,1.95E2,3.81E2,2.7E1,2E0,1.6E1,1E1,1.9E1,7E1,1.25E2,3.16E2,6.5E1,1.4E1,1.3E1,1E0,1.5E1,4E0,6E0,1.6E1,3E0,5.9E1,1.1E1,2.7E1,9.8E1],"tree_param":{"num_deleted":"0","num_feature":"7","num_nodes":"29","size_leaf_vector":"1"}},{"base_weights":[-1.9673942E-4,1.4412614E-2,-1.1767504E-3,7.183428E-3,2.5259253E-2,-1.0749657E-2,-1.7430757E-5,1.3971432E-2,-9.836011E-3,1.7391026E-2,3.547446E-3,-1.9961964E-2,-7.885536E-3,-9.397484E-3,1.2919047E-3,-2.2944213E-4,1.9944552E-3,9.451032E-4,-1.3941451E-3,2.247909E-3,6.7895296E-4,-1.1332952E-3,-2.8204701E-3,-9.871296E-4,4.133284E-5,-1.0462339E-3,1.6806861E-3,2.4329631E-4,-8.1466715E-4],"categories":[],"categories_nodes":[],"categories_segments":[],"categories_sizes":[],"default_left":[0,0,0,0,0,0,0,0,0,0,0,0,0,0,0,0,0,0,0,0,0,0,0,0,0,0,0,0,0],"id":47,"left_children":[1,3,5,7,9,11,13,15,17,19,-1,21,23,25,27,-1,-1,-1,-1,-1,-1,-1,-1,-1,-1,-1,-1,-1,-1],"loss_changes":[9.33754E-3,3.0334592E-3,6.780726E-3,3.141152E-3,6.690724E-4,1.5840107E-3,6.7179142E-3,1.8917616E-3,7.652152E-4,4.4072978E-4,0E0,7.4725784E-4,8.610175E-4,2.0453944E-3,5.1894044E-3,0E0,0E0,0E0,0E0,0E0,0E0,0E0,0E0,0E0,0E0,0E0,0E0,0E0,0E0],"parents":[2147483647,0,0,1,1,2,2,3,3,4,4,5,5,6,6,7,7,8,8,9,9,11,11,12,12,13,13,14,14],"right_children":[2,4,6,8,10,12,14,16,18,20,-1,22,24,26,28,-1,-1,-1,-1,-1,-1,-1,-1,-1,-1,-1,-1,-1,-1],"split_conditions":[1.471E-1,8.636E-1,6.4E-1,7.762E-1,9.307E-1,5.007E-1,5.236E-1,7.68E-2,7.513E-1,8.721E-1,3.547446E-3,5.396E-1,7.1553E0,9.221E-1,9.008E-1,-2.2944213E-4,1.9944552E-3,9.451032E-4,-1.3941451E-3,2.247909E-3,6.7895296E-4,-1.1332952E-3,-2.8204701E-3,-9.871296E-4,4.133284E-5,-1.0462339E-3,1.6806861E-3,2.4329631E-4,-8.1466715E-4],"split_indices":[2,1,1,4,1,1,4,2,6,3,0,2,6,3,2,0,0,0,0,0,0,0,0,0,0,0,0,0,0],"split_type":[0,0,0,0,0,0,0,0,0,0,0,0,0,0,0,0,0,0,0,0,0,0,0,0,0,0,0,0,0],"sum_hessian":[6.5E2,4E1,6.1E2,2.5E1,1.5E1,6.5E1,5.45E2,1.8E1,7E0,1E1,5E0,1.4E1,5.1E1,6.6E1,4.79E2,5E0,1.3E1,1E0,6E0,6E0,4E0,8E0,6E0,4.1E1,1E1,6.4E1,2E0,4.28E2,5.1E1],"tree_param":{"num_deleted":"0","num_feature":"7","num_nodes":"29","size_leaf_vector":"1"}},{"base_weights":[-1.4134245E-4,-1.3640323E-3,9.179446E-3,3.1919826E-3,-3.7055626E-3,4.32433E-3,2.1226915E-2,-6.684045E-3,5.2089635E-3,-4.6327203E-3,7.452193E-3,1.5223435E-2,-2.5346559E-3,2.8752916E-2,2.067353E-3,-9.2053035E-4,1.3896406E-3,-2.1424655E-4,7.759813E-4,-3.2525582E-5,-6.647596E-4,1.6296061E-3,1.9398378E-4,1.892992E-3,-5.2616E-4,2.1021331E-3,-6.376165E-4,3.3852381E-3,1.5461653E-3,-8.508583E-4,7.9994445E-4],"categories":[],"categories_nodes":[],"categories_segments":[],"categories_sizes":[],"default_left":[0,0,0,0,0,0,0,0,0,0,0,0,0,0,0,0,0,0,0,0,0,0,0,0,0,0,0,0,0,0,0],"id":48,"left_children":[1,3,5,7,9,11,13,15,17,19,21,23,25,27,29,-1,-1,-1,-1,-1,-1,-1,-1,-1,-1,-1,-1,-1,-1,-1,-1],"loss_changes":[7.272049E-3,6.0286066E-3,4.2366055E-3,3.8594105E-3,3.8932073E-3,4.0754536E-3,2.9686503E-3,1.8402456E-3,3.0170074E-3,2.992095E-3,1.3821543E-3,1.6940776E-3,3.2107136E-3,4.9326103E-4,5.0722586E-4,0E0,0E0,0E0,0E0,0E0,0E0,0E0,0E0,0E0,0E0,0E0,0E0,0E0,0E0,0E0,0E0],"parents":[2147483647,0,0,1,1,2,2,3,3,4,4,5,5,6,6,7,7,8,8,9,9,10,10,11,11,12,12,13,13,14,14],"right_children":[2,4,6,8,10,12,14,16,18,20,22,24,26,28,30,-1,-1,-1,-1,-1,-1,-1,-1,-1,-1,-1,-1,-1,-1,-1,-1],"split_conditions":[9.353E-1,3E0,8.963E-1,5.407E-1,9.203E-1,9.476E-1,5.836E-1,8.976E-1,7.098E-1,3.607E-1,9.434E-1,8.604E-1,2.596E-1,9.517E-1,9.203E-1,-9.2053035E-4,1.3896406E-3,-2.1424655E-4,7.759813E-4,-3.2525582E-5,-6.647596E-4,1.6296061E-3,1.9398378E-4,1.892992E-3,-5.2616E-4,2.1021331E-3,-6.376165E-4,3.3852381E-3,1.5461653E-3,-8.508583E-4,7.9994445E-4],"split_indices":[0,5,1,4,4,0,2,0,1,2,4,1,2,1,1,0,0,0,0,0,0,0,0,0,0,0,0,0,0,0,0],"split_type":[0,0,0,0,0,0,0,0,0,0,0,0,0,0,0,0,0,0,0,0,0,0,0,0,0,0,0,0,0,0,0],"sum_hessian":[6.36E2,5.63E2,7.3E1,1.91E2,3.72E2,5.3E1,2E1,3.2E1,1.59E2,3.44E2,2.8E1,2E1,3.3E1,1.4E1,6E0,2.9E1,3E0,4.1E1,1.18E2,1.1E2,2.34E2,1E1,1.8E1,1.7E1,3E0,4E0,2.9E1,9E0,5E0,2E0,4E0],"tree_param":{"num_deleted":"0","num_feature":"7","num_nodes":"31","size_leaf_vector":"1"}},{"base_weights":[-2.8776142E-4,-7.802257E-3,1.2156706E-3,-1.488806E-3,-1.2828204E-2,-2.1187136E-2,1.6352796E-3,3.1704584E-3,-7.852132E-3,-7.527637E-3,-1.947019E-2,-2.6895106E-4,-2.2943595E-3,4.704795E-3,-5.6816445E-4,-4.0088195E-4,1.7211968E-3,1.4464043E-4,-1.643684E-3,-4.5330005E-4,-1.706791E-3,-2.3410742E-3,-5.4300175E-4,7.184427E-4,-1.5324198E-5,-2.5761446E-3,-7.069609E-6],"categories":[],"categories_nodes":[],"categories_segments":[],"categories_sizes":[],"default_left":[0,0,0,0,0,0,0,0,0,0,0,0,0,0,0,0,0,0,0,0,0,0,0,0,0,0,0],"id":49,"left_children":[1,3,5,7,9,11,13,15,17,19,21,-1,-1,23,25,-1,-1,-1,-1,-1,-1,-1,-1,-1,-1,-1,-1],"loss_changes":[7.318989E-3,3.407856E-3,5.110874E-3,1.4776676E-3,1.9658143E-3,2.6319595E-4,3.594095E-3,2.9924286E-3,1.7001037E-3,9.2256884E-4,1.3113562E-3,0E0,0E0,2.6753447E-3,3.8833658E-3,0E0,0E0,0E0,0E0,0E0,0E0,0E0,0E0,0E0,0E0,0E0,0E0],"parents":[2147483647,0,0,1,1,2,2,3,3,4,4,5,5,6,6,7,7,8,8,9,9,10,10,13,13,14,14],"right_children":[2,4,6,8,10,12,14,16,18,20,22,-1,-1,24,26,-1,-1,-1,-1,-1,-1,-1,-1,-1,-1,-1,-1],"split_conditions":[5.46E-1,4.384E-1,5.007E-1,4E0,4.7562E0,1.6281E0,3.6628E0,8.544E-1,8.627E-1,5.236E-1,8.592E-1,-2.6895106E-4,-2.2943595E-3,6.594E-1,3.7767E0,-4.0088195E-4,1.7211968E-3,1.4464043E-4,-1.643684E-3,-4.5330005E-4,-1.706791E-3,-2.3410742E-3,-5.4300175E-4,7.184427E-4,-1.5324198E-5,-2.5761446E-3,-7.069609E-6],"split_indices":[3,2,1,5,6,6,6,1,1,3,1,0,0,2,6,0,0,0,0,0,0,0,0,0,0,0,0],"split_type":[0,0,0,0,0,0,0,0,0,0,0,0,0,0,0,0,0,0,0,0,0,0,0,0,0,0,0],"sum_hessian":[6.46E2,1.07E2,5.39E2,4.8E1,5.9E1,9E0,5.3E2,2.8E1,2E1,3.4E1,2.5E1,1E0,8E0,2.21E2,3.09E2,1.9E1,9E0,1E1,1E1,2.7E1,7E0,1.9E1,6E0,1.46E2,7.5E1,5E0,3.04E2],"tree_param":{"num_deleted":"0","num_feature":"7","num_nodes":"27","size_leaf_vector":"1"}},{"base_weights":[2.8521745E-4,2.771327E-3,-4.058696E-3,1.1964476E-2,1.3311158E-3,1.1754097E-2,-5.3576385E-3,-3.1911244E-3,1.5403301E-2,-8.861917E-4,7.820427E-3,-1.312458E-2,1.979976E-2,-6.269234E-3,1.912751E-2,-7.917266E-4,1.2051006E-3,1.0171917E-3,2.894195E-3,-3.2473388E-4,3.279642E-4,2.1415239E-3,4.591614E-4,-2.1010707E-3,-8.6359185E-5,5.8205426E-4,2.042735E-3,-1.0197012E-3,-2.0489484E-4,2.4011673E-3,8.240432E-4],"categories":[],"categories_nodes":[],"categories_segments":[],"categories_sizes":[],"default_left":[0,0,0,0,0,0,0,0,0,0,0,0,0,0,0,0,0,0,0,0,0,0,0,0,0,0,0,0,0,0,0],"id":50,"left_children":[1,3,5,7,9,11,13,15,17,19,21,23,25,27,29,-1,-1,-1,-1,-1,-1,-1,-1,-1,-1,-1,-1,-1,-1,-1,-1],"loss_changes":[6.912092E-3,5.372785E-3,4.848772E-3,2.9156134E-3,5.086177E-3,3.862841E-3,4.9411566E-3,8.878121E-4,2.892769E-3,2.6073924E-3,3.85223E-3,4.6531396E-4,3.9269216E-6,3.4435634E-3,2.2752746E-4,0E0,0E0,0E0,0E0,0E0,0E0,0E0,0E0,0E0,0E0,0E0,0E0,0E0,0E0,0E0,0E0],"parents":[2147483647,0,0,1,1,2,2,3,3,4,4,5,5,6,6,7,7,8,8,9,9,10,10,11,11,12,12,13,13,14,14],"right_children":[2,4,6,8,10,12,14,16,18,20,22,24,26,28,30,-1,-1,-1,-1,-1,-1,-1,-1,-1,-1,-1,-1,-1,-1,-1,-1],"split_conditions":[4E0,1.7126E0,9.865E-1,5.091E-1,8.336E-1,6.695E-1,9.64E-1,1.602E0,8.896E-1,8.753E-1,2E0,5.42E-1,7.307E-1,8.097E-1,9.681E-1,-7.917266E-4,1.2051006E-3,1.0171917E-3,2.894195E-3,-3.2473388E-4,3.279642E-4,2.1415239E-3,4.591614E-4,-2.1010707E-3,-8.6359185E-5,5.8205426E-4,2.042735E-3,-1.0197012E-3,-2.0489484E-4,2.4011673E-3,8.240432E-4],"split_indices":[5,6,6,3,3,0,1,6,0,1,5,0,0,0,1,0,0,0,0,0,0,0,0,0,0,0,0,0,0,0,0],"split_type":[0,0,0,0,0,0,0,0,0,0,0,0,0,0,0,0,0,0,0,0,0,0,0,0,0,0,0,0,0,0,0],"sum_hessian":[6.38E2,4.06E2,2.32E2,5.4E1,3.52E2,1.7E1,2.15E2,1E1,4.4E1,2.63E2,8.9E1,4E0,1.3E1,2.08E2,7E0,8E0,2E0,3.3E1,1.1E1,1.68E2,9.5E1,1.6E1,7.3E1,2E0,2E0,1E0,1.2E1,1.07E2,1.01E2,4E0,3E0],"tree_param":{"num_deleted":"0","num_feature":"7","num_nodes":"31","size_leaf_vector":"1"}},{"base_weights":[-5.10461E-4,1.6121516E-3,-4.1778996E-3,1.259858E-2,7.068833E-4,-7.447873E-3,1.5080074E-3,-6.1425227E-3,1.7342145E-2,-1.1465639E-2,1.4913247E-3,-3.5050325E-3,-6.64612E-3,-2.0381454E-3,1.3489527E-2,-1.7343521E-3,1.4573316E-3,9.162307E-5,2.0427261E-3,1.1351794E-3,-1.3018786E-3,2.480503E-4,-6.385197E-4,-5.657961E-4,-1.8349E-3,1.6989753E-3,-4.500195E-4,-1.8722753E-3,1.8108822E-3],"categories":[],"categories_nodes":[],"categories_segments":[],"categories_sizes":[],"default_left":[0,0,0,0,0,0,0,0,0,